0.012636
-0.048237
-0.010944
0.104912
0.118019
-0.005994
0.032040
-0.003814
0.081995
0.081603
0.013479
0.060710
0.032664
0.060657
0.077110
-0.042960
0.109940
0.068406
-0.056212
-0.028156
-0.031456
0.019909
0.007922
0.039629
0.119194
-0.013779
0.089943
-0.070497
-0.066639
0.019203
-0.007520
0.069581
0.098316
0.056304
0.038227
-0.035226
-0.040752
-0.042340
0.068894
0.077889
0.107788
-0.057984
0.053734
-0.045078
0.007358
-0.103647
0.040120
-0.002559
-0.097978
0.054680
0.031904
-0.014426
-0.027736
0.115549
0.013774
0.037843
0.115068
0.044045
0.042610
-0.025449
-0.007712
-0.003236
0.096152
0.069261
-0.003545
-0.010599
0.023422
-0.000787
-0.022259
0.110539
-0.007319
0.045087
-0.036045
0.048728
-0.008938
-0.064456
0.105045
-0.021284
-0.030373
0.054349
0.053261
0.073164
-0.038194
0.104265
0.104710
0.084051
0.070003
0.044606
0.066661
-0.039723
0.101044
-0.030096
-0.031416
0.008928
-0.037297
0.004131
0.074123
-0.047774
-0.084511
0.056193
0.073095
0.010811
0.020385
0.000041
-0.018071
0.078443
0.055101
0.014482
-0.014347
0.091311
0.036039
0.078481
-0.025999
-0.004554
0.010331
0.066926
-0.027606
-0.038145
-0.010600
0.076874
-0.039964
0.011538
-0.020919
0.053059
0.000957
-0.039484
0.039718
0.002287
0.000589
0.001107
-0.047539
0.089495
-0.015521
0.075323
0.107031
-0.029781
0.009685
0.078420
-0.005209
-0.020705
0.081614
-0.047686
-0.022276
0.085257
0.052624
-0.037828
-0.034909
-0.052321
-0.066608
0.102441
0.103560
0.068695
-0.042688
0.008850
-0.027651
0.047496
-0.002117
-0.068175
-0.044044
0.040542
0.062540
0.009251
0.058143
-0.012695
0.067834
-0.020997
0.014940
0.042470
-0.073920
0.080515
-0.025063
-0.002569
0.103400
0.047241
-0.004540
0.069084
-0.026823
0.008035
0.043490
0.000924
-0.029666
-0.024065
0.014082
0.088464
0.060593
0.024590
0.079320
-0.057639
-0.001505
0.080917
0.107705
-0.089556
-0.030255
-0.003834
0.117922
-0.027719
0.043310
0.038586
-0.028939
0.034009
-0.031610
0.018552
0.099777
0.044592
0.062017
0.064905
-0.031595
0.024125
0.042561
0.103410
0.060671
0.013312
0.101992
0.060914
0.097230
0.017721
0.059139
-0.039000
0.048324
-0.002621
0.071850
0.001570
-0.051010
0.060252
-0.021204
0.054134
-0.025810
-0.026007
-0.027213
0.112967
0.110008
0.114673
0.057954
0.066480
0.039944
-0.014477
0.156255
0.022205
0.135914
0.049876
0.025277
-0.017163
0.043005
0.074687
0.051561
-0.050120
0.099028
-0.082464
-0.095328
-0.021239
0.194248
-0.144705
0.179364
0.349859
0.221153
-0.174468
0.201861
-0.100570
-0.175486
0.205682
0.238914
-0.174877
0.165177
0.185451
0.202499
-0.100802
0.162323
-0.190860
-0.142633
0.113137
0.278665
-0.102986
0.172948
0.250751
0.204227
-0.160153
0.262447
-0.149173
-0.053238
0.154051
0.305311
-0.118915
0.286686
0.308469
0.269861
-0.108697
0.164866
-0.207009
-0.166241
0.243062
0.130730
-0.121131
0.017536
0.025428
0.028387
-0.038524
0.175189
-0.046750
-0.165311
0.139737
0.194847
-0.183625
0.127031
0.263125
0.259227
-0.062578
0.275798
-0.212743
-0.094855
0.098142
0.196983
-0.233604
0.240028
0.282411
0.279791
-0.152754
0.149792
-0.197978
-0.229215
0.185018
0.168913
-0.277476
0.285411
0.289181
0.260253
-0.123960
0.288806
-0.223193
-0.172689
0.133958
0.269946
-0.127188
0.186189
0.202499
0.260835
-0.137161
0.169886
-0.204820
-0.199009
0.147239
0.047779
-0.044632
0.152888
0.083639
0.048658
-0.087455
0.156604
-0.034533
-0.058513
-0.003352
0.206653
-0.150120
0.222627
0.306936
0.171093
-0.168522
0.325091
-0.248128
-0.124892
0.206113
0.249335
-0.240511
0.264710
0.227810
0.257064
-0.175555
0.303314
-0.148536
-0.203527
0.175760
0.137164
-0.209553
0.130532
0.207223
0.171635
-0.067978
0.118097
-0.061012
-0.062953
0.162882
0.323589
-0.351275
0.279542
0.384860
0.247967
-0.306993
0.340920
-0.368379
-0.129918
0.368837
0.107313
-0.051135
0.153801
0.079105
0.149484
-0.164042
0.080216
-0.061274
-0.178955
0.185701
0.307937
-0.252024
0.266268
0.369840
0.167836
-0.275404
0.217876
-0.294031
-0.194044
0.239835
0.365764
-0.186297
0.254195
0.371581
0.170690
-0.206939
0.274198
-0.331895
-0.213241
0.310304
0.336950
-0.217094
0.343528
0.371832
0.282947
-0.208498
0.336091
-0.178700
-0.237489
0.207984
0.384577
-0.295193
0.287362
0.414526
0.218075
-0.281497
0.309914
-0.229825
-0.185212
0.275378
0.037600
0.050777
-0.019117
0.023414
0.017453
-0.054617
-0.038331
0.029998
-0.024362
-0.023147
0.127121
0.044217
0.222169
0.162862
0.180284
-0.019552
0.172984
0.140649
-0.014071
0.123330
0.199510
-0.061951
0.179352
0.266818
0.255798
-0.018112
0.112826
-0.009438
-0.103597
0.171315
0.124291
0.030947
0.190829
0.233757
0.257112
0.032749
0.185739
0.025146
-0.051439
0.163500
0.325627
-0.281553
0.349505
0.312179
0.246945
-0.247493
0.321494
-0.284643
-0.126162
0.243028
0.109439
-0.057962
0.063254
0.008296
0.114924
0.005510
0.037605
-0.085182
-0.061454
0.047941
0.039340
0.001156
0.060664
0.010860
0.013466
-0.063700
0.094388
-0.037027
0.021684
0.105971
0.114830
-0.000643
0.023082
0.090245
0.128662
0.038770
0.067078
0.086346
-0.014147
0.043562
0.115539
-0.106855
0.112358
0.053548
0.087125
-0.116234
0.141038
-0.013944
-0.103567
0.080195
0.128952
0.077933
0.181889
0.207129
0.135971
0.081708
0.114151
0.030089
0.000539
0.107834
0.011861
-0.042070
0.090835
-0.037491
0.000730
-0.066016
0.074826
-0.059134
-0.078904
0.018963
0.082590
0.106396
0.122901
-0.040675
-0.018022
-0.047564
0.111394
0.031313
0.008676
0.053695
0.074167
0.095413
0.108209
0.093723
0.119040
0.018506
0.077758
-0.019840
-0.042672
0.116188
-0.030864
-0.043962
0.009627
0.117252
0.112644
-0.018881
-0.035897
-0.072374
0.094213
0.099812
0.122339
0.017818
0.075448
0.128681
0.009989
0.092815
-0.000854
0.117819
-0.059110
-0.006921
0.066799
0.046772
0.052224
0.015718
0.095514
-0.062825
0.015237
0.026347
-0.076151
0.021291
0.111035
0.008992
0.050439
-0.000279
0.028724
-0.056747
0.086210
0.034447
0.085178
-0.025698
0.012653
0.021951
-0.022531
0.026758
0.033662
-0.016861
0.077208
0.094749
-0.023139
0.078769
0.050227
-0.025736
-0.016946
-0.013552
0.050266
0.060426
0.059147
0.029552
0.053735
-0.014769
-0.007545
0.048063
0.112950
0.064375
0.064576
0.033746
-0.018012
0.035022
0.005167
-0.002813
0.007194
-0.059142
0.112883
-0.014130
0.063437
0.006827
0.002222
-0.090119
0.012642
-0.031767
-0.044645
0.011219
-0.021435
-0.058602
0.108495
0.017260
0.082056
-0.066728
0.044742
0.056268
0.064362
0.044886
0.047642
-0.027204
0.021163
0.028608
0.027049
-0.030954
0.019257
-0.033213
0.009221
-0.026088
-0.013796
-0.028627
0.031173
0.009385
0.045131
-0.068690
-0.007947
0.060710
0.027600
0.037430
-0.020643
0.084816
-0.011384
-0.016183
-0.016362
0.010975
-0.033959
-0.019913
0.055796
-0.046058
0.035890
0.029538
0.057487
-0.029329
0.006091
0.033390
-0.012600
-0.036955
-0.034285
0.011032
-0.034577
0.013048
0.056179
0.067367
-0.001409
-0.071995
-0.011480
-0.016714
0.010260
-0.038909
0.070091
0.092743
-0.026727
0.087503
-0.031274
-0.042658
0.017156
0.047025
0.108069
-0.011377
0.059076
0.041260
0.033056
-0.065201
-0.051228
-0.024508
0.007006
-0.039526
0.058525
-0.005508
0.058265
-0.021733
-0.014780
-0.043931
0.056711
-0.031921
0.064681
0.036694
-0.051059
-0.047606
0.025297
0.067737
-0.032308
-0.004799
-0.017747
-0.003406
0.033331
-0.030893
0.008034
0.042518
-0.078913
0.010741
-0.003361
0.047649
-0.106570
0.182764
0.133166
0.002956
-0.092443
-0.004046
0.065306
-0.005610
-0.003219
0.130972
-0.096554
0.093315
0.095395
-0.053162
-0.106725
0.026516
-0.019766
-0.025190
0.026823
0.115240
-0.028822
0.039210
0.055503
-0.084464
-0.057160
0.164649
-0.057900
-0.189623
-0.102182
0.211806
-0.160164
0.183751
0.131876
-0.040547
0.035917
0.055762
0.041474
-0.062012
-0.069467
0.052358
0.005999
0.056922
-0.020682
0.042500
0.131599
0.068157
0.088522
0.143014
-0.023624
0.024193
0.039845
0.055568
0.004910
0.083444
0.091842
0.072832
0.050907
0.101115
0.079417
0.049828
0.029644
0.059201
-0.012968
0.050575
0.017322
-0.054941
-0.043851
0.033539
-0.001507
-0.018836
0.057690
-0.004754
-0.042889
0.093624
0.000017
0.067941
-0.066459
0.106088
-0.010689
-0.017592
-0.038065
0.066630
0.115479
0.050299
0.049666
0.003254
0.099460
0.086208
-0.000222
-0.072228
0.119170
-0.038889
0.042511
0.019354
-0.007858
-0.045978
0.086740
0.007994
-0.063894
0.009712
-0.011739
0.083950
0.072158
-0.073012
0.062794
0.138854
0.022129
-0.038382
-0.050154
0.037957
-0.002830
0.093957
0.101910
-0.044161
0.133790
0.024028
0.000820
0.074239
0.075646
0.032524
-0.030105
-0.099637
0.082401
0.068885
0.004807
0.013682
0.037328
0.003025
-0.048461
0.104458
0.054474
0.125095
0.117512
-0.076786
0.025049
0.039757
0.062013
-0.112733
-0.007775
0.017271
0.016756
0.125201
-0.043803
-0.121498
0.227656
-0.154803
0.204784
0.236544
0.084090
-0.214881
0.061107
-0.196666
-0.042283
0.078298
0.149793
-0.203624
0.230314
0.197374
0.018264
-0.179230
0.193262
-0.224427
-0.090823
0.139835
0.242839
-0.135171
0.228027
0.238983
0.107858
-0.168796
0.175720
-0.150753
0.033859
0.062777
0.126856
-0.204475
0.113993
0.224371
-0.048074
-0.076866
0.146381
-0.091430
0.040982
0.013623
0.055453
-0.106877
-0.047147
0.081333
-0.020134
-0.117768
-0.050162
-0.214816
-0.117057
-0.041157
0.057228
-0.068992
-0.022342
0.053056
0.134385
-0.082463
0.001019
-0.155143
-0.050563
0.085009
0.025250
-0.075961
0.095702
0.094153
0.151534
-0.104974
0.186949
-0.107411
-0.095843
0.167867
0.074982
-0.099553
0.132745
0.115679
0.140867
-0.015183
0.130978
-0.143018
-0.051049
0.047940
0.050119
-0.001485
0.162251
0.147567
0.134504
0.008333
0.086960
-0.032638
-0.040947
0.006861
-0.031972
0.088703
0.060720
0.037345
0.020912
0.138405
0.076432
0.141980
0.135499
-0.102740
0.088596
0.025874
0.075914
0.003647
0.043816
0.055334
0.233483
-0.049720
-0.043776
0.040496
0.175301
-0.045171
0.035901
0.058780
0.067570
0.029690
0.116272
0.010498
0.038660
0.031437
0.104590
-0.083753
0.127099
0.184392
0.072647
-0.094611
0.251640
-0.127482
0.026493
0.056390
-0.016051
0.014380
0.074566
-0.033777
0.044934
0.055553
0.052660
0.082358
0.136295
0.078410
0.037889
0.144735
-0.012391
-0.133468
-0.134597
0.159555
-0.007030
0.162617
0.069464
-0.030868
0.156333
0.123222
0.030032
0.034333
-0.019265
0.111741
0.195601
0.009336
0.074317
-0.086908
0.170813
-0.055610
0.144368
0.029981
-0.053169
0.067540
0.149433
0.064098
0.031653
-0.070813
0.076939
0.067026
-0.018338
0.012873
0.016794
0.035172
0.144529
-0.038847
0.081463
-0.027126
-0.006191
0.150544
0.000334
-0.032022
-0.006902
0.108058
0.166305
0.128856
0.137328
0.020004
0.003467
0.107832
0.068186
0.010722
-0.011480
-0.041875
0.054725
-0.056968
-0.055485
-0.086372
0.285346
-0.109326
0.126325
0.110815
0.013830
-0.023702
0.137732
-0.114223
0.028579
0.023813
0.090269
0.004449
0.139978
0.158731
-0.017151
-0.021448
0.106209
-0.129077
0.057730
0.056846
0.096631
0.046005
-0.034030
-0.008573
-0.014345
0.027364
0.134031
0.037420
-0.007129
0.045756
0.069873
-0.040892
0.037594
0.051574
-0.046348
-0.019107
0.005201
0.088703
0.069222
0.035088
0.355512
-0.344402
0.328284
0.246850
0.231810
-0.194804
0.324246
-0.218148
-0.236792
0.209463
0.323189
-0.214949
0.355359
0.362675
0.258838
-0.284406
0.322426
-0.317105
-0.299919
0.278599
0.287532
-0.110746
0.250634
0.202613
0.177255
-0.081333
0.265401
-0.168218
-0.183665
0.093512
0.359492
-0.138224
0.290100
0.218504
0.217707
-0.154132
0.299536
-0.133874
-0.229623
0.135346
0.419921
-0.276192
0.290409
0.368921
0.266220
-0.295678
0.238331
-0.301632
-0.195154
0.251038
-0.017466
0.014522
-0.058246
0.029917
0.104818
0.068865
0.035845
0.057783
-0.083026
0.066060
0.341580
-0.244213
0.161449
0.280460
0.259604
-0.123250
0.263635
-0.232360
-0.231564
0.181363
0.224977
-0.286928
0.323333
0.329481
0.226563
-0.136682
0.219279
-0.144569
-0.136437
0.174029
0.275018
-0.077175
0.139819
0.128787
0.081181
-0.143190
0.081719
-0.168510
-0.152116
0.113614
0.246976
-0.215953
0.361040
0.351279
0.305388
-0.186271
0.212559
-0.264742
-0.196524
0.281876
0.080667
-0.074077
0.073536
0.052135
-0.001739
0.043342
-0.018501
0.041446
-0.041080
0.018714
0.052532
0.048038
0.093878
0.103068
-0.009753
0.031990
0.010070
0.086044
0.015063
-0.008367
0.127476
0.005863
0.151718
0.085757
0.003062
-0.077493
0.017694
-0.077084
-0.071466
0.104750
0.037164
0.085136
0.011346
0.129209
-0.002212
0.132901
0.041885
0.120486
0.016268
0.085240
0.115726
-0.081990
0.201544
0.127366
0.212295
-0.068335
0.207998
-0.105622
-0.062239
0.100798
0.114465
0.031261
0.107817
0.079491
-0.030936
0.028696
-0.024976
0.065584
-0.000632
0.087259
0.047740
-0.034209
0.029499
0.055727
0.118352
-0.063283
0.046368
0.020707
0.044043
0.124373
-0.033616
-0.067841
0.117773
0.036964
-0.014365
-0.078876
0.061719
-0.057933
0.028153
0.092371
0.021889
0.069352
-0.025346
0.038897
0.086927
0.020665
-0.061521
-0.055064
-0.011714
0.107945
0.014549
0.000226
0.039302
0.099734
0.078204
-0.069938
-0.024419
0.080917
-0.024676
0.100049
0.110995
0.032587
0.074204
-0.030198
0.067842
0.051569
0.043348
0.046754
-0.002741
0.080563
0.171660
-0.081828
0.250219
0.132691
0.168212
-0.154892
-0.033504
-0.101556
-0.135458
0.176915
0.073994
-0.040994
0.165873
0.215418
0.158952
-0.034664
0.026691
-0.094929
-0.052283
0.177964
0.233862
-0.058512
0.191570
0.166683
0.109965
-0.067760
0.118819
-0.205213
-0.104036
0.094136
0.166480
-0.024434
0.169666
0.160893
0.235307
-0.075120
0.027991
-0.064799
-0.082577
0.138518
0.109553
-0.019467
0.024120
-0.001614
0.126875
0.015915
0.087798
-0.023619
-0.023089
0.098865
-0.058573
0.039844
-0.029764
0.079916
0.133066
-0.015631
-0.045533
0.008805
0.107491
-0.028685
0.000422
-0.001276
0.062385
-0.066793
0.077336
0.046437
-0.075525
0.026307
0.068030
0.010449
-0.054149
0.056955
-0.113337
-0.046413
0.090513
0.022262
-0.041849
0.070021
0.088029
-0.040712
0.180093
0.039515
0.066799
0.174240
0.060675
0.044111
-0.076857
-0.099353
-0.059187
0.016841
0.115378
0.056964
0.099409
0.043120
-0.010560
0.025226
-0.012921
-0.075876
-0.049831
0.004378
-0.022879
0.093983
-0.153133
-0.105593
-0.175190
0.035666
-0.011374
0.148530
0.109286
-0.173248
-0.005540
0.100565
0.077900
0.085986
0.037733
-0.011381
0.072178
-0.015416
-0.020284
0.067449
-0.063043
0.047727
0.059645
0.043414
-0.044696
-0.016628
-0.031344
0.044470
0.063429
-0.084976
-0.004580
0.006709
-0.017467
0.074716
-0.021245
0.104608
-0.000158
0.012622
0.052562
-0.092546
-0.055340
0.076493
-0.047460
0.028719
0.029865
0.070699
0.023777
-0.024381
0.056280
-0.025081
0.052966
0.178083
-0.049808
-0.127505
-0.013325
0.055502
-0.135063
0.118981
0.131541
-0.001167
-0.006071
0.102117
-0.047370
-0.057337
-0.169072
0.075830
-0.044646
0.221297
0.235495
-0.078375
-0.037972
0.032828
0.032938
-0.091206
-0.061064
0.141756
0.005490
0.084016
0.189761
-0.085059
-0.029126
0.132700
-0.129335
-0.101952
-0.052727
0.243012
-0.183957
0.250627
0.189832
-0.189179
-0.100710
0.143332
0.030939
-0.156145
-0.007279
0.168658
-0.090374
0.201520
0.012187
-0.080363
-0.133279
0.075813
-0.120047
-0.116882
-0.020655
0.169899
-0.064559
0.116216
0.066048
-0.003187
-0.114180
0.019152
0.004639
0.004832
0.043757
0.064544
-0.157330
0.036688
0.097803
-0.000034
-0.061466
-0.027660
-0.025997
-0.022702
-0.059328
-0.087758
-0.014170
-0.015301
0.117607
-0.027445
-0.085403
0.072995
-0.215451
-0.056530
-0.104133
0.119624
-0.144682
0.140815
0.061876
-0.157965
-0.006556
0.032860
-0.054040
-0.078516
-0.000409
0.022590
0.016977
0.092823
0.133467
-0.134354
-0.056542
-0.026409
-0.034430
0.084941
0.020967
-0.162913
0.069472
-0.028297
-0.094017
0.000287
0.045760
-0.038958
0.028256
0.120956
-0.032915
-0.077212
0.157571
-0.167683
-0.107415
0.082383
-0.055856
-0.109549
0.064909
0.006267
-0.019866
0.032868
0.035752
-0.018137
0.051906
0.011069
-0.016507
0.043076
-0.006369
-0.019030
0.017686
0.003231
0.005753
-0.002610
-0.033861
-0.065928
0.315292
-0.103290
0.248661
0.314603
0.178342
-0.150089
0.276142
-0.089998
-0.157704
0.245935
-0.066866
0.105823
-0.079459
-0.081894
-0.021100
0.155652
-0.066612
0.099175
0.048440
-0.138564
-0.051138
0.117979
-0.026489
0.035723
-0.043701
0.102757
-0.009235
0.159441
0.176590
-0.006801
-0.105754
0.126008
-0.030508
-0.017289
-0.041105
0.163321
0.018571
0.182384
0.123784
-0.106479
-0.132955
0.197139
-0.060228
-0.064192
-0.006943
0.130726
-0.051596
0.127922
0.033591
-0.117830
0.165026
-0.030730
0.045313
-0.041168
-0.026733
-0.000195
0.002144
-0.058508
0.000981
-0.030707
0.026378
0.132633
-0.028305
-0.037488
-0.032985
0.148118
0.005682
0.189476
0.189568
-0.131169
0.081227
-0.007459
0.139297
0.030593
-0.072622
0.093507
0.121333
-0.013324
0.034008
0.021529
-0.015776
0.060198
-0.067052
-0.026006
-0.015356
0.076033
-0.040711
0.099033
0.104660
-0.152227
0.104786
0.172393
0.051705
0.029217
-0.049999
0.201806
-0.012480
0.068196
0.113543
-0.065738
0.393147
-0.399551
0.377958
0.364354
0.391176
-0.351447
0.393555
-0.410001
-0.446743
0.429117
0.129333
0.063112
0.062898
-0.058738
0.043702
0.093552
0.013180
0.138242
0.027247
-0.055476
0.122902
-0.015521
0.068826
0.033137
0.100136
-0.027943
-0.020947
-0.059412
-0.068349
0.072534
0.107611
-0.047031
0.107955
0.212967
0.050425
-0.035265
0.191919
-0.117010
0.031346
0.073155
0.154338
0.038347
0.041672
-0.020554
0.113583
0.025116
0.035393
0.041859
-0.014551
0.020029
0.159999
-0.041275
0.206745
0.224061
0.172376
-0.129108
0.191913
-0.128463
-0.143477
0.112605
0.155945
-0.029932
0.191619
0.070138
0.167101
0.016510
0.133902
-0.096786
-0.161075
0.156936
0.184656
0.010153
0.194891
0.127889
0.083048
0.008771
0.101955
-0.125397
-0.055099
0.177060
0.237627
-0.011756
0.098004
0.204939
0.102318
-0.034233
0.013800
-0.112570
-0.085838
0.046727
0.144626
-0.003617
0.107196
0.198971
0.070161
-0.009598
0.054130
-0.029994
-0.065083
0.092084
-0.002980
0.040527
0.019162
-0.037557
0.008948
0.050030
0.005311
0.096904
0.057872
0.006494
0.149945
0.040730
0.050910
0.101271
0.103444
-0.001913
0.019857
0.012048
-0.029911
0.114218
0.056939
0.017402
0.067173
0.121117
0.102774
-0.004307
-0.039494
0.044362
0.028490
0.084860
0.059655
-0.080009
0.092861
0.094434
0.195557
-0.107473
0.037709
0.006210
-0.097199
0.068644
-0.011339
0.045437
0.024945
0.091444
0.115623
0.059602
-0.030649
0.013507
-0.023752
0.134403
0.198406
-0.013995
0.127980
0.190669
0.152448
-0.167266
0.138836
-0.078639
-0.116130
0.057957
0.099731
-0.138019
0.078184
0.111979
0.211634
-0.028075
0.102236
-0.061802
-0.094642
0.187473
-0.124573
0.183853
-0.155847
-0.101986
-0.067050
0.218224
0.008005
0.235087
0.147335
-0.043535
0.097185
-0.044994
0.077627
0.003101
0.177297
-0.021138
-0.003044
-0.028614
-0.109217
0.083432
-0.106637
0.080581
-0.107355
-0.127460
0.096599
0.115171
-0.093491
0.084343
0.110929
-0.051227
0.046114
-0.058694
0.035794
-0.024115
0.064236
0.058407
0.057387
-0.002428
-0.053349
-0.038978
0.072146
-0.017090
0.122991
0.055900
0.110294
0.000031
0.062714
-0.072677
-0.077217
0.094076
0.042900
0.047654
-0.011115
-0.004089
-0.034620
-0.075715
0.101115
0.027038
0.020063
0.021179
0.102782
0.057643
-0.004964
-0.024808
0.034026
0.010874
-0.032675
0.007006
0.081747
0.044294
0.018684
0.015199
0.088532
0.089331
-0.041897
-0.061924
-0.007488
-0.049677
0.065733
0.029204
0.095243
0.028346
0.077393
0.044959
0.037793
-0.090196
0.080666
0.058244
-0.086853
-0.032124
0.123377
-0.170478
0.116337
0.218138
0.234883
-0.113031
0.058560
-0.153244
-0.120645
0.095626
0.200427
-0.117784
0.111095
0.180909
0.120806
-0.049073
-0.121999
-0.083401
-0.087890
0.148837
0.116863
-0.028377
0.141304
0.099324
0.231838
0.018579
-0.064415
-0.012864
-0.019513
0.110585
0.079412
-0.023095
0.137375
0.142233
0.103639
-0.075062
-0.177637
-0.103336
-0.073237
0.017646
-0.001755
-0.089115
-0.047256
0.067989
0.040585
-0.026545
-0.000075
0.059480
-0.141940
0.120000
0.182854
-0.118256
0.134660
0.096706
0.152177
-0.068272
-0.077764
-0.100229
0.013515
-0.034711
0.173100
-0.060941
0.065587
0.081761
0.133331
-0.064212
-0.029170
-0.130161
0.050167
0.098007
0.033690
0.005571
0.093601
0.150318
0.172082
-0.098330
0.083109
-0.053695
-0.098071
-0.025732
0.099949
-0.019774
0.040399
0.133952
0.151166
-0.094653
-0.017201
-0.000435
-0.016738
-0.042490
-0.065127
-0.035179
0.040371
-0.040853
-0.035764
0.086854
-0.032533
0.018672
-0.060692
-0.032222
-0.134011
0.148283
-0.151359
-0.119950
-0.103665
0.085564
-0.121564
0.052269
0.115815
-0.032070
-0.042002
0.151113
-0.092517
-0.134000
-0.092125
0.210547
-0.178103
0.101099
0.115217
-0.125186
-0.108212
0.215514
-0.183351
-0.093424
-0.048197
0.084513
-0.091120
0.137269
0.186148
-0.013119
0.006993
0.055646
-0.103610
-0.147257
-0.118371
0.129365
-0.084733
0.166238
0.051992
-0.136864
0.013606
0.092720
-0.053537
-0.027435
0.045851
0.068436
-0.089123
0.100760
0.053474
-0.029389
-0.049330
0.108369
-0.055560
-0.006597
-0.034008
0.047090
-0.104624
0.169673
0.041253
-0.120570
-0.098894
0.267168
-0.175403
-0.088198
0.020054
0.269812
-0.161632
0.256368
0.278598
-0.142911
-0.058090
0.207774
-0.231965
-0.153833
-0.063674
0.314212
-0.101904
0.272172
0.176428
-0.043718
-0.078570
0.139735
-0.104031
-0.031162
0.034900
0.186124
-0.041952
0.091224
0.118847
0.007885
0.114305
-0.006081
0.066703
0.028185
-0.044977
-0.034261
0.034507
0.115130
-0.048607
-0.012665
-0.001459
0.041430
-0.118479
0.010104
-0.098089
0.120261
-0.005165
0.070520
0.010568
-0.050897
0.010482
-0.019254
-0.000900
0.021088
-0.070374
-0.035444
0.049761
-0.053581
-0.006342
-0.056870
-0.020382
0.055673
-0.007646
-0.036850
-0.009903
0.034283
-0.030715
0.018788
0.050729
-0.191510
0.081807
-0.083724
0.120192
-0.008364
0.093328
-0.030473
0.153885
-0.135430
-0.130660
-0.001247
0.107892
-0.019882
0.109696
0.060602
-0.054024
-0.067924
0.178708
-0.056728
0.002140
-0.080676
-0.070160
-0.031712
-0.000229
-0.156871
-0.168356
-0.071546
0.043645
-0.061120
0.030188
-0.188563
0.035692
-0.151781
0.104613
-0.046691
-0.004079
-0.067265
0.056823
-0.139364
-0.144388
0.068841
0.033191
0.061429
0.014489
0.064005
-0.075167
0.060434
-0.023566
-0.079375
-0.065882
-0.036259
-0.069669
0.083209
0.039381
0.007808
-0.111637
-0.083436
0.129501
-0.060623
0.045757
-0.151609
0.094159
-0.011542
0.090352
-0.012480
0.059566
0.122041
0.082977
0.016303
-0.008375
0.135566
0.055227
0.002713
0.017058
-0.040589
-0.038585
0.052361
0.022213
0.037099
-0.029279
-0.119262
-0.004490
0.059909
0.010249
0.014163
0.039561
0.182837
0.004855
0.079566
0.101320
-0.042855
0.006992
0.116858
0.000927
-0.034030
0.002603
0.084800
0.124296
0.170699
0.129870
-0.001832
-0.013871
0.123464
0.012661
-0.121180
0.001532
0.133193
0.051000
0.113699
-0.003233
-0.116866
0.340464
-0.218312
0.233395
0.092763
0.123681
-0.240718
0.169013
-0.255119
-0.284804
0.159843
-0.101781
0.138063
-0.118641
-0.095922
-0.024775
0.055923
-0.033565
0.111597
0.092330
-0.023781
-0.008293
-0.033791
-0.047169
-0.008504
-0.128676
0.107847
0.031605
0.046253
-0.025121
-0.033764
-0.034623
0.116333
-0.099647
-0.091892
-0.125479
0.015510
-0.022999
0.073114
0.114722
-0.082266
-0.008181
0.134141
-0.087057
-0.118436
-0.185860
0.029101
-0.153158
0.138477
0.024448
-0.100022
0.340345
-0.450925
0.264026
0.268000
0.365495
-0.475103
0.392012
-0.517767
-0.368379
0.343137
-0.028609
0.058998
-0.046549
-0.031796
-0.030302
0.067709
-0.049848
-0.020510
0.007807
-0.133566
0.184133
-0.099494
-0.005425
0.106838
-0.027706
-0.040761
-0.087274
-0.078020
-0.049889
0.095354
0.014951
-0.000493
-0.038815
-0.047226
-0.050819
0.038507
-0.024775
0.023969
-0.075656
0.002501
-0.022809
-0.062192
-0.027861
-0.005178
-0.130286
0.071877
-0.080944
-0.062551
0.067388
-0.043472
0.257427
-0.101845
0.192522
0.305259
0.241312
-0.144290
0.250077
-0.184593
-0.084144
0.138509
0.049126
0.088282
-0.031784
0.072012
0.028777
0.064008
-0.040151
0.113627
-0.010890
0.027398
0.023388
0.118682
0.058675
0.039981
-0.019428
0.020219
-0.152162
-0.007963
-0.007545
0.015563
-0.127914
0.167554
-0.056883
-0.013809
0.050731
0.164813
-0.051207
0.048469
0.068412
-0.083937
-0.061452
0.150316
-0.053204
-0.121520
-0.149407
0.173516
-0.171048
0.172050
0.146973
-0.117710
0.439875
-0.193701
0.319761
0.264590
0.248180
-0.305568
0.344541
-0.224468
-0.243896
0.301590
-0.105755
0.041663
0.049691
0.066304
-0.055947
0.063667
-0.043924
0.009277
0.067643
0.067420
-0.132431
0.230687
0.012088
-0.055222
-0.051607
0.190757
-0.162052
0.116345
0.100346
-0.029138
-0.147156
0.166952
-0.130152
0.010098
-0.006446
0.077107
-0.080087
0.094484
0.116598
-0.021399
-0.209279
0.199271
-0.107820
-0.127120
-0.055154
0.223142
-0.262604
0.241288
0.177678
-0.174017
0.033638
0.042259
-0.027818
0.062961
-0.011279
0.040297
-0.000441
0.009277
-0.024169
0.042772
0.043424
-0.016162
0.083660
-0.063623
-0.018442
0.082514
0.017102
0.059935
-0.046755
0.111767
-0.075466
0.098670
-0.033097
-0.054557
-0.040147
-0.004006
0.066882
0.066058
0.001437
0.059143
-0.168409
0.046142
-0.141936
-0.080352
0.003489
0.174478
-0.173267
0.189776
0.053864
-0.032092
-0.099817
0.107306
0.042224
-0.016804
0.042194
0.098890
-0.024641
0.049959
0.042945
-0.076062
-0.019879
0.100651
0.034106
0.034550
0.021862
0.094830
0.044990
-0.043259
0.004314
0.070569
0.103270
0.113884
0.097594
-0.007070
-0.004160
0.036204
0.109758
0.050046
0.036917
-0.014235
0.076935
0.018048
0.007849
-0.013197
-0.004925
-0.057839
0.008574
0.032928
0.021921
-0.029626
0.063242
-0.056482
0.099870
0.036986
0.098833
0.011512
0.048645
0.027659
0.032080
0.037528
0.039913
0.118753
0.069933
0.049020
-0.001012
0.141610
-0.046456
0.044317
-0.023630
0.037850
-0.022590
0.030907
0.065943
0.101075
-0.007366
-0.021829
0.068334
-0.059978
-0.100381
0.085686
0.181770
-0.015331
0.084239
0.085456
0.167791
-0.017869
-0.047580
-0.035549
-0.085646
0.030668
0.059336
0.015240
0.174940
0.099797
0.153408
-0.039907
-0.016989
-0.016088
-0.028049
0.120403
0.075527
0.071959
-0.002360
0.020280
0.146856
0.065876
-0.180550
0.076906
0.039005
0.007462
0.118349
0.069108
0.049734
0.098801
0.185050
0.003771
-0.075555
-0.010121
-0.019547
0.034722
-0.003811
-0.048966
0.036999
0.003894
0.061798
0.007464
0.029043
0.066705
-0.081160
0.034522
0.062224
0.015474
0.074240
-0.066260
0.094832
-0.039238
-0.133541
-0.030001
0.081856
0.037872
-0.023532
-0.020592
0.024175
0.056075
0.102636
-0.076257
-0.029849
0.000047
-0.068456
-0.024138
0.031175
0.014829
0.068292
-0.020208
0.115430
-0.054292
0.018539
-0.015053
0.035196
0.023889
-0.020741
-0.016380
-0.056836
0.065988
0.148856
-0.037752
-0.116859
0.129032
0.107182
-0.086228
0.078730
-0.071490
0.048742
0.155507
0.118067
-0.068404
0.052682
0.007844
-0.119908
0.058161
0.069888
0.044772
-0.043271
0.009247
-0.100880
0.154666
-0.071978
0.055226
0.033338
-0.114498
-0.010991
0.101215
-0.097119
-0.080519
-0.075495
0.164237
-0.103896
0.114728
0.149200
-0.093387
0.072935
0.091180
-0.045014
-0.028412
-0.040939
0.157766
-0.084178
0.123198
0.149336
-0.011490
0.072998
0.107675
-0.021659
0.013313
0.081451
0.050598
0.027268
0.030512
0.054256
0.029489
0.055241
-0.086003
0.046703
0.003919
0.044080
0.054337
0.126510
0.032338
-0.042273
0.107378
0.124408
-0.065506
0.073286
0.178154
0.041468
0.032932
0.022118
-0.004944
-0.059763
-0.061753
0.074614
0.161029
-0.040128
0.100797
-0.081850
0.145002
-0.039558
0.115942
0.090198
-0.092671
0.174996
0.082272
0.031946
0.049905
0.093664
-0.008584
0.089439
0.131525
0.131317
-0.013365
0.055702
-0.059092
0.027338
0.020727
-0.053733
-0.075183
0.153336
0.032947
0.017379
0.031659
-0.134254
0.118374
-0.098505
-0.138768
-0.252528
0.168385
-0.190073
0.111015
0.116644
-0.159664
-0.057883
-0.008226
-0.139037
-0.180293
-0.177068
0.038541
-0.104145
0.044214
0.023986
-0.205947
-0.037072
0.044112
-0.139054
-0.036103
-0.115434
-0.017847
0.018985
-0.013256
0.045529
-0.162568
-0.001346
-0.064425
-0.011337
-0.073336
-0.069380
-0.033413
0.054610
-0.032899
0.012957
-0.128340
-0.141080
-0.020718
-0.098949
-0.116387
-0.134153
0.088582
-0.008668
0.061371
0.039581
-0.245081
0.002606
0.103453
0.036944
-0.101243
-0.099625
0.035579
0.061475
0.009996
0.051838
-0.085416
0.098312
-0.122950
-0.018802
-0.031848
-0.011705
-0.087564
0.087990
-0.138948
-0.130737
0.079182
0.029864
-0.111876
0.098314
0.040474
-0.032149
-0.018463
0.013113
0.002457
-0.036464
0.001096
0.034203
-0.065727
0.056765
-0.034506
-0.071045
-0.059114
0.134182
0.030727
0.025373
0.001283
0.035891
-0.060145
-0.049166
0.090468
0.021128
-0.071598
0.159780
-0.056815
0.006165
-0.019065
0.113658
0.020523
0.006713
0.157828
0.139106
0.044127
-0.055529
0.058453
0.076898
0.109266
0.167909
-0.134814
0.052935
0.050135
0.089369
-0.125824
0.117856
-0.027705
-0.071964
-0.007536
0.096459
-0.060888
0.043856
0.092610
0.064810
0.007480
0.081131
0.049322
-0.043186
0.081530
0.114049
-0.026369
0.049368
0.041647
0.118713
-0.051617
0.042122
-0.086169
0.033301
0.063446
0.108827
-0.102007
0.075026
0.202311
0.189214
0.012642
0.149401
0.006132
-0.112270
0.164192
0.047099
-0.162034
0.022730
0.061162
0.169071
-0.133973
0.106880
-0.145203
-0.183507
0.198161
-0.037641
0.107390
-0.042681
0.009490
-0.111923
0.112163
-0.111536
0.033442
0.157253
-0.127166
-0.092421
-0.147404
-0.098904
-0.071370
-0.097070
-0.117535
-0.155872
-0.115004
-0.046429
-0.100008
0.001668
0.041822
0.014592
-0.076363
-0.109493
0.090356
-0.143700
0.077775
0.114330
0.053563
0.009162
-0.070770
0.031971
0.041444
-0.051107
-0.004703
-0.038406
-0.101523
-0.082371
-0.074372
0.182421
0.056817
0.046515
0.076769
0.109941
0.051095
0.097146
-0.054616
-0.111406
0.132358
-0.124598
-0.140458
-0.098628
-0.156553
-0.009022
-0.130698
-0.103326
-0.123776
-0.013875
-0.025199
-0.030302
-0.157974
0.059003
0.052143
0.050263
-0.048997
-0.097584
-0.075997
-0.173879
-0.042092
-0.032177
-0.074435
-0.089892
-0.141237
-0.060976
-0.053540
-0.182183
-0.072284
-0.030127
-0.094414
-0.039578
-0.135289
0.013297
-0.116891
-0.017669
-0.055438
-0.120583
-0.109681
-0.034353
-0.024427
0.310488
-0.160668
0.282911
0.318892
0.192838
-0.260947
0.458208
-0.200379
-0.136944
0.314575
-0.119623
0.032117
-0.075385
-0.106608
0.005725
-0.022637
-0.036610
-0.018428
0.005542
0.053032
-0.194983
0.078462
0.019911
-0.139656
-0.066839
0.095632
0.012581
0.099234
0.142878
-0.016933
-0.170399
-0.046679
0.015808
-0.063159
-0.076735
-0.086520
-0.036306
0.040764
0.004151
-0.035689
-0.417825
0.011627
-0.200155
-0.318201
-0.079167
0.023780
-0.082469
0.088882
0.038330
-0.104378
0.238910
-0.122288
0.195714
0.092729
0.086447
-0.081353
0.039193
-0.125050
-0.155577
-0.047513
-0.137290
0.052070
-0.126227
-0.042746
0.043765
0.023737
-0.084085
0.062124
0.050382
0.015378
-0.255977
0.058190
0.044840
-0.100001
-0.039750
0.085899
0.033384
0.078757
0.016501
0.004359
-0.247642
0.005647
-0.024993
-0.076730
0.072710
-0.011279
-0.027196
0.021640
0.075353
-0.028494
-0.339907
0.071043
-0.056466
-0.196052
-0.123182
0.094776
-0.013029
0.141359
0.072725
-0.032142
0.091625
-0.070481
0.099732
0.097961
-0.046651
0.071743
-0.044129
0.056775
-0.034711
-0.004332
-0.029507
-0.072739
0.172723
0.124034
0.127068
-0.100335
-0.011787
0.035469
0.043737
0.121528
0.048905
-0.072868
-0.006481
0.056754
0.080554
0.033491
0.004240
0.040750
0.053884
0.138815
-0.097452
0.023800
0.055221
0.101285
0.075831
-0.004238
-0.102187
0.093335
-0.066990
-0.045832
-0.228054
0.108607
-0.096356
-0.163272
-0.037350
0.177392
-0.225496
0.158241
0.127945
-0.147131
-0.067805
-0.041520
0.093609
0.067401
-0.024642
-0.080343
0.065129
0.059480
0.032065
-0.003080
0.010469
0.085676
0.020064
-0.022381
0.003180
-0.046659
0.035741
0.033249
-0.003090
0.052312
-0.037607
0.030314
-0.040432
-0.023606
-0.035573
0.031181
0.029686
-0.038807
0.006186
0.091084
-0.028393
0.123422
0.114277
-0.020405
0.076108
0.087534
0.068270
0.065010
0.119608
0.001590
0.080658
0.053092
0.095332
-0.026124
0.048032
0.104524
0.060881
0.113137
0.080146
0.118811
-0.010980
-0.051037
0.040588
0.025777
0.098879
-0.063768
0.119866
-0.049309
-0.116765
-0.057171
0.082911
-0.017980
0.097220
0.145914
0.111324
-0.026842
-0.158650
0.074459
0.032611
-0.000729
0.174640
-0.087453
0.163114
0.112794
0.220616
-0.044717
-0.046873
-0.045398
-0.042125
0.065145
0.023608
0.161355
-0.006563
-0.095451
0.056611
0.109660
-0.234099
0.163454
0.055401
-0.062072
0.018137
0.012016
0.033292
0.052390
0.167329
-0.007315
-0.221549
-0.011943
0.047836
0.053573
0.106864
0.019425
0.090255
0.080587
0.053898
0.054671
0.043795
-0.073663
-0.112078
0.039294
0.047238
0.031153
0.040698
0.076301
0.090957
0.128111
-0.021125
0.039551
-0.010431
-0.003430
-0.007146
0.090027
-0.083083
-0.058675
0.032270
0.153496
0.005896
0.085041
0.214051
-0.033287
0.033542
0.134725
-0.036186
-0.062912
0.008163
0.083666
0.024780
0.042681
0.019347
-0.057914
-0.031625
0.117479
-0.070892
0.048410
0.135313
0.134953
-0.170162
0.177761
0.091097
-0.093700
0.105541
0.056618
0.117657
-0.064229
0.061092
0.089488
-0.085458
-0.044605
-0.001882
-0.025232
-0.154994
0.245234
-0.097797
-0.161905
-0.196386
0.225491
-0.188889
0.168047
0.206215
-0.190454
-0.144340
0.212711
-0.129608
-0.073771
-0.092056
0.180072
-0.151820
0.280634
0.192168
-0.161911
-0.090841
0.144179
-0.134779
-0.041948
-0.152153
0.089977
-0.045983
0.243146
0.149115
-0.104029
-0.167830
0.162310
-0.049705
-0.117634
-0.076668
0.142366
-0.167779
0.246542
0.239592
-0.239928
0.047003
0.036439
-0.094517
-0.085180
-0.060930
0.156664
-0.016025
0.023573
0.108978
-0.072998
-0.021917
0.035307
-0.045294
0.041963
-0.136774
0.095226
0.001415
-0.008872
0.020663
-0.096228
0.101951
0.117668
0.051578
0.099637
-0.003072
0.039794
0.071442
0.162574
0.142446
-0.119289
0.095639
0.015690
0.012760
0.064260
-0.149875
0.009238
-0.002648
0.012909
0.085708
-0.092007
0.038378
0.020272
-0.030119
-0.032077
-0.189455
0.091098
-0.072439
0.081489
0.041085
-0.094773
-0.064389
0.017629
0.003687
-0.089775
-0.083305
0.047886
-0.055954
0.104889
0.050704
-0.081339
-0.166568
-0.020383
-0.087099
-0.011014
-0.025100
-0.000504
-0.042951
0.020557
0.003372
-0.052111
-0.089650
0.090096
-0.185577
-0.159986
-0.065292
0.067771
-0.054902
-0.034200
0.038357
-0.191267
-0.117358
0.025266
-0.024212
-0.099446
-0.180093
-0.027905
0.026733
0.012388
0.075624
-0.035904
-0.048421
0.012346
-0.005587
-0.145255
-0.094742
-0.072396
0.041505
0.040393
0.083212
-0.111516
0.257029
0.010094
0.141873
0.139866
0.111690
-0.055177
0.288649
-0.048550
-0.073033
0.090574
0.165671
-0.105508
0.026908
0.100160
0.045108
-0.109700
0.115137
-0.117174
-0.180326
0.061799
0.106232
-0.120375
0.067282
0.100644
0.182258
-0.095781
0.107623
-0.138848
-0.098511
0.114632
0.046899
-0.140491
0.055083
0.097600
0.045847
-0.033909
0.099967
-0.041848
-0.184564
0.157467
0.060165
-0.123083
0.084633
0.156132
0.165664
-0.180681
0.080605
-0.218192
-0.061742
0.109448
0.293105
-0.126295
0.160042
0.147353
0.203721
-0.132862
0.187574
-0.122301
-0.071965
0.081231
0.162424
-0.109244
0.197830
0.247851
0.276875
-0.191348
0.168801
-0.253697
-0.213563
0.119451
0.237526
-0.116928
0.277243
0.223576
0.195094
-0.148626
0.187549
-0.166295
-0.231367
0.219710
0.265885
-0.026644
0.232397
0.170243
0.201895
-0.076568
0.072603
-0.110185
-0.115737
0.142626
0.304924
-0.159421
0.283869
0.251272
0.228184
-0.173023
0.287232
-0.156624
-0.179850
0.159970
-0.300757
0.164262
-0.359137
-0.297754
-0.163716
0.238808
-0.267034
0.197139
0.272085
-0.247998
0.006916
0.017822
-0.024632
-0.014320
-0.022683
0.002595
-0.100885
0.097115
-0.004304
0.013856
-0.120538
0.087933
-0.107866
-0.077905
-0.184915
0.160537
-0.207055
0.056236
0.246213
-0.154263
-0.045470
-0.061076
-0.029784
0.115739
0.049425
-0.088652
-0.082492
0.013157
-0.052116
0.060199
-0.055452
0.101731
-0.074089
-0.034742
-0.112382
0.076817
-0.058703
0.091197
0.113846
-0.009986
0.223895
-0.170833
0.057747
0.074315
0.228221
-0.114682
0.283421
-0.124489
-0.056686
0.164688
-0.116913
-0.044337
-0.083648
-0.127277
-0.127820
-0.035120
-0.191992
-0.028654
0.051379
-0.097796
-0.200230
-0.005450
-0.115325
-0.184450
-0.036742
-0.060109
-0.150632
0.002368
-0.015898
-0.103902
-0.298311
-0.025684
-0.219576
-0.197183
-0.219999
0.097927
-0.150951
0.136347
0.075767
-0.159382
-0.209348
-0.017661
-0.258221
-0.290846
-0.139073
0.085498
-0.112898
-0.028628
0.103457
-0.029958
0.329734
-0.096182
0.266554
0.255632
0.193367
-0.085117
0.246280
-0.005306
0.063468
0.097864
-0.347526
0.045763
-0.218039
-0.340769
-0.149536
0.007333
-0.190242
0.014096
0.056866
-0.080464
-0.383387
0.269126
-0.134474
-0.322848
-0.111857
0.151375
-0.096442
0.248527
0.103429
-0.167084
-0.446179
0.130222
-0.139097
-0.236105
-0.095868
-0.045107
-0.065245
0.002981
-0.004302
0.013522
-0.427232
0.138148
-0.263035
-0.309098
-0.148908
0.114335
-0.193501
0.100785
0.054061
-0.177036
-0.001114
-0.043214
0.005226
-0.018330
0.065464
-0.083217
-0.036459
-0.036427
0.051278
0.026372
-0.318656
0.112193
-0.249988
-0.237917
-0.191932
0.227614
-0.148630
0.129925
0.194971
-0.120802
-0.354092
0.176514
-0.210581
-0.293037
-0.018278
0.181515
-0.097052
0.172451
0.212636
-0.136988
-0.271125
0.241959
-0.133645
-0.326416
-0.106109
0.245337
-0.063131
0.261473
0.249948
-0.055334
-0.482913
0.335774
-0.190763
-0.413976
-0.084543
0.287560
-0.202741
0.318059
0.361979
-0.130341
0.086347
-0.034375
0.008675
-0.041200
0.051026
-0.000050
0.073640
0.011590
-0.011605
0.091394
-0.187362
0.323502
-0.273882
-0.299594
-0.307584
0.287349
-0.217516
0.322163
0.251946
-0.270227
0.120162
0.066589
0.030528
0.017423
0.135155
0.064867
0.040723
-0.069708
-0.039425
0.121251
-0.301386
0.287264
-0.208472
-0.239549
-0.180829
0.353502
-0.209799
0.315888
0.230336
-0.212670
-0.276929
0.524379
-0.383134
-0.373057
-0.248041
0.466492
-0.356421
0.427851
0.453485
-0.266704
0.008109
0.049480
0.081996
0.037235
0.016525
0.010074
0.081067
-0.059715
0.014748
0.002793
0.096683
0.063176
0.055132
0.027314
0.038399
0.073492
0.107663
0.007065
-0.018936
0.046741
0.032987
-0.054111
0.042316
0.005549
0.112524
0.070164
0.099225
0.015622
-0.029366
-0.003136
0.064652
0.111619
0.124813
-0.007234
0.105289
0.024527
0.106727
0.037926
0.099959
0.132235
0.006075
-0.048539
0.078337
0.036001
0.035756
0.004556
0.054918
-0.027534
0.026699
0.106295
0.102383
-0.081661
0.061369
0.029933
0.082862
0.040304
0.027328
-0.031632
-0.071648
0.087898
0.057437
-0.000791
0.081362
0.005450
-0.069312
-0.001893
0.009878
0.127073
0.137877
-0.003237
0.009647
-0.016058
0.099374
0.162037
0.171337
-0.027286
-0.023730
-0.009509
0.035506
0.165698
0.062259
0.106773
0.007737
0.061048
0.086146
0.122564
-0.184879
-0.008029
0.077391
0.084827
-0.109459
0.183841
-0.017144
-0.078340
0.075603
0.073271
-0.221240
0.217581
0.227037
0.002144
-0.087625
0.132182
-0.066044
0.006537
-0.026020
0.100618
-0.018797
-0.014691
-0.080705
-0.033343
-0.089934
0.054839
-0.135945
-0.155385
0.057173
0.126925
-0.216704
0.185595
0.085160
-0.015255
-0.132218
0.258748
-0.189619
-0.220071
-0.090461
0.224218
-0.139117
0.247325
0.311436
-0.131731
-0.134784
0.182716
-0.095113
-0.116731
-0.072888
0.214238
-0.149228
0.197086
0.264634
-0.191618
-0.090933
0.215910
-0.184313
-0.134442
-0.035417
0.193331
-0.305053
0.156856
0.104445
-0.136021
0.016371
-0.015755
0.091122
-0.071100
0.104860
0.042118
0.059903
0.053704
-0.076389
0.061900
0.029240
0.044947
-0.032659
0.016359
-0.042380
0.025882
-0.064164
0.020426
0.010370
-0.103853
-0.130887
0.193232
-0.152053
-0.156253
-0.062153
0.231457
-0.096079
0.238630
0.099390
-0.173557
0.017889
0.161507
-0.053497
-0.078894
-0.135416
0.087060
-0.021360
0.124256
0.116426
-0.206454
0.012782
0.098602
-0.097802
-0.182390
-0.024913
0.238056
-0.015835
0.231203
0.042649
-0.037007
-0.024940
0.077679
-0.061725
0.054873
0.014960
0.150877
-0.077036
0.121684
-0.022389
0.013841
-0.138542
0.184397
-0.200176
-0.269721
-0.119067
0.167360
-0.115439
0.220655
0.083123
-0.157606
-0.251888
0.196993
-0.252615
-0.145390
-0.107993
0.248032
-0.150227
0.207024
0.231337
-0.171697
-0.140566
0.242524
-0.205307
-0.146663
-0.228793
0.141741
-0.142403
0.098294
0.074493
-0.204086
-0.210136
0.128085
-0.167100
-0.151402
-0.126751
0.190811
-0.152978
0.249102
0.201759
-0.040366
-0.048719
0.054522
-0.046486
-0.031136
-0.117413
0.032314
-0.099258
0.035895
0.120920
-0.046476
-0.065388
0.089541
-0.016910
-0.185806
-0.129237
-0.046890
0.012771
0.049972
-0.041481
0.029185
-0.192593
-0.031351
-0.141737
-0.206138
-0.151278
0.004517
-0.046402
-0.055958
0.092944
-0.099192
-0.098116
0.084346
-0.004294
-0.133334
0.007242
0.057340
0.008195
0.008764
-0.003533
0.046346
-0.170636
-0.066262
-0.074053
-0.128699
-0.064624
-0.059217
0.002800
-0.081863
0.077932
-0.020506
0.667286
-0.360743
0.455762
0.637621
0.483964
-0.296462
0.521930
-0.297930
-0.308442
0.348539
0.082091
-0.252795
0.159735
0.103983
0.240942
-0.255173
0.126647
-0.112328
-0.118299
0.224731
0.321140
-0.288671
0.249462
0.359298
0.234035
-0.333546
0.315201
-0.309459
-0.305536
0.329781
0.214045
-0.121235
0.139033
0.267931
0.308245
-0.260278
0.338256
-0.257059
-0.195216
0.164368
0.280520
-0.258731
0.240177
0.250702
0.236227
-0.295741
0.326727
-0.379533
-0.263042
0.225804
-0.030283
0.064669
-0.162525
-0.199171
-0.213725
0.075919
-0.089886
0.084225
0.073590
-0.212544
0.185537
-0.190198
0.183806
0.345030
0.243906
-0.193156
0.161211
-0.234566
-0.145493
0.099160
0.154945
-0.072335
0.167538
0.256750
0.059475
-0.115441
0.087737
-0.097299
-0.056077
0.150817
0.210342
-0.012140
0.099111
0.223329
0.075774
-0.172191
0.186209
-0.063756
-0.036187
0.177480
0.234402
-0.177101
0.239599
0.348356
0.236504
-0.199975
0.128431
-0.105351
-0.215734
0.158621
-0.256227
0.279606
-0.329070
-0.450456
-0.143309
0.433811
-0.152573
0.346708
0.307062
-0.246304
-0.069576
0.081226
-0.016036
-0.042011
-0.070428
-0.015610
-0.103086
0.095165
0.048627
-0.093887
-0.247693
0.150297
-0.183941
-0.240473
-0.303790
0.210171
-0.388890
0.302244
0.201217
-0.200324
-0.152782
-0.009884
-0.007339
-0.046217
-0.060553
-0.058282
-0.085443
0.083902
-0.078926
-0.135922
-0.069986
0.119635
-0.083259
-0.211050
-0.208518
0.066471
-0.226536
0.220985
0.176597
-0.145364
0.519286
-0.331486
0.292092
0.302092
0.196407
-0.295337
0.308838
-0.405635
-0.256508
0.197750
-0.329750
-0.006925
-0.306291
-0.235690
-0.176092
0.050105
-0.145327
0.127752
0.153976
-0.285963
-0.379037
0.071805
-0.150898
-0.198326
-0.103211
-0.020912
-0.136463
0.055662
0.112964
-0.151387
-0.423439
0.091444
-0.208728
-0.392347
-0.194171
0.153088
-0.249808
0.168671
0.045621
-0.274242
-0.359116
0.193977
-0.309885
-0.368317
-0.353605
0.171979
-0.304304
0.227413
0.160426
-0.303048
0.127661
0.119324
0.167105
0.181095
0.007315
0.006440
0.009149
-0.064976
-0.036743
0.055514
-0.476980
-0.028785
-0.245444
-0.245169
-0.225393
0.053060
-0.188497
0.124620
0.096760
-0.166821
-0.356005
0.267415
-0.303301
-0.279512
-0.200028
0.327308
-0.189296
0.361151
0.234301
-0.168860
-0.336330
0.062029
-0.202724
-0.300401
-0.147696
0.012445
-0.171640
0.157583
-0.011535
-0.212100
-0.484104
0.078827
-0.385328
-0.366268
-0.218406
0.191715
-0.147606
0.251104
0.216513
-0.213177
-0.073647
0.034482
-0.086639
0.016185
0.101321
0.015584
0.115608
-0.101000
0.023082
0.072323
-0.505213
0.295061
-0.341052
-0.403008
-0.251261
0.287745
-0.219773
0.379943
0.401941
-0.147613
-0.338127
0.202733
-0.264159
-0.234697
-0.090800
0.259384
-0.115709
0.251065
0.197516
-0.045321
-0.368858
0.402141
-0.366625
-0.335591
-0.294323
0.332093
-0.277910
0.436824
0.377677
-0.254393
-0.514505
0.433684
-0.401592
-0.454542
-0.228125
0.458776
-0.349619
0.445243
0.426577
-0.312980
0.090533
0.047144
0.066364
0.024196
0.054800
-0.064729
0.069783
-0.081315
-0.063741
0.049322
-0.139031
0.042825
-0.242317
-0.267929
-0.009407
0.144366
-0.055065
0.145699
0.165981
-0.115057
0.119107
-0.107444
0.208412
0.155840
0.182238
-0.031373
0.107789
-0.135193
-0.049486
0.131733
-0.114442
-0.024547
-0.058020
-0.070177
0.032742
0.070535
-0.018829
-0.015775
0.121917
0.058285
0.006584
0.117934
0.033890
-0.028520
0.095710
0.009085
0.002628
-0.029692
0.072997
0.018127
0.091540
-0.042000
0.019527
-0.069747
0.034065
0.019789
-0.026819
0.000870
-0.014572
-0.010652
-0.000537
0.078358
-0.010069
0.057509
-0.022444
0.048459
0.027681
0.096932
0.084391
0.104195
-0.039070
0.062309
0.100424
0.119346
0.017624
-0.052892
0.095043
-0.036403
0.014629
0.088591
0.028330
-0.024417
0.061540
0.030543
0.031807
0.088108
0.119491
0.066856
-0.041522
0.110061
0.119945
0.036276
-0.027993
0.076957
0.108001
0.125471
-0.019328
0.031286
0.043347
0.017766
0.104063
-0.066429
0.105534
-0.055451
-0.026266
-0.063363
0.053847
-0.085914
0.022234
0.081465
0.017444
0.100063
-0.109081
-0.066646
-0.050855
0.090000
-0.049025
0.068023
0.049256
-0.039676
0.094440
-0.002038
0.008382
0.025839
0.081501
0.003684
-0.046851
0.029325
0.002506
-0.038928
-0.044361
0.095547
-0.137264
-0.106766
-0.088682
0.143208
-0.213251
0.219402
0.027769
-0.033475
-0.030232
0.064663
0.021589
-0.039081
0.016709
0.082353
-0.123826
-0.000843
0.077522
0.012403
0.072908
-0.057219
0.087520
-0.018572
0.119766
-0.027635
-0.010999
0.017459
-0.136792
0.050372
-0.071189
0.111654
-0.138886
-0.228959
-0.026094
0.185131
-0.122074
0.111412
0.115774
-0.005316
-0.208963
0.145097
-0.176860
-0.173032
-0.099844
0.212753
-0.218467
0.304410
0.112896
-0.128676
-0.062500
0.245245
-0.267105
-0.284359
-0.043779
0.125083
-0.256997
0.207269
0.190650
-0.180837
-0.053908
0.102008
-0.241027
-0.229165
-0.049036
0.125191
-0.062011
0.165799
0.100193
-0.137342
0.144006
-0.075039
0.029372
0.095091
0.015391
-0.045480
0.008905
-0.090300
-0.041999
0.145858
-0.292955
0.324787
-0.253425
-0.239055
-0.091646
0.323643
-0.289026
0.206026
0.213407
-0.120085
-0.039055
0.222547
-0.031719
-0.149776
-0.166907
0.150079
-0.073560
0.222062
0.120182
-0.052053
-0.086237
0.134767
-0.188839
-0.194140
-0.084519
0.253357
-0.084542
0.245962
0.112318
-0.033174
-0.130743
0.119547
-0.223283
-0.121187
-0.140823
0.272378
-0.148479
0.151254
0.141969
-0.179024
-0.136908
0.193925
-0.125455
-0.055277
-0.023051
0.171336
-0.092765
0.167643
0.134488
-0.124108
-0.205759
0.144768
-0.181867
-0.252965
-0.097404
0.142479
-0.200096
0.147730
0.072865
-0.092134
-0.229882
0.116011
-0.224413
-0.240639
-0.176246
0.130443
-0.172639
0.179368
0.129958
-0.115046
-0.247161
0.125038
-0.260762
-0.153487
-0.170435
0.069581
-0.273616
0.143160
0.149901
-0.189570
-0.227582
0.002254
-0.204876
-0.217516
-0.118319
0.084998
-0.125113
0.072564
-0.002887
0.010554
0.140883
-0.245776
0.068783
0.021660
0.055445
-0.227517
0.140635
-0.237611
-0.128692
0.064104
-0.130755
0.017929
-0.132766
-0.154200
-0.063986
-0.024809
-0.049438
0.113534
0.003649
-0.038964
-0.130364
-0.082979
-0.074583
-0.100377
-0.004311
-0.037355
-0.023277
-0.018278
0.012488
0.013201
-0.139894
-0.070295
-0.093827
-0.007057
0.053574
-0.079913
-0.017948
-0.094308
0.040008
0.039038
-0.129447
-0.041952
-0.047328
-0.118500
0.008029
-0.004735
0.016151
0.027399
-0.022078
0.025531
0.361807
-0.036627
0.272134
0.327178
0.267456
-0.027778
0.131480
0.009627
0.016441
0.095682
0.158433
-0.125071
0.053691
0.149689
0.163781
-0.172143
0.140505
-0.103560
-0.133534
0.180348
0.499125
-0.366199
0.351026
0.570175
0.372741
-0.338010
0.377441
-0.384265
-0.234495
0.301488
0.325702
-0.162539
0.334478
0.364385
0.281391
-0.324959
0.347850
-0.204726
-0.292183
0.195632
0.295980
-0.294322
0.311763
0.292406
0.284076
-0.257323
0.326539
-0.228942
-0.312783
0.264148
-0.409075
0.411325
-0.395097
-0.466628
-0.442157
0.278423
-0.422389
0.395066
0.310630
-0.313876
0.234490
-0.100067
0.289507
0.348045
0.232364
-0.139578
0.229652
-0.131850
-0.144491
0.154136
0.125479
-0.047990
0.093736
0.012119
-0.059296
0.094155
-0.015285
0.026525
-0.075163
-0.034560
0.091884
0.023641
0.085320
0.158313
0.110738
0.082425
0.081136
0.062933
-0.079912
0.086773
0.148183
0.088154
0.143465
0.205139
0.094887
-0.002051
0.015414
-0.047544
0.017077
0.045909
0.038441
0.190768
0.007125
-0.058238
0.171365
0.178865
0.222501
0.186227
0.112353
0.180625
-0.081756
0.099150
-0.088405
-0.144669
-0.162966
0.125488
-0.158785
0.111984
0.124454
-0.183790
-0.277687
0.161632
-0.408102
-0.333069
-0.428661
0.162977
-0.467112
0.226685
0.160755
-0.319215
-0.254437
0.067307
-0.281061
-0.240887
-0.181335
0.104776
-0.235953
0.073868
0.048646
-0.219360
-0.160674
0.173418
-0.283660
-0.215414
-0.278377
0.251467
-0.294321
0.225581
0.195467
-0.333936
0.222354
-0.202444
0.151973
0.273866
0.168310
-0.141979
0.032927
-0.184565
-0.083831
0.138836
-0.343826
0.225698
-0.297324
-0.433463
-0.292804
0.254206
-0.297412
0.243933
0.219890
-0.424292
-0.270188
0.039842
-0.298707
-0.254027
-0.198901
0.009367
-0.147827
0.038724
0.012777
-0.254204
-0.442766
0.131639
-0.304339
-0.433711
-0.259863
0.088149
-0.370276
0.163762
0.137355
-0.381767
-0.236763
-0.008430
-0.266881
-0.210893
-0.303504
0.001585
-0.202365
0.078785
0.005796
-0.318645
-0.035389
0.146644
0.021140
-0.025775
-0.081585
0.248091
-0.113498
0.222425
0.191327
-0.074830
-0.264608
0.025432
-0.151906
-0.174039
-0.242487
-0.072320
-0.086883
0.016866
0.051657
-0.244616
-0.114235
0.304193
-0.158821
-0.188948
-0.057583
0.237236
-0.240132
0.262728
0.353194
-0.059348
-0.291052
0.159384
-0.272991
-0.367494
-0.342123
0.097015
-0.320525
0.065351
0.147897
-0.278913
-0.178641
0.213817
-0.220816
-0.112766
-0.069262
0.120505
-0.118232
0.298583
0.275738
-0.186507
-0.037503
-0.173664
-0.085440
0.007513
0.002879
-0.171843
0.026553
-0.186350
-0.038583
-0.054254
-0.166714
0.147545
-0.110631
-0.271025
-0.094321
0.104851
-0.054784
0.178336
0.207410
-0.080886
0.043071
0.135902
0.053648
-0.145810
0.047143
0.080366
-0.039317
0.126543
0.221903
0.018723
-0.093877
0.114679
0.003069
-0.059190
-0.046995
0.024023
-0.095700
0.057681
0.175086
0.041657
0.168843
-0.024125
0.000304
-0.020351
0.163402
-0.052208
0.022953
-0.037146
0.141596
0.068389
0.095616
-0.045861
-0.010263
0.061786
0.129040
0.003595
0.059388
0.031253
-0.075782
0.033317
0.138210
-0.124357
0.017910
-0.070372
0.211250
0.007319
0.025674
0.011944
-0.077556
0.034307
0.157160
-0.244410
0.165609
0.140508
0.256546
-0.210778
0.284126
-0.163990
-0.067485
0.191575
0.169699
-0.065620
0.146445
0.106113
0.204883
0.013185
0.045940
-0.027294
0.060997
0.144797
0.204142
-0.070483
0.096400
0.079782
0.200550
-0.139830
0.106346
-0.115838
-0.080322
0.094048
-0.065366
0.075747
-0.031589
0.057367
-0.003518
0.094554
0.108184
-0.076576
-0.014759
-0.071870
0.077400
0.036953
0.017583
-0.038825
0.039007
0.017896
0.004816
0.050755
0.026132
0.036504
0.095274
-0.006095
0.037056
0.016365
0.058024
0.021761
0.084347
0.038139
0.034612
0.107286
-0.000098
0.093231
0.085549
0.061164
0.035556
0.087870
0.053712
0.169706
0.216679
-0.024519
0.040065
0.259531
0.097014
0.001267
0.000260
0.250602
-0.020036
0.101614
0.049645
-0.043142
0.079195
0.039369
0.011984
0.025300
-0.021433
0.058824
0.047698
-0.010862
0.034004
-0.048998
-0.352697
0.433866
-0.222176
-0.179993
-0.231418
0.431315
-0.266544
0.365691
0.283147
-0.237924
-0.158663
0.308255
-0.178861
-0.152063
-0.167534
0.283602
-0.164020
0.360490
0.361603
-0.165115
-0.113824
0.044941
-0.011860
-0.137757
-0.056598
0.020133
-0.181392
0.148404
0.069623
-0.122140
-0.194064
0.286409
-0.198361
-0.253140
-0.117595
0.257187
-0.167209
0.329509
0.364596
-0.137583
-0.032374
0.018359
-0.054932
-0.037141
-0.034086
0.070925
-0.003935
0.036962
0.086110
-0.057714
0.004297
0.117527
-0.014129
-0.038046
-0.067522
0.060839
-0.089797
0.156336
0.037307
-0.019668
-0.107954
0.199291
-0.170362
-0.209499
0.022869
0.112432
-0.043957
0.181516
0.052022
-0.081936
-0.164546
0.181142
-0.179029
-0.190438
0.014077
0.104468
-0.091214
0.223854
0.095917
-0.099550
-0.083695
0.202417
-0.092999
-0.229894
-0.051902
0.188223
-0.190190
0.269167
0.143369
-0.064606
0.165356
-0.094893
0.130301
0.013255
0.044169
-0.084464
0.192825
-0.120248
-0.123581
0.076194
-0.144564
0.220228
-0.023330
-0.076434
-0.095216
0.117159
-0.167639
0.120434
0.087072
-0.157537
-0.214814
0.348787
-0.128049
-0.190327
-0.138015
0.289125
-0.172807
0.215590
0.297872
-0.198026
-0.290161
0.303720
-0.171724
-0.259262
-0.256173
0.253398
-0.167369
0.164761
0.133672
-0.091666
-0.150160
0.227375
-0.159014
-0.214657
-0.045004
0.163369
-0.065716
0.215595
0.104276
-0.104058
0.078688
-0.060386
0.173716
0.157562
-0.026093
-0.050645
0.124060
-0.174084
-0.093220
0.010896
-0.120157
0.124270
-0.071115
-0.083984
-0.027611
-0.014123
-0.069218
0.025787
0.100765
0.010663
-0.310055
0.166983
-0.245774
-0.263395
-0.242399
0.172406
-0.227870
0.168943
0.194425
-0.230993
-0.178775
0.107009
-0.050171
-0.250592
-0.052775
0.076904
-0.058212
0.058602
0.055979
-0.009239
-0.168543
0.056987
-0.035845
-0.130843
-0.139940
0.010692
0.012025
-0.012340
-0.034144
-0.041338
0.147908
-0.178762
0.127983
0.124686
0.205693
-0.172947
0.086465
-0.129552
-0.162240
0.110425
-0.228206
0.025680
-0.231471
-0.137537
-0.070992
0.090787
-0.183832
0.123197
0.050906
-0.068031
0.003712
-0.090125
-0.060833
0.035041
0.012916
-0.058930
0.100717
-0.047206
-0.122866
0.101695
0.035849
-0.076487
0.059722
0.061606
0.108011
-0.112741
0.023866
-0.037943
-0.050844
0.020076
-0.130701
-0.018977
0.059676
-0.056121
0.010272
0.024461
-0.009779
0.009016
0.013506
0.021424
-0.111001
0.359967
-0.052255
-0.112816
-0.151436
0.261215
-0.167832
0.300190
0.182791
-0.138212
0.034979
-0.179908
0.058562
0.253430
0.159948
-0.212118
0.100953
-0.168337
-0.162162
0.104304
0.161393
-0.027445
0.214673
0.324449
0.168064
-0.047102
0.141163
-0.070043
-0.064709
0.132465
0.205681
-0.035233
0.201892
0.175339
0.143176
-0.166260
0.121374
-0.129913
-0.178970
0.079633
0.002232
-0.022846
0.175177
0.128374
0.054635
-0.007086
0.013674
-0.061432
-0.017478
0.111458
-0.307371
0.175008
-0.287406
-0.238612
-0.126578
0.086195
-0.295759
0.165120
0.156763
-0.130359
0.225745
-0.002447
0.208786
0.241500
0.135544
0.026664
0.084800
-0.081147
-0.123607
0.009470
0.090218
0.057267
-0.109126
0.065885
-0.141997
0.059925
-0.119317
0.128898
0.048906
-0.161042
-0.066538
0.213230
-0.074223
-0.019529
-0.109802
0.091234
-0.146900
0.172786
0.119250
-0.171377
0.019692
0.076879
0.014106
0.034184
-0.036337
0.146527
-0.071396
0.147891
0.037399
-0.166731
0.048197
0.022520
0.097590
-0.032412
0.067788
0.031046
0.061606
0.046077
0.058895
0.145939
0.017657
0.187912
-0.101082
-0.072559
-0.226082
0.227570
-0.087815
0.165727
0.083689
-0.152762
-0.218288
0.078569
-0.296801
-0.220486
-0.336226
0.196154
-0.293585
0.143116
0.119778
-0.238985
-0.045480
0.203742
-0.172368
-0.196168
-0.158880
0.033348
-0.184980
0.074948
0.096121
-0.285748
0.030035
0.135699
-0.117622
-0.039171
-0.185134
0.127141
-0.100727
0.175611
0.158606
-0.154774
-0.089522
0.232377
-0.091516
-0.059789
-0.175094
0.144628
-0.193770
0.181642
0.197583
-0.197373
-0.201172
0.228576
-0.283951
-0.213306
-0.199462
0.123655
-0.232569
0.205477
0.137952
-0.284654
0.028012
0.055239
-0.136182
-0.096547
-0.113292
0.058434
-0.033280
0.045854
0.043151
-0.161778
-0.079274
0.143928
-0.222795
-0.225302
-0.162956
0.212337
-0.143790
0.099041
0.137281
-0.200752
-0.029705
-0.024023
-0.076928
-0.082941
-0.054380
-0.103822
-0.060160
0.008922
0.030474
-0.032489
-0.257810
0.100169
-0.170750
-0.250609
-0.167498
0.051454
-0.269246
0.164006
0.164732
-0.226391
0.037702
0.204422
0.032062
-0.102900
-0.044999
0.117910
0.043566
0.191570
0.288211
-0.028522
0.139458
0.129929
-0.018988
0.005854
0.084994
0.063325
0.019889
0.040194
0.215601
-0.011450
0.055560
-0.043022
0.007035
0.012275
0.005942
-0.022725
0.081691
0.025532
0.140112
0.075150
0.105091
-0.011351
0.129593
0.137182
0.160238
0.070320
0.109179
-0.054230
0.190500
0.027748
-0.117857
0.033760
-0.085542
-0.113478
-0.174928
0.088832
-0.082450
0.057452
0.187307
-0.109551
0.145957
-0.132993
0.087017
-0.011762
0.124930
-0.059962
0.094269
-0.037762
0.078007
0.112947
0.128517
-0.051671
0.163426
0.172470
0.217016
-0.012165
0.124894
-0.078510
-0.053293
0.070445
0.213151
-0.066169
0.172932
0.034452
0.151440
-0.062801
0.179381
-0.062381
0.026777
0.024060
0.178591
-0.125679
0.236817
0.207728
0.093617
-0.079204
0.266045
-0.200641
-0.011011
0.174159
-0.005275
0.019524
0.019099
-0.052278
0.056796
0.047129
0.012192
0.028287
0.070245
-0.024919
0.182165
-0.152859
0.196878
0.101454
0.192987
-0.040119
0.078868
-0.080097
0.005215
0.174664
0.205391
-0.144409
0.233443
0.085664
0.292905
-0.099554
0.252009
-0.133572
-0.099819
0.204313
0.247194
-0.182725
0.134359
0.098029
0.118925
-0.203810
0.144617
-0.147246
-0.056488
0.081994
0.265681
-0.142738
0.265385
0.129145
0.182326
-0.114184
0.258387
-0.138892
-0.189979
0.169456
0.104201
0.067811
0.038167
-0.043922
-0.031091
0.077616
0.117885
-0.042733
0.007621
0.038765
-0.016475
-0.006326
-0.034816
0.053953
0.027035
0.041890
0.018893
0.068726
0.089721
0.065064
0.039960
0.049788
0.069217
0.033932
0.047639
0.056450
-0.013742
0.074901
0.098837
0.050830
-0.022615
0.196100
0.094355
-0.061859
-0.056468
0.271939
0.022573
0.252468
0.101383
-0.008121
-0.052005
0.102008
0.048211
0.068686
0.067885
0.058193
0.097232
0.131166
0.078362
-0.079459
-0.047626
-0.083300
0.111686
-0.041379
0.018313
-0.027858
-0.023512
0.037387
-0.068912
0.045203
0.171423
-0.027039
0.144137
0.111861
0.243790
-0.116665
0.180173
-0.107286
-0.141589
0.064221
0.096211
0.095351
-0.024618
-0.004075
0.115874
0.101910
-0.072054
0.177538
0.090182
0.101874
-0.031333
0.278791
-0.112035
-0.120622
-0.069222
0.136916
-0.148219
0.260116
0.130776
-0.056727
0.120785
-0.043729
0.170295
0.103581
0.239671
-0.073908
0.178811
-0.023525
-0.021341
0.174264
0.064349
-0.101750
0.160003
0.194296
0.176994
-0.024971
0.107747
-0.066990
-0.125578
0.192440
0.011405
0.067869
0.031343
0.088734
0.007054
0.022183
0.087064
-0.055886
-0.092541
0.064453
-0.035998
0.020749
-0.044346
0.016320
0.102607
0.139153
-0.019586
0.068069
0.019477
0.068526
0.025557
0.016338
0.018145
-0.111228
0.036619
0.126161
-0.106443
0.047807
0.022544
0.050224
0.147708
-0.041519
0.164232
0.144853
0.108560
-0.039570
0.109083
-0.095018
-0.129271
0.014522
0.216034
-0.069746
0.113434
0.137584
-0.000238
-0.125545
0.161317
-0.101468
-0.089311
0.083691
-0.071537
0.086566
0.065662
0.014893
-0.068564
0.101023
0.098940
0.057950
0.021692
0.015130
-0.117708
0.037867
-0.042019
-0.026882
0.006422
0.169398
0.000258
0.066750
0.139968
-0.118435
0.011694
0.109560
-0.016791
-0.065784
0.004893
0.101702
-0.088579
0.052415
0.071507
-0.057201
0.162221
-0.075040
0.071019
0.165744
0.076694
-0.109560
0.068487
-0.120656
-0.112571
0.155200
0.138178
-0.339550
0.125401
0.191557
0.073226
-0.186121
0.179594
-0.338274
-0.140442
0.066216
-0.178782
0.129380
-0.128994
-0.101763
-0.090742
0.034541
-0.044230
0.050015
0.006924
-0.052223
-0.046955
-0.031810
-0.107419
-0.116960
0.015634
-0.017301
-0.066489
-0.090881
0.061488
-0.109972
-0.010094
-0.051348
-0.076201
-0.068440
-0.058566
-0.023515
0.094258
0.018057
0.036929
-0.063143
0.019481
-0.020807
-0.005546
0.062561
-0.044634
-0.045288
0.111156
-0.031038
-0.127399
0.093134
0.205955
0.233171
-0.059577
-0.023835
0.032259
0.245988
0.100465
0.185330
0.119801
0.037955
-0.185333
0.091336
-0.137097
-0.248730
-0.107278
0.078075
-0.194946
0.102376
0.117584
-0.161950
-0.176762
0.076639
-0.066568
0.024147
-0.085495
0.018065
-0.049672
0.101245
0.117971
-0.005838
0.007272
0.043324
-0.021306
0.007527
-0.037720
-0.085624
0.021946
0.002317
0.003956
-0.056226
-0.088539
0.175402
-0.055731
-0.105207
-0.166700
0.140135
-0.059677
0.101307
0.179062
-0.164229
0.012487
0.147759
-0.095317
-0.059609
-0.051709
0.150492
-0.239313
0.204822
0.021185
-0.022254
0.007104
-0.006079
-0.018837
0.013030
-0.054232
0.116024
0.061743
-0.051191
-0.008786
-0.004760
0.006518
0.167452
0.033038
0.001663
-0.099828
0.089710
-0.053222
0.043420
0.031986
-0.121051
-0.079305
0.139563
-0.082546
0.030799
-0.099918
0.171280
-0.130067
0.187809
0.144658
-0.060132
-0.035335
0.144533
-0.177699
-0.068684
-0.169936
0.155920
-0.088332
0.144572
0.252566
-0.131696
0.079355
-0.168852
0.051442
-0.016406
0.100261
-0.164107
0.072646
-0.109553
-0.061700
0.117248
0.200238
-0.081824
0.113880
0.120154
0.090733
-0.055217
0.181376
0.030009
0.025271
0.090396
-0.033094
0.170804
0.027959
0.053327
-0.113660
0.039608
-0.024665
0.102473
0.081468
-0.143635
0.055466
0.029547
0.050786
0.013343
-0.077687
0.069314
0.057143
0.157914
-0.033814
-0.099540
0.204295
0.105886
0.116192
0.060163
-0.050765
0.059295
0.080679
0.087701
-0.095232
0.029561
-0.133127
0.325311
-0.196458
-0.092953
-0.181884
0.234285
-0.212084
0.191115
0.190379
-0.122762
0.095685
0.001597
0.009209
0.175078
-0.012907
-0.038647
0.180646
-0.017200
0.023640
0.031955
0.164840
-0.116098
0.093721
-0.016066
0.070860
-0.026758
0.114015
-0.157605
-0.166731
0.033562
0.103865
-0.055796
0.092626
0.140813
0.086393
-0.044893
0.050919
-0.052388
0.030322
0.003528
0.235128
0.025910
0.181645
0.110382
0.048548
-0.060094
0.154173
-0.141838
-0.167911
0.135161
-0.071594
0.311064
-0.087162
-0.074249
-0.177210
0.211035
-0.181257
0.289008
0.288156
-0.281325
0.126728
-0.076964
0.038824
0.133209
0.047637
-0.122425
0.071601
-0.123754
-0.085793
0.073227
0.184834
0.133838
0.152075
0.081651
-0.011014
0.149354
0.127610
0.032031
0.058517
0.106523
0.264685
-0.065566
0.287751
0.275829
0.111378
-0.105057
0.180419
-0.130936
-0.027356
0.122452
0.148564
-0.080154
0.257638
0.196505
0.203721
-0.017850
0.237161
-0.141820
-0.063965
0.178306
-0.272548
0.077485
-0.220855
-0.162804
-0.250743
0.073909
-0.147935
0.023252
0.110275
-0.135843
0.030082
0.098792
0.064137
0.096954
0.003141
0.082323
0.068819
0.016861
0.161646
0.007773
0.135167
-0.058477
0.123647
0.141899
0.081752
-0.008443
0.198248
-0.050071
-0.017083
-0.023998
0.199246
-0.028114
0.162684
0.188958
0.151272
-0.111508
0.095695
-0.087693
-0.021371
0.065820
0.138145
-0.046828
0.252655
0.216643
0.167920
-0.190941
0.207718
-0.049785
-0.101314
0.174994
-0.012351
0.147485
-0.004492
0.063564
-0.021275
0.004928
-0.086909
0.006382
0.038475
0.025171
0.108035
-0.157972
0.221421
0.114163
0.175474
-0.058994
0.119113
-0.195448
-0.067439
0.057763
0.227257
-0.219692
0.208064
0.104799
0.195183
-0.235571
0.243198
-0.165728
-0.079351
0.109805
0.253562
-0.098236
0.198820
0.190940
0.112195
-0.235213
0.246220
-0.177050
-0.146238
0.220017
0.179869
-0.175627
0.252015
0.167606
0.214860
-0.216882
0.169827
-0.243378
-0.151688
0.102866
-0.045375
0.079240
0.009029
-0.042100
-0.033521
0.122694
-0.042830
0.069870
0.102557
-0.006141
0.164359
-0.117874
0.245682
0.174053
0.196109
-0.174090
0.326269
-0.149478
-0.196982
0.218898
0.196008
-0.105080
0.240083
0.186109
0.197578
-0.162361
0.205514
-0.212475
-0.140269
0.208119
0.273251
-0.147572
0.191667
0.151186
0.200315
-0.189438
0.297194
-0.108368
-0.094100
0.097501
0.202827
-0.245098
0.232335
0.135156
0.209263
-0.193370
0.192347
-0.141051
-0.043588
0.130294
0.038096
-0.104984
0.058370
0.113860
0.062161
-0.039353
0.046597
-0.117278
-0.056367
0.082475
0.062474
0.077678
0.099653
0.094863
0.132354
0.000375
0.098870
0.062670
0.066798
-0.027575
-0.013332
0.005977
0.057823
0.085532
0.024436
0.049364
0.064424
-0.026636
0.035038
0.120791
-0.005311
0.138992
-0.018129
0.110731
0.020945
0.160006
-0.034445
0.126898
-0.017665
-0.105547
0.026694
-0.050898
0.065248
0.099234
-0.025307
0.093794
0.037282
-0.039143
0.092129
0.021128
0.059264
0.022817
0.113771
0.032459
0.092995
0.002489
0.039122
-0.000374
-0.064622
0.059099
0.013676
-0.085881
0.158335
0.171355
0.099455
0.004388
0.031782
-0.045624
-0.107723
0.060941
0.135444
0.075732
0.066076
0.019537
0.099593
-0.000524
0.008483
-0.064315
-0.044450
0.140792
0.212920
-0.075330
0.168588
0.131078
0.215378
-0.090299
0.106235
-0.131453
-0.161983
0.094481
0.182036
-0.137663
0.238595
0.274893
0.203206
-0.110399
0.164311
-0.159975
-0.157963
0.156693
-0.008542
-0.039197
0.113674
-0.033154
-0.002805
0.005693
0.018564
0.057096
-0.070660
0.051488
0.148942
0.031792
0.091881
0.043361
0.080663
-0.018943
0.033129
-0.069929
-0.148503
0.140160
0.020468
0.040317
-0.011347
0.061741
0.068874
-0.043770
0.055488
-0.025209
-0.084249
0.010592
0.060930
0.020460
0.019770
0.111550
-0.038806
-0.009112
0.101024
-0.086138
-0.004788
0.048043
0.077002
-0.167565
0.103052
0.251891
0.127985
-0.120544
0.127813
-0.051514
-0.111498
0.140347
0.016147
0.070293
-0.042920
-0.056040
0.042216
-0.027156
0.053901
0.024358
-0.077126
0.034268
-0.045814
0.092924
0.043932
0.029937
0.037900
0.044804
0.055422
-0.056881
0.045437
0.096252
0.072192
-0.046619
0.057724
-0.038098
0.031099
0.046720
-0.040414
0.048593
0.061067
-0.047062
0.045935
-0.039492
0.042880
-0.001584
0.033166
-0.112218
0.072080
-0.088075
-0.002519
0.116265
0.098702
-0.006825
0.108657
0.151881
-0.045891
-0.005148
0.103551
-0.038560
0.045908
0.018283
0.221498
-0.198440
0.122203
0.025587
0.168705
-0.327499
0.309153
-0.221307
-0.223081
0.148119
-0.067227
0.025708
-0.083166
-0.045883
-0.051386
0.037293
-0.069703
0.030926
0.080553
-0.028061
-0.159221
-0.051989
0.010637
-0.108659
-0.106857
-0.019524
0.062171
-0.038772
0.037122
-0.106627
-0.040776
-0.016627
-0.044717
0.019764
-0.009317
0.007218
-0.091244
-0.101002
0.004322
-0.026341
-0.141163
-0.062010
-0.107685
-0.052929
-0.125417
-0.042179
-0.117028
-0.002218
0.108574
-0.123572
0.418530
-0.176670
0.279520
0.246438
0.211305
-0.218684
0.244211
-0.067297
-0.087998
0.242033
-0.195983
0.093927
-0.104759
-0.251397
-0.221948
0.072872
-0.153438
0.115873
0.128995
-0.200216
-0.077500
0.241387
-0.169000
-0.119583
-0.168275
0.222440
-0.097266
0.177587
0.193493
-0.118108
-0.077265
0.192968
-0.105193
-0.089415
-0.190501
0.139992
-0.137266
0.204019
0.207304
-0.067469
-0.149447
0.120597
-0.144216
-0.173955
-0.148672
0.262626
-0.205438
0.125295
0.106576
-0.200159
0.381448
-0.429179
0.438948
0.415631
0.434452
-0.378174
0.419074
-0.530669
-0.413836
0.420851
0.027345
0.164549
0.062956
0.041924
-0.035820
0.140284
0.040556
0.148116
0.159733
-0.021756
0.080336
0.142703
0.070587
0.042920
0.041016
0.119123
0.056804
0.113751
0.137447
-0.058841
-0.031454
0.237793
0.041097
0.027537
-0.024542
0.180571
0.025814
0.168339
0.048826
-0.113602
0.047970
0.236319
-0.087913
0.003174
-0.012993
0.180172
-0.000102
0.148862
0.087623
-0.221641
-0.051000
0.146278
-0.069341
-0.182932
-0.040527
0.140690
-0.080792
0.110453
0.040659
-0.039827
0.119644
-0.014893
0.048377
0.086134
0.123173
0.034198
-0.020828
-0.019259
0.073768
0.030839
0.116458
0.030667
0.033685
-0.002367
0.033273
0.003321
0.097273
0.081472
0.060703
-0.054289
0.161148
-0.005185
0.129657
0.026241
0.020823
0.112334
0.098647
0.031103
0.125451
-0.092232
0.061754
-0.001071
0.135376
0.123148
-0.031073
0.033944
0.111874
-0.019841
0.035784
0.009700
-0.150027
0.273879
-0.193185
-0.239398
-0.219168
0.289917
-0.148779
0.241110
0.249682
-0.258784
0.052941
0.064947
0.118428
0.035195
0.030925
0.069748
0.029572
0.013087
0.090988
-0.084034
0.116148
-0.022428
0.149845
0.222308
0.114659
0.046404
0.177960
0.018112
-0.073548
0.112872
0.225772
-0.035128
0.133609
0.242799
0.112975
0.015549
0.114355
0.000284
-0.018099
0.060506
0.104410
-0.035363
0.036762
0.182583
0.082817
0.075774
-0.000540
-0.022861
-0.054598
-0.062752
-0.117007
0.227233
-0.124009
-0.143754
-0.133592
0.321747
-0.149857
0.293189
0.175640
-0.215408
0.196899
-0.062944
0.238073
0.096173
0.101091
-0.065151
0.050855
-0.011238
-0.002905
0.175262
0.192871
0.048023
0.217147
0.080079
0.127730
-0.036859
0.168741
-0.045903
-0.039545
0.134493
0.209139
-0.138803
0.233568
0.195725
0.107493
-0.102029
0.067870
-0.063271
-0.091198
0.067887
0.051571
-0.012775
0.064685
0.175016
0.169756
-0.075704
0.177267
0.006183
0.011604
0.176966
0.017549
0.099067
-0.040841
-0.044315
-0.033855
0.133680
0.058400
0.127987
0.124559
0.014615
0.106678
-0.033235
0.124676
0.098795
0.039234
-0.097791
0.203666
-0.120923
-0.019601
0.134374
0.141072
-0.034450
0.115740
0.163801
0.141475
-0.072737
0.109587
-0.018408
0.010481
0.061258
0.106889
-0.079485
0.181307
0.146777
0.106735
-0.158614
0.241390
-0.215463
-0.006515
0.060382
0.073598
-0.022936
0.243679
0.115738
0.107487
-0.099168
0.216188
-0.039192
0.024034
0.106976
0.164601
0.021959
0.093633
0.100607
0.049860
-0.098726
0.087831
-0.005190
-0.052219
0.112818
0.117290
-0.112966
0.067595
0.168345
0.025303
0.021180
0.107812
-0.034894
-0.038525
0.027719
0.244306
-0.082525
0.085625
0.069513
0.128878
-0.099765
0.100830
-0.054046
-0.069250
0.192385
0.100034
-0.168057
0.126506
0.123570
0.190687
-0.149141
0.117759
-0.193086
-0.005027
0.141974
0.031825
0.058357
0.120012
0.044020
0.136654
-0.024936
0.053231
-0.005426
0.092008
-0.018729
0.126052
0.062695
-0.036522
0.076860
0.068456
0.051016
-0.022028
0.016447
-0.050193
0.088308
0.181952
-0.200999
0.280588
0.256569
0.152882
-0.249149
0.251735
-0.145466
-0.129217
0.141468
0.068011
0.011785
0.185889
0.222527
0.074958
-0.143703
0.166279
0.010448
-0.107009
0.101516
0.200034
-0.119027
0.178810
0.115251
0.102435
-0.054408
0.177585
-0.204191
-0.013358
0.136447
0.151185
-0.008941
0.227381
0.107864
0.190320
-0.087396
0.072463
-0.031404
-0.035548
0.076253
0.114110
0.001854
0.085785
0.087643
0.030131
-0.116130
0.131678
-0.151833
-0.050834
0.168524
0.062136
-0.057089
-0.012967
0.071700
0.022503
-0.077118
-0.023622
-0.048650
0.011701
-0.036105
0.091987
0.076356
-0.038579
-0.040984
0.036985
0.043290
0.043114
0.004127
0.065777
0.044239
-0.011990
0.018410
0.059996
0.042000
0.117202
-0.018142
-0.015701
-0.075460
0.045078
0.049364
-0.025455
0.005236
0.007148
0.038365
0.000597
0.013442
-0.039675
-0.067043
-0.073534
0.048186
0.001233
0.042385
0.080592
0.047195
-0.022598
0.022692
0.105602
-0.046209
-0.022481
0.096823
-0.155406
0.115785
-0.064636
-0.040637
-0.069773
0.065050
-0.076944
0.089699
0.124742
-0.106339
-0.059036
0.077957
0.061122
-0.064614
-0.075994
0.079773
0.009521
0.109053
0.047459
0.011181
0.095439
-0.026324
0.088193
0.130584
0.116236
-0.078408
0.053632
-0.142934
-0.029890
0.075109
-0.086340
0.091396
-0.096470
0.004905
-0.132393
0.168022
-0.170030
0.163041
0.127092
-0.161183
0.071378
0.055859
-0.027201
-0.082348
-0.015128
-0.029862
-0.018825
0.091921
0.034594
0.007017
0.022252
-0.004760
0.137822
0.161403
0.077697
-0.047447
0.080794
0.027051
-0.066531
0.109180
-0.028155
0.095464
0.058148
0.083912
-0.084064
0.118064
-0.033318
-0.014320
-0.003525
-0.066041
0.024123
-0.041944
-0.034236
0.101287
0.016826
0.043582
0.057709
0.038130
0.001618
0.002534
0.018312
-0.074207
0.013702
0.124735
0.083379
-0.049519
-0.006601
-0.037240
-0.097412
0.050303
0.136305
-0.053265
-0.023455
0.026535
0.014077
0.027157
0.133798
0.021266
-0.071693
-0.037034
-0.035407
0.038430
-0.007111
-0.014982
-0.079119
0.073154
-0.017989
0.060607
-0.037368
0.030153
0.103346
-0.006927
0.076022
0.165171
0.030539
-0.069060
-0.031796
0.008131
0.011860
0.039621
0.074848
-0.203833
0.101413
0.117063
0.058120
-0.077386
0.172785
-0.150109
-0.024387
0.007173
0.017085
-0.082109
-0.022615
0.068438
0.046968
-0.029561
0.071473
-0.028264
-0.145814
0.069291
-0.128847
0.125746
-0.117734
-0.010173
-0.043229
-0.009168
-0.044813
0.122019
0.111205
-0.103779
0.104811
-0.230744
0.171370
0.051343
0.097261
-0.290081
0.076931
-0.254125
-0.129423
0.180058
-0.090236
-0.066574
-0.047919
-0.102682
-0.057260
-0.152314
0.078575
-0.149013
-0.093913
-0.079255
0.006095
-0.135543
-0.009215
0.013899
0.018375
-0.153144
0.051373
-0.083764
0.032111
-0.086864
0.155085
-0.217884
0.006506
0.086801
-0.028561
-0.229566
0.046492
-0.189441
-0.108268
0.067366
-0.038617
0.055706
0.101447
0.093253
-0.023597
0.124755
0.036905
0.021388
0.038369
0.079746
-0.063346
0.018569
-0.099173
-0.218286
-0.163085
-0.066744
-0.162278
0.052523
0.053159
-0.140042
-0.007538
0.130135
-0.062611
-0.013019
0.021637
0.078266
-0.014160
0.142359
-0.005793
-0.090321
-0.047854
0.120221
0.033674
-0.024638
-0.026423
0.006461
0.026959
-0.004849
0.030449
-0.065929
0.087317
-0.116846
-0.032530
-0.032249
-0.132305
-0.003045
-0.076942
0.015346
0.009869
-0.127815
0.012356
0.024249
0.020604
0.050382
-0.016371
-0.081319
-0.068803
-0.119910
-0.108024
-0.012240
-0.088210
0.060834
-0.033110
-0.077958
-0.077810
0.127976
-0.079532
0.106116
0.105781
-0.117801
0.111185
0.063684
-0.000503
0.152614
0.153656
0.081613
-0.022890
0.012879
-0.011971
0.101235
-0.032731
0.073013
0.061204
0.064049
0.066106
0.165784
0.051925
0.079016
0.131716
-0.045936
-0.046227
0.207299
-0.042551
-0.009356
0.082021
0.086633
-0.043047
0.217037
0.157413
0.027580
-0.004400
0.151285
-0.116646
0.044857
-0.038035
0.160458
0.050235
0.132368
0.197357
-0.082308
0.057676
0.028993
0.017749
0.028655
0.120905
0.050669
-0.043106
0.002263
-0.036630
0.084928
0.137914
-0.026596
0.027414
0.006038
-0.007279
-0.019585
-0.009475
0.067340
0.075897
0.115758
0.018089
0.022975
0.093005
0.090971
0.110279
0.066532
-0.020410
0.009044
0.037650
0.121544
0.062205
0.124017
0.144094
0.117469
0.085486
0.018187
0.025165
0.047887
0.142496
0.127395
0.093605
-0.058076
0.142941
0.147115
0.065776
-0.022802
0.022483
0.049913
0.012842
0.051105
-0.047514
0.144078
0.098332
0.063949
-0.006331
0.009458
0.011542
-0.016457
0.052036
0.041949
0.083085
0.003327
0.049835
0.139657
0.031466
-0.007137
0.045707
0.020797
0.009090
0.076255
-0.053334
0.139015
0.046922
0.068483
0.052827
0.058797
0.052427
-0.009080
-0.012438
0.097263
-0.028792
0.052227
0.025273
0.121711
0.039739
-0.016264
0.087801
0.055814
0.005257
0.114042
-0.033022
0.093010
-0.041514
0.063406
-0.068366
-0.004221
0.035197
0.039310
0.105076
0.034244
0.061238
0.047645
-0.027788
0.118887
0.095997
0.102742
0.077543
0.090434
-0.024836
-0.012580
0.148175
-0.066584
0.190927
0.134006
0.195983
-0.000455
0.206915
-0.000066
-0.013329
0.217221
0.053590
-0.088990
0.051296
0.106468
0.128492
-0.118747
0.148393
0.013345
0.016040
0.095518
0.202420
0.091375
0.249159
0.215480
0.125986
0.079922
0.199302
0.076304
0.027701
0.191383
0.045030
0.090206
0.057344
0.011114
-0.008345
0.023599
0.073623
-0.072937
0.026016
0.040913
0.000989
0.064142
0.102447
0.018366
0.126659
0.055753
0.087583
-0.027992
0.116287
0.150205
-0.077683
0.065682
-0.005547
0.003752
0.046656
0.023796
-0.056837
0.108477
0.145269
0.027732
-0.056981
-0.029290
0.015494
-0.081879
0.076723
0.010747
-0.009122
0.082950
0.028153
0.024253
0.057005
0.072514
0.015641
0.073545
0.184091
0.182874
0.044348
0.112685
0.066247
0.223006
-0.025843
0.022703
0.021793
0.121917
0.027345
-0.084726
0.093573
-0.088229
-0.057996
0.089993
-0.108385
0.223975
-0.028907
-0.106197
0.048438
0.110556
-0.036146
0.239673
0.197336
-0.152091
-0.047989
0.083016
-0.028794
-0.049708
0.077297
0.072432
0.060494
0.010731
0.054040
0.070241
0.147791
0.052758
0.136298
0.046302
0.203487
0.016586
0.039568
-0.041413
0.043463
0.114394
0.076680
0.111933
0.174224
0.047892
0.085879
0.019675
0.117053
-0.021644
-0.053140
0.127750
-0.002074
0.025702
0.026430
0.033648
0.004316
-0.018280
-0.039335
0.069799
-0.077775
0.086965
0.164496
-0.113766
0.141981
0.178341
0.031937
0.018341
0.018376
-0.042972
-0.010041
-0.008407
0.124249
0.023443
0.129845
0.128090
0.118662
-0.114594
0.126722
-0.049632
-0.000807
0.075691
0.055629
-0.126933
0.064316
0.049878
0.172748
0.032391
0.081608
-0.068632
0.020950
0.126477
0.056546
-0.079493
0.025646
0.082499
0.091324
0.004405
-0.003433
0.060791
-0.022834
0.124121
-0.022762
-0.081524
0.047781
0.114337
0.086133
0.015571
0.024718
0.026436
-0.099833
0.061523
0.079616
0.004230
-0.028828
0.002581
0.000443
0.009927
0.081773
-0.058836
-0.051763
0.003775
-0.052034
0.068607
-0.018465
0.008693
0.108108
-0.034836
0.007232
0.026557
0.023617
0.125203
0.041181
0.054291
0.026917
0.087054
-0.024920
0.049115
0.039922
-0.015282
-0.029751
0.006182
-0.021000
0.018067
0.073159
0.002412
0.120582
-0.029977
0.062395
0.064111
0.037436
0.053913
-0.045382
0.053719
0.111528
-0.056959
0.091425
-0.096871
0.066187
0.055143
-0.054842
0.084019
-0.004497
-0.052776
0.037384
0.118493
0.106834
-0.043968
0.082450
-0.010663
-0.033134
0.001134
-0.060804
0.013136
0.031848
0.095246
0.091287
0.115622
0.098121
0.087810
0.053638
0.048551
-0.025700
0.071929
0.021635
-0.042374
0.020594
0.160146
-0.176100
0.178427
0.123475
-0.096338
-0.003750
0.080388
0.049630
0.110024
0.048212
-0.059002
-0.020560
-0.034635
-0.001493
0.021182
0.000818
-0.064554
0.006907
-0.046174
-0.021409
0.050067
0.071033
-0.088557
-0.077449
-0.028245
-0.044972
0.200378
0.068900
0.029922
0.078754
0.073195
-0.079878
0.126540
0.101681
-0.072579
-0.085563
0.162214
-0.065362
0.032054
-0.026163
0.100083
0.027929
0.085659
0.079549
-0.018258
0.081653
-0.191061
0.205558
0.163315
0.109969
-0.173517
0.198826
-0.096477
-0.049398
0.091771
0.022231
-0.066565
0.064627
0.064263
0.026775
-0.018587
-0.007033
-0.067946
-0.028602
0.057119
-0.003811
0.044690
-0.066979
-0.043794
-0.010010
-0.044621
-0.005690
-0.046007
0.017607
0.053596
0.191679
-0.188403
0.228325
0.173780
0.089716
-0.127926
0.107364
-0.034016
-0.016873
0.218388
0.135793
-0.001118
0.031419
0.143404
0.007244
-0.004865
0.117281
0.036680
0.020133
0.123650
0.181492
-0.243271
0.192686
0.251176
0.162861
-0.197826
-0.027501
-0.178136
-0.103085
0.233874
-0.028067
0.048320
0.007999
0.078331
0.044999
-0.012422
-0.044059
0.034949
0.091045
0.155460
0.107241
-0.053232
0.118445
0.121366
0.125614
0.022073
0.125878
0.031541
0.014075
0.121335
0.122122
-0.145211
0.235377
0.165466
0.137036
-0.163112
0.113082
-0.079758
-0.051934
0.174674
0.098040
-0.200446
0.102126
0.251237
0.122307
-0.317957
0.156470
-0.180737
-0.288441
0.152294
0.244132
-0.221564
0.114981
0.168439
0.102808
-0.283062
0.152485
-0.288422
-0.189977
0.193983
0.128225
0.170987
0.160443
0.189212
0.140428
0.216993
0.040297
0.244460
0.089957
0.140378
0.049073
-0.002401
0.041017
0.032967
0.112572
0.003467
0.170118
-0.112433
-0.073765
0.129606
0.079384
-0.159047
0.083171
-0.016510
0.085778
-0.263935
0.113702
-0.270933
-0.242551
0.012423
0.176691
-0.062573
0.100493
0.065363
0.087599
0.028822
0.014297
-0.036785
0.071405
0.175073
0.045261
0.052113
-0.017487
0.024694
0.196690
0.085157
-0.137052
0.138789
0.026915
0.196968
0.287694
0.017437
0.156215
0.169552
0.134546
-0.129729
0.011078
-0.078529
-0.092448
0.265427
0.105091
-0.184127
0.065469
0.041149
-0.062976
-0.145381
-0.000099
-0.144916
-0.061258
-0.098409
0.143108
0.017661
0.099820
0.017371
0.168739
0.076730
0.011795
-0.056014
-0.052901
0.108450
0.236236
-0.102292
0.087438
0.075642
0.103031
-0.020912
0.092440
-0.010877
-0.015527
0.216434
0.287585
-0.221514
0.238014
0.279704
0.188194
-0.195850
0.266727
-0.233831
-0.146443
0.324150
0.165696
-0.063970
0.177815
0.164183
0.227800
-0.140949
0.227581
-0.059504
-0.047716
0.120007
0.095115
0.098834
-0.048352
0.089836
-0.002689
0.098851
-0.132699
-0.005213
0.062232
-0.060705
0.086858
-0.002234
0.032056
0.164704
0.004966
0.003183
-0.021554
0.052011
-0.042791
0.112337
0.161960
-0.132452
0.193421
0.225044
0.140052
-0.028857
0.199390
-0.037939
-0.109215
0.178159
0.274498
-0.152070
0.212812
0.217817
0.234000
-0.112371
0.247367
-0.241525
-0.169170
0.178651
0.067830
-0.010551
0.185878
0.155467
0.072833
-0.009383
0.054678
-0.065703
-0.030348
0.118981
0.113823
0.001246
0.113753
-0.000010
0.015427
0.067537
-0.036574
0.027286
0.097271
0.057761
-0.046738
0.042477
-0.037133
-0.022876
0.026272
0.027155
0.017959
0.072618
0.015427
0.021748
0.001228
0.049729
0.113206
0.093958
0.174053
0.007040
0.055870
0.084276
0.020491
0.073172
0.271521
-0.045218
0.193001
0.173294
0.141877
-0.009377
0.182207
-0.127428
-0.030751
0.208900
-0.049077
-0.063132
0.093256
0.072057
0.118937
0.075833
0.097392
0.011140
0.039052
0.000146
0.090887
0.047076
0.087995
0.082371
0.004088
-0.084494
0.071220
-0.000719
-0.072375
0.102656
0.105974
0.067482
0.052657
0.084170
0.142028
0.232666
0.080283
-0.001954
0.136756
0.189934
0.226872
0.002266
0.160469
0.203261
0.066226
0.020416
0.167420
-0.097159
0.069799
0.160418
0.229920
-0.039797
0.208892
0.090549
0.156712
-0.082646
0.100046
0.000183
0.047907
0.148223
0.063625
0.058068
0.043931
0.025155
0.061633
0.017162
0.000413
-0.021040
0.058905
0.083559
0.003186
0.029242
0.073140
-0.013298
-0.017325
-0.011177
0.048212
0.067227
0.012449
0.015490
0.131527
0.132863
0.124814
0.014629
0.111166
0.163576
0.022548
0.124027
0.091961
0.096329
0.080724
0.044265
0.057565
0.128275
0.199121
0.082680
0.073429
-0.019832
-0.055457
0.028188
0.087638
-0.035842
0.123244
-0.037463
0.096909
-0.070838
-0.029532
0.071786
0.080200
0.019314
0.032920
0.090703
0.010884
0.046766
0.048344
0.015960
0.077784
-0.063092
0.071270
0.051996
0.090297
-0.033486
0.077067
-0.017800
-0.044414
-0.103411
0.026649
-0.045551
0.033315
0.011476
0.138404
0.053982
0.071118
0.074919
0.191711
-0.020980
0.105717
-0.044156
0.008374
0.080404
0.054772
0.058015
0.101790
-0.029198
0.095011
0.028361
0.115226
0.000097
0.061067
0.058834
-0.017851
-0.033517
0.101697
0.091592
-0.006434
0.040064
-0.015536
0.036274
-0.041078
0.069475
-0.015920
0.084319
0.120811
0.063421
0.117235
0.029274
0.096971
0.056904
-0.014708
0.092201
0.121381
0.059216
0.062299
-0.029832
0.073007
-0.026206
0.008461
-0.075117
-0.048822
-0.052239
-0.020603
0.025200
0.042021
0.041581
0.007396
-0.021592
-0.004311
0.035826
0.064372
-0.020179
0.098632
-0.000750
0.072816
0.062643
-0.007851
0.024706
-0.023768
0.040163
0.000102
0.070880
0.062953
-0.071312
0.005129
0.040206
0.066763
0.011876
0.097500
0.004957
0.077162
0.062031
-0.012453
-0.040264
0.007634
0.030633
0.007073
0.051767
0.072984
-0.000459
0.011686
0.084046
-0.000698
0.055909
-0.039988
-0.045769
0.052884
-0.043585
0.035880
0.005681
-0.024886
-0.046504
