0.070883
0.045509
-0.045110
-0.036295
0.060146
-0.057918
0.035362
0.057493
-0.052327
-0.023791
0.030157
-0.056744
0.101753
0.068901
0.042939
-0.053715
0.036092
0.005578
-0.040267
0.047694
0.044643
-0.086124
0.059481
-0.022184
0.038945
0.093491
0.018056
0.077873
-0.009375
-0.024786
0.069727
-0.045238
0.129757
-0.019743
0.112695
0.089484
0.021941
0.089253
-0.032193
0.010323
0.075270
-0.060245
0.048294
0.092452
0.017417
0.116751
-0.014780
0.124612
0.042921
0.004655
0.059996
0.053709
0.095376
-0.071540
0.009920
0.038742
0.032128
0.097917
0.064822
-0.049776
-0.021958
-0.009388
0.070209
0.049332
-0.021700
-0.030154
-0.008764
0.135174
-0.022736
-0.075439
0.028566
-0.097381
0.031188
-0.041137
0.071799
0.059748
0.042789
0.022990
0.003341
-0.019153
0.006680
0.030709
-0.010019
0.022927
0.017546
-0.044677
-0.013218
0.004782
0.018696
-0.016443
0.062876
0.070454
-0.021307
0.028613
0.003240
0.024571
-0.073922
0.128513
0.015228
0.124452
-0.011450
-0.012068
0.048114
0.022875
0.006693
0.066854
-0.065006
-0.022449
0.046091
0.020475
-0.043658
-0.084795
0.134926
0.104217
0.031395
0.036217
-0.071157
0.097647
-0.064479
-0.046052
-0.034118
-0.010667
0.029016
0.008654
0.018155
0.102052
-0.094314
0.107115
0.031425
-0.047110
-0.007197
-0.056897
0.000211
0.020810
-0.033249
0.019952
0.012562
0.006227
-0.040564
0.065301
0.029119
-0.009777
0.104818
-0.008099
0.087829
-0.027047
-0.021207
0.040483
-0.010102
0.047611
-0.064727
0.014116
0.070805
0.012217
-0.087509
0.046700
-0.018530
-0.054849
0.006084
-0.009975
0.028045
-0.087915
0.062094
0.038238
-0.083346
-0.074067
-0.008388
0.025739
-0.020194
0.025212
0.059056
-0.032907
0.114934
0.107833
0.057736
0.038999
-0.018873
0.085731
-0.035993
0.086710
-0.020253
0.002085
0.107479
0.085046
0.022810
0.050899
-0.028393
0.127129
0.092896
0.037553
0.012014
0.063284
0.048016
0.014342
0.108785
0.002548
0.057207
0.062617
-0.024400
-0.017162
0.021472
0.011990
-0.014271
0.072379
-0.077293
-0.023913
0.076422
0.053910
0.035779
0.035000
0.015310
0.055858
0.120447
0.075972
-0.037997
0.074017
-0.050284
0.089091
-0.031206
0.042802
0.021788
-0.026416
0.180267
0.192439
-0.024186
0.102089
-0.018137
0.098878
0.066351
0.035338
0.107707
-0.088383
0.041601
0.066374
0.092335
-0.007981
-0.044816
0.090832
0.014315
-0.030099
0.042105
-0.006392
0.072565
0.049737
0.118257
-0.004148
-0.098204
0.006723
0.013388
0.005080
-0.054992
-0.095077
0.053303
-0.059486
0.032627
0.018433
-0.002827
0.066825
-0.027840
0.047268
-0.006909
-0.072099
0.119478
0.153223
-0.028618
0.064254
0.036592
0.112129
-0.058716
0.035409
0.131671
0.042068
-0.139089
-0.013532
0.247700
0.097759
0.002816
0.218198
0.127739
0.155199
0.106479
0.066121
-0.078973
0.043973
0.097070
0.170001
-0.050290
0.097457
0.104440
0.120228
0.230101
-0.054051
-0.010875
-0.088566
0.106638
0.198777
-0.065270
0.136334
0.137693
0.105873
-0.093457
-0.087798
0.027924
0.111710
-0.059789
-0.039685
0.011010
0.067125
-0.048004
-0.011091
0.012843
-0.015913
0.061457
0.105299
-0.048826
-0.032235
0.005623
0.106976
0.024504
0.086120
0.160103
-0.032194
-0.089221
-0.112010
0.230221
0.135036
-0.053217
0.174140
0.112264
0.261431
0.151258
-0.082352
-0.042380
-0.118909
0.176184
0.205427
0.029421
0.175941
0.156939
0.167834
0.230667
0.051648
-0.067544
0.034289
0.182753
0.095487
0.051864
0.045297
0.214937
0.205666
0.006172
0.060088
0.039007
-0.039723
-0.097363
-0.028334
0.046375
0.019927
0.027664
0.034407
-0.073053
-0.041613
0.121314
0.033165
-0.107680
-0.064226
-0.033140
0.020546
-0.182098
-0.041668
0.195657
-0.013772
-0.010271
-0.046347
0.235889
0.169918
-0.054742
0.276350
0.187055
0.146665
0.122065
-0.030942
0.071584
0.049748
0.279973
0.096402
-0.070350
0.082920
0.234345
0.157499
0.167256
-0.023230
-0.054113
-0.077738
0.281095
0.283548
-0.034618
0.310135
0.231202
0.260945
0.046502
0.008016
-0.001338
-0.024288
-0.005603
0.034477
0.071059
-0.026037
-0.038006
-0.007220
-0.090266
0.057489
0.128125
0.082793
-0.042371
0.051247
0.055031
0.036695
-0.023476
0.018145
0.152334
-0.091872
-0.108769
-0.090279
0.188764
0.179212
-0.047373
0.178161
0.176235
0.123718
0.203351
0.070518
-0.098241
-0.158681
0.159556
0.269273
0.045734
0.226854
0.266983
0.242166
0.183153
-0.080549
-0.154495
-0.078030
0.249424
0.124698
-0.081747
0.238217
0.236882
0.106745
-0.001847
-0.092037
0.034222
0.026929
0.035392
-0.004236
0.012978
0.088031
0.026259
0.017854
0.013625
-0.090868
0.145211
0.143405
-0.094199
0.034414
-0.005548
-0.019620
-0.060198
0.049343
0.088237
0.007126
0.090897
0.116418
-0.027530
-0.020132
0.007146
0.038787
0.004594
0.031188
0.037695
0.043844
0.260226
0.106028
0.004303
0.109270
-0.031861
0.048091
0.140791
0.009683
-0.011915
-0.072944
0.111160
0.138683
0.048849
0.107663
-0.068186
0.057658
0.155158
0.029839
-0.000172
-0.083698
-0.020140
-0.068496
-0.032663
-0.020570
-0.011815
-0.063074
0.035085
-0.063388
-0.044438
-0.039619
0.043622
0.124161
0.006239
0.018836
-0.006514
-0.010061
-0.098760
0.069327
0.064192
0.040463
0.004484
0.099670
0.050016
0.049498
-0.088927
0.006798
0.073973
0.025179
0.101126
0.057110
0.013076
0.010957
0.089114
0.058490
-0.034025
0.032632
0.112802
0.098603
0.102943
0.008718
0.045662
0.116226
-0.000827
-0.008359
-0.003813
0.096233
0.073031
0.060861
-0.073140
0.005582
0.080620
0.052338
-0.047293
-0.058892
-0.024970
0.027537
0.102008
0.070725
-0.081544
-0.038705
0.094364
0.075462
-0.050934
0.039336
0.026575
-0.018433
-0.054222
0.066728
-0.032956
0.004772
0.043789
0.018538
0.107147
0.036897
-0.062777
-0.039581
-0.011385
-0.023219
0.045995
0.058427
0.080943
0.127844
0.119723
0.099876
0.055056
0.088694
0.021800
-0.007695
-0.025037
-0.003506
0.139554
0.137351
-0.007316
0.019752
0.017725
0.044224
0.047560
0.085456
0.011636
-0.022582
0.013439
-0.000226
-0.061375
0.049151
0.028918
-0.068197
0.074423
0.028091
-0.081070
-0.012284
0.159872
0.130073
0.031497
0.008111
0.013365
0.092817
-0.003425
0.051914
0.034493
0.060591
0.064423
0.068802
0.101102
-0.050652
-0.050102
0.100520
0.093452
0.062727
0.081490
-0.039930
0.119018
0.076985
0.046648
0.025651
-0.035133
-0.028457
-0.039655
0.077957
0.018023
0.060779
0.002368
0.086797
0.032207
0.009388
-0.078799
-0.024423
0.062240
0.105745
0.038064
0.058377
0.076202
0.091147
-0.081325
0.030863
0.006292
0.087914
0.058269
0.029080
0.037613
-0.046610
0.044257
0.155060
-0.009176
0.042853
-0.091133
-0.010337
-0.064164
0.057629
0.068212
-0.029550
0.125436
-0.009121
0.058802
0.057723
-0.003544
0.016639
0.008942
-0.013922
0.087554
-0.064163
0.010272
0.089960
-0.030541
0.096687
-0.087716
0.013221
0.104205
-0.040975
0.082461
-0.083759
0.083691
0.075180
-0.024399
-0.032129
-0.032458
0.121144
0.065350
0.082079
0.007798
0.024290
-0.023316
-0.028763
0.072285
-0.060067
-0.017791
0.080065
-0.011228
0.047443
-0.075913
0.030775
0.041848
0.134516
0.009048
-0.018248
0.019825
0.070283
-0.066897
-0.051615
0.054314
-0.094755
0.107040
-0.024203
0.054315
0.088050
0.021737
0.028918
0.019401
0.016829
0.089943
-0.082155
0.059563
0.069763
0.045301
0.054518
0.006759
-0.001547
0.071744
-0.001126
0.007771
-0.004830
-0.022714
-0.039746
-0.012390
0.113956
0.038874
0.070406
0.059843
0.024561
0.031521
-0.097697
-0.020563
0.065460
0.030995
-0.038562
-0.086652
-0.028307
0.080879
0.029395
0.046067
-0.098798
0.069885
0.123056
-0.039523
0.023458
-0.087018
0.059261
0.004353
-0.042561
-0.074411
-0.031593
0.110952
0.211207
-0.039421
-0.123079
-0.077005
-0.075429
-0.049179
-0.040713
-0.058469
0.023498
0.113215
0.167293
-0.102259
-0.002171
0.066335
-0.095675
-0.123385
-0.053393
-0.062270
-0.053558
0.216787
0.156595
-0.020341
-0.034448
-0.048008
-0.111905
-0.130363
-0.005870
-0.072339
0.036043
0.062095
0.025271
-0.020223
-0.007626
-0.058956
0.059986
-0.023880
-0.043974
-0.015947
-0.058654
0.196249
0.068314
-0.006105
-0.019193
0.002717
0.099420
-0.017720
-0.068969
0.051834
0.059214
0.038680
0.000428
0.030418
0.138437
-0.059900
0.109109
0.099979
0.091015
-0.014123
-0.066553
0.065198
-0.030006
0.038742
0.053141
0.063683
0.114501
0.062222
0.112089
0.101542
-0.044123
0.057516
-0.005426
0.107468
0.118943
-0.076513
0.096991
0.041613
0.001324
-0.004491
-0.008556
0.109729
-0.042709
-0.067157
-0.079645
0.033610
0.028041
-0.004675
-0.063598
-0.005326
-0.040434
0.140910
0.041102
-0.013352
-0.061516
-0.071986
0.043987
-0.126982
-0.058804
0.008838
0.033734
0.140014
0.224882
0.028775
0.086572
0.033079
-0.047253
0.017457
-0.081120
-0.024175
-0.063359
0.034985
-0.039363
0.054198
0.030058
0.061063
0.003218
0.053273
0.135504
-0.102498
0.065303
0.244610
0.170622
0.010251
0.038146
-0.026443
0.055973
0.086182
0.082883
0.015551
0.063616
-0.042456
0.034648
-0.054178
-0.023973
-0.001513
0.059631
0.104468
0.042479
-0.040999
-0.010239
0.131990
0.079524
-0.124594
0.024413
-0.061026
0.084349
-0.167260
-0.019107
0.238320
0.004103
-0.136227
-0.269258
0.195499
0.233885
0.024370
0.153452
0.146464
0.248835
0.024063
0.003559
-0.019816
0.043074
0.012750
-0.008983
-0.072468
0.101470
-0.014648
0.138028
0.263762
0.049416
-0.197740
-0.302107
0.180356
0.232891
-0.081705
0.076080
0.170093
0.266071
-0.038705
0.039027
0.024272
0.071612
-0.003282
0.059298
0.019328
0.029584
-0.029534
0.047102
0.045517
0.007841
0.044325
-0.038689
-0.025448
-0.003097
-0.021793
0.180825
-0.028520
0.021443
0.159968
0.040854
-0.106527
0.008330
0.190843
0.221754
-0.007335
0.148158
0.156957
0.232201
-0.035423
-0.022047
0.001184
0.020753
0.023869
0.032436
0.012034
0.088539
0.021258
0.064776
0.183484
-0.019251
0.044298
-0.081084
0.128626
0.090984
-0.001760
0.186182
0.170635
0.077408
0.080798
-0.096027
-0.019135
0.033511
0.031897
-0.004206
0.040188
0.017951
0.078941
-0.034340
0.080746
-0.035640
0.014264
0.073615
-0.029587
-0.062350
-0.093150
0.035830
-0.022607
0.037352
0.106478
-0.019958
0.045694
-0.048183
0.195225
0.119372
0.074581
0.249108
0.151823
0.100386
0.143152
-0.082454
0.018600
0.111345
0.181692
0.082928
-0.070021
0.155495
0.173093
0.164342
0.195764
0.027516
-0.037669
0.049938
0.223689
0.083443
0.054181
0.090284
0.183040
0.198423
-0.001083
-0.033896
-0.051072
-0.027499
0.136496
0.015450
-0.040086
0.056711
0.133459
0.133702
0.088446
-0.020023
-0.011107
-0.011501
0.103175
0.184990
-0.000990
-0.008452
0.038266
0.187319
0.003887
0.018297
0.093587
-0.036293
0.037240
0.001276
-0.010768
0.163572
0.050802
0.012371
0.217778
-0.050510
-0.072733
-0.007745
0.275719
0.255205
-0.034409
0.247922
0.123959
0.217471
0.071228
-0.009645
0.146299
0.024393
0.119621
0.044674
0.021333
0.001220
0.080956
0.084550
0.068786
0.057791
-0.070711
-0.099544
0.080190
0.060693
0.072205
0.016756
0.044328
0.102818
0.136125
-0.073341
-0.094483
-0.161088
0.262280
0.196781
-0.068928
0.205538
0.131077
0.213358
0.265609
-0.016451
-0.162429
-0.095803
0.260609
0.314509
-0.096853
0.152616
0.152490
0.176256
0.113918
-0.020712
0.097312
0.000704
0.129993
0.097352
-0.073946
0.069499
0.057554
0.154698
0.165198
0.048824
-0.063591
-0.215083
0.289423
0.285939
-0.007038
0.284051
0.148499
0.277126
-0.050642
0.010407
0.037781
0.036767
-0.003016
-0.093315
-0.082276
-0.011804
0.045277
0.018609
-0.131275
-0.064673
0.047647
0.094217
-0.066822
0.039391
0.056659
0.093780
-0.041589
-0.096253
0.295170
-0.044569
0.061904
0.010206
0.188494
0.226681
-0.075282
0.344366
0.158533
0.107975
0.249032
-0.093631
0.035737
-0.079020
0.136540
0.185380
-0.092510
0.180886
0.228398
0.150097
0.197733
-0.069349
-0.176594
-0.102289
0.282029
0.135595
-0.094485
0.199099
0.259167
0.260393
0.003486
-0.031416
0.053179
0.058481
0.030812
-0.096312
-0.064791
0.064212
0.053348
-0.046996
-0.082441
0.009233
0.082839
0.083080
0.042915
0.070164
-0.096353
-0.020887
-0.075744
-0.030500
0.038582
0.026549
0.012602
-0.002868
0.096997
0.175030
0.062966
0.115370
0.116148
0.169527
0.229888
0.029741
-0.033126
-0.082463
0.152112
0.282392
0.009102
0.184617
0.165003
0.240340
0.109256
0.025835
-0.104280
-0.039837
0.182084
0.089454
-0.078490
0.082092
0.200869
0.116126
-0.073594
-0.087806
0.027569
0.077997
-0.001271
-0.004405
-0.022341
0.045475
-0.014102
0.038324
-0.018940
0.043584
0.116761
0.025881
-0.101805
0.082101
-0.005246
0.132955
-0.155624
-0.028507
0.004754
-0.022228
0.067080
0.016385
0.022513
0.079768
-0.094630
0.004208
0.051085
-0.009061
-0.037447
-0.024033
0.088191
0.022306
0.092320
0.094806
-0.016417
0.014084
-0.037795
-0.012902
0.014107
0.034713
-0.048761
0.019199
0.108800
0.016125
0.065454
0.069559
-0.010973
0.059408
0.005438
0.061795
-0.028619
0.016185
0.071686
-0.073490
0.029016
0.022272
0.025504
0.002968
-0.114810
0.037990
0.194031
0.139440
-0.050548
-0.009750
-0.061864
0.111498
-0.087830
0.059157
0.072650
0.044715
0.067134
0.003896
-0.038440
0.082684
-0.067155
0.008760
0.049891
0.097293
0.015523
-0.000562
-0.012368
0.067403
0.099410
-0.001903
-0.002303
-0.001031
0.119254
0.097334
0.042486
0.013097
-0.023203
-0.024225
0.014356
0.009105
-0.036699
0.060848
-0.032325
0.080441
-0.005569
-0.090611
0.064237
0.002279
-0.048963
0.031381
-0.004596
0.007475
0.020305
0.058744
-0.029794
-0.038304
0.096666
0.157935
-0.008007
0.019531
0.066482
0.095737
-0.145829
0.035448
0.102803
0.045639
-0.123937
-0.165152
0.048239
0.122056
-0.048534
0.026708
0.081179
0.270861
0.095445
-0.052824
-0.210006
-0.136337
0.111513
0.283282
-0.002234
0.043091
0.166938
0.171557
0.132632
-0.094219
-0.063169
-0.133357
-0.010716
0.215005
0.018977
-0.062844
0.021960
0.206299
0.041644
0.048058
-0.001822
-0.009946
-0.097589
-0.046450
0.009696
-0.047337
-0.006730
-0.000060
-0.076614
-0.083985
0.078354
0.146156
-0.010748
0.028899
-0.016086
0.034629
-0.012737
-0.093817
-0.010707
-0.043377
0.074681
0.037012
0.017579
0.071805
-0.013647
0.013846
-0.048341
0.055481
-0.006167
-0.077770
-0.135246
-0.157609
-0.057459
0.136364
0.060492
0.071526
0.025391
0.175816
-0.010486
0.069030
0.077501
0.027115
-0.055408
0.040337
0.004479
0.066671
-0.042053
-0.051439
-0.017773
-0.069720
0.017778
-0.080829
0.111702
0.096392
0.066275
0.039492
0.026520
0.038859
0.072710
0.037682
0.007182
0.053307
-0.005402
0.030314
0.036604
0.105826
-0.001977
0.018468
0.004593
-0.055381
0.056404
-0.033147
0.035229
-0.006316
-0.006918
0.128576
0.031297
-0.025178
0.053834
0.007573
-0.048630
0.023228
0.053367
0.064305
0.006566
0.066541
0.005265
-0.023714
0.004483
-0.051989
0.088268
0.022303
0.018282
0.010688
-0.091952
-0.008369
0.069145
0.048938
0.051645
-0.055258
0.051289
0.070195
0.108176
0.017407
0.050863
-0.021550
0.055273
0.122287
0.023988
-0.062760
0.005870
0.050214
-0.058921
-0.061519
-0.064070
0.061179
-0.102240
-0.016857
0.024122
-0.020647
0.247378
0.334301
-0.049363
-0.016116
0.020871
-0.084260
0.009161
-0.054455
0.028501
-0.035587
-0.002873
0.048392
0.033396
0.132739
0.024147
0.022882
0.150771
0.013040
0.039334
-0.043138
0.226053
0.196865
-0.058184
0.019796
-0.022367
-0.087909
-0.044380
-0.001117
-0.048948
-0.068818
-0.154639
-0.042400
-0.065002
-0.011969
-0.065652
-0.002134
-0.078922
0.006027
-0.158335
0.050106
0.113028
0.152111
-0.031519
-0.176166
-0.008194
0.067928
-0.012343
-0.068552
0.001719
-0.008646
-0.037635
-0.135098
0.031874
0.077637
0.045718
0.073204
-0.052182
-0.068781
-0.024276
-0.014439
0.252362
0.260815
-0.000004
-0.006146
-0.000355
-0.095550
-0.083868
-0.039178
0.075930
0.034617
-0.120894
-0.014844
-0.048293
0.001791
0.045481
0.000787
-0.047472
-0.024935
-0.063961
-0.029102
0.084723
0.053653
0.020319
-0.115335
0.022050
-0.056694
0.015565
-0.102232
0.059625
0.001469
0.183581
0.200277
0.021031
-0.031592
-0.024960
0.138808
-0.022160
0.056927
0.093249
0.079583
-0.003697
-0.144496
0.135871
0.123254
0.045727
0.164498
0.096008
0.056863
-0.079738
-0.020902
-0.044754
-0.025257
-0.017597
-0.015393
-0.056694
0.019121
0.069379
0.025449
0.120290
-0.080165
-0.072767
-0.022346
0.010065
0.144189
0.050096
0.092142
0.195617
-0.013072
0.178703
0.063876
0.180752
0.056180
0.083528
0.103631
-0.028092
0.207270
0.127809
0.110053
0.223278
-0.058800
-0.071421
-0.036822
0.168904
0.221986
0.035024
0.242160
0.212513
0.095352
0.017849
0.003723
0.218923
0.121334
0.100652
0.087397
0.028792
0.082744
0.122975
0.034761
-0.080986
-0.060328
0.177461
0.255753
-0.052739
0.017664
0.049560
0.047864
0.033160
0.044186
0.045743
-0.039004
0.247768
0.180062
-0.055028
-0.077415
-0.072597
0.024262
0.063212
-0.066478
0.116068
0.080668
0.083288
0.012927
0.216277
0.113651
-0.065187
0.227931
0.243256
0.185247
0.260823
-0.059136
-0.192951
-0.281354
0.287180
0.226719
-0.034036
0.373143
0.272291
0.343980
0.107005
0.006693
-0.027089
-0.039713
0.118545
0.182665
-0.016875
0.136960
0.174551
0.123458
0.102801
-0.028756
0.125368
0.123254
-0.038360
0.062622
-0.001453
-0.049066
0.066976
0.072611
0.178405
-0.033476
0.052369
0.066597
0.130335
0.167067
0.049549
0.029027
0.191959
0.147759
0.050562
0.033120
0.127098
0.053280
-0.009813
-0.038321
0.013447
0.015545
-0.045739
0.024669
0.136923
0.012253
0.045548
0.042878
0.147162
0.023222
-0.064643
0.096573
0.101349
-0.022504
0.185853
-0.060674
-0.158443
-0.021727
0.252197
0.225474
0.049055
0.169640
0.192110
0.216653
-0.030706
0.069641
0.127055
0.155252
-0.016589
0.159134
-0.023768
-0.045506
-0.025082
0.076209
0.104352
0.004199
0.073624
-0.020222
0.061922
0.185969
-0.075816
0.026554
0.032247
0.145428
0.018991
-0.076804
0.174505
0.082192
-0.053639
-0.133154
-0.074647
-0.075859
0.013507
-0.016159
0.222348
0.049254
-0.102025
0.005788
0.121407
0.173753
0.027971
0.089834
0.132103
0.187902
0.087756
0.027108
-0.010797
-0.009733
0.224491
0.262148
-0.063873
0.233187
0.183807
0.209818
0.069360
-0.018783
-0.056737
-0.074724
0.179953
0.274176
0.057003
0.056645
0.089554
0.197350
0.154892
0.030956
-0.050399
0.095362
0.135992
0.161566
0.005466
0.130888
0.173319
0.092939
-0.001097
0.064638
0.011251
-0.051306
-0.047914
-0.047858
-0.027159
0.023720
0.092626
-0.014625
0.145450
-0.008509
-0.186626
-0.050787
0.254104
0.120482
0.045928
0.214341
0.169517
0.271352
0.009103
0.001495
-0.014351
0.047218
0.197186
0.158844
-0.091611
0.117746
0.149105
0.085304
0.111583
-0.015138
-0.031080
0.055664
0.145497
0.076353
-0.096108
0.213697
0.058371
0.104458
0.001681
0.047023
0.040231
-0.034340
0.101147
0.057821
0.017736
0.090708
0.205128
0.125776
-0.057819
-0.037606
0.019218
0.010623
0.057144
0.024721
0.000186
-0.068781
0.014218
-0.024025
0.062657
0.001230
0.132817
0.077369
0.045113
-0.007043
0.048776
0.164680
-0.068905
0.036242
0.073574
0.031093
0.098632
0.017483
0.009512
0.075389
-0.092469
-0.041783
0.104915
0.066667
-0.008571
0.021218
0.059376
0.123272
0.064121
0.006015
0.032654
0.064424
0.011706
0.018103
0.086390
-0.049644
0.127635
-0.014850
0.074015
0.047477
-0.092394
0.016364
0.095514
0.049996
-0.080575
0.002773
-0.050437
-0.056811
0.039843
-0.056703
0.012149
-0.045293
0.074062
-0.065642
-0.035029
-0.071754
0.124731
0.016564
-0.038385
0.043842
0.055516
0.140765
-0.102273
0.058807
-0.008503
0.018525
0.079043
0.054120
0.109811
0.100642
-0.056874
0.101896
0.060470
0.063362
0.084282
0.051855
0.058124
0.092215
0.004291
0.111262
-0.000939
0.118569
-0.041858
-0.037636
0.004294
-0.025489
-0.016040
-0.033619
0.098039
0.049803
0.028531
0.032205
0.028249
0.098566
-0.042528
-0.052332
-0.067322
-0.112954
0.000120
0.200965
-0.017733
0.029421
0.009139
0.205140
0.036104
-0.090894
0.019635
0.027673
-0.013543
-0.056586
0.034803
-0.009633
-0.049698
-0.022170
0.107430
-0.023650
-0.055657
-0.119319
-0.039550
0.220866
0.060073
0.020306
0.023250
0.161960
0.074500
-0.030854
-0.189821
-0.155089
0.075954
0.220643
-0.063549
0.069146
0.125473
0.250367
0.091335
-0.000571
-0.173230
-0.107666
0.074578
0.258945
-0.032922
0.067500
0.056518
0.224235
-0.038335
-0.097296
-0.024565
0.043247
-0.084367
-0.017706
0.014057
0.056494
0.011303
0.012166
-0.052070
-0.042106
0.022035
-0.071341
-0.050864
0.060416
-0.067158
0.007601
0.005038
0.189383
0.100510
0.004213
-0.058921
-0.030399
0.031228
0.170353
0.062127
0.013930
0.074549
0.013337
0.122834
0.059427
-0.213213
-0.105425
-0.022163
0.255915
-0.088129
-0.029860
0.071331
0.115598
-0.023134
-0.032673
-0.060738
-0.029593
0.044862
0.082172
-0.091692
-0.028392
-0.053916
0.089982
0.085031
0.023993
-0.037343
-0.028130
0.054517
0.003998
-0.072766
0.040822
0.022045
0.038023
-0.103902
-0.021984
0.210370
0.116428
0.025699
-0.026650
0.038669
0.131603
-0.063543
0.072119
-0.111957
0.052040
0.167106
0.273834
-0.083980
-0.116237
-0.097975
-0.052954
-0.142233
-0.053428
0.017530
-0.035261
0.031482
0.064674
-0.072811
-0.005026
-0.053458
-0.087376
-0.029359
-0.071331
-0.072148
-0.046946
0.259316
0.250264
-0.095114
-0.116445
0.020178
-0.176552
-0.094016
-0.101132
0.001887
-0.014687
0.043327
0.019548
0.054530
0.186149
-0.035072
0.084391
0.062546
0.097092
-0.003620
-0.047346
0.068033
0.087351
-0.104526
0.014486
-0.020132
-0.034230
-0.054475
-0.043824
0.007712
0.001550
0.349522
0.368691
0.068390
-0.026607
0.026999
-0.015342
-0.038321
0.066099
-0.034297
0.049073
0.177293
0.079244
-0.067843
-0.047755
-0.017240
0.027779
-0.056513
-0.014766
0.039783
-0.042404
0.172518
0.293619
-0.023751
0.045501
-0.018684
0.078316
0.063453
0.032999
0.130043
-0.053804
-0.184755
-0.088684
0.146143
0.105667
-0.020503
0.040517
0.021525
0.085259
-0.040404
0.059140
0.105451
0.205047
-0.044514
-0.061229
0.005519
0.099040
-0.027909
-0.001193
0.127907
-0.062707
0.008325
-0.121479
0.131677
0.077048
0.021008
0.075338
0.113360
-0.013111
0.088628
-0.036149
-0.040221
0.091698
0.140110
0.201432
-0.006136
0.092532
0.043174
0.103441
0.057983
-0.001529
-0.003167
-0.004406
0.064783
-0.030557
-0.096039
0.135431
0.161703
-0.047988
0.010805
-0.098815
0.102006
0.088746
0.063750
-0.102568
0.059086
0.055464
0.080373
-0.081059
0.083460
-0.045859
0.350765
0.335171
0.077704
0.152400
0.050935
0.120689
0.108977
0.002072
0.026009
0.073900
0.000644
0.010496
-0.027128
-0.067708
-0.020807
0.078353
0.080211
0.071975
0.019184
-0.067949
0.042901
-0.057438
0.019302
-0.055222
0.027803
0.060413
-0.058098
-0.001182
0.008181
-0.042702
0.085877
0.044857
-0.052585
-0.015785
-0.005834
-0.020519
0.011349
-0.010203
-0.042647
0.069576
0.584163
0.518137
-0.086408
-0.130209
-0.010903
0.016323
-0.128530
-0.097980
0.245752
-0.023088
-0.077292
-0.100834
0.228925
0.079412
0.040964
0.274009
0.132327
0.189217
-0.076047
-0.009118
0.167471
0.205813
-0.017596
-0.038010
0.005934
0.089283
0.013873
-0.032448
0.018780
0.038593
0.103890
0.152060
0.033997
-0.088998
0.064789
0.117541
0.004379
-0.080371
-0.064400
-0.084894
0.137045
0.263600
-0.063739
-0.000196
-0.010725
0.023857
0.076256
-0.000380
-0.124458
-0.025229
0.762207
0.838473
0.007168
-0.138341
-0.061093
0.003563
-0.131115
-0.018588
0.229207
-0.019080
-0.168194
-0.170943
0.303772
0.239185
-0.074415
0.377148
0.180451
0.265229
0.015933
0.022125
-0.050032
0.007150
0.065712
0.027322
-0.047907
-0.016011
0.047353
0.051773
-0.066014
-0.005888
0.023066
0.017893
-0.108319
-0.037912
0.055293
-0.042289
-0.031641
0.014423
-0.052843
0.049053
0.084421
-0.028371
-0.065850
0.063265
-0.020109
-0.112136
0.090202
-0.034122
-0.166151
-0.026456
0.574685
0.581946
-0.139663
-0.231588
0.003580
-0.269076
-0.361299
-0.171211
0.265808
-0.069198
-0.190983
-0.160102
0.195709
0.155648
-0.045913
0.087302
0.175555
0.192171
0.022322
0.033541
0.040749
0.029400
0.096344
0.214564
-0.049608
0.021923
-0.044728
0.094699
-0.048886
0.007875
0.100273
-0.040536
0.069461
0.144066
0.049701
-0.066928
0.008251
0.006757
0.043365
-0.087087
0.183893
0.072529
-0.046419
0.098640
0.071013
0.056903
-0.020093
0.034890
-0.094561
-0.016420
0.307357
0.319143
-0.086080
-0.030559
0.058348
-0.102462
-0.122188
-0.167712
0.293118
-0.083560
-0.275348
-0.417133
0.319606
0.322575
-0.060941
0.259698
0.189659
0.316256
-0.060467
0.024340
0.152463
0.188861
0.075457
0.027448
-0.021088
0.121687
0.057648
-0.046699
0.118298
-0.070824
0.020824
0.138008
0.105618
0.084686
-0.086950
0.048400
-0.039908
0.111794
-0.001752
-0.059405
0.128384
0.091163
0.118430
0.037972
-0.074277
0.070765
0.032486
0.085824
-0.079230
0.061807
0.233536
0.252463
-0.191522
-0.128708
0.051799
-0.167120
-0.011698
-0.211654
0.073539
0.029402
-0.017270
0.046037
0.085957
0.148451
0.009386
0.131912
0.215162
0.171349
-0.040148
0.024728
0.156038
0.063304
-0.053993
-0.019176
-0.008563
-0.006323
-0.045869
0.075469
0.019900
-0.052079
0.120312
0.123943
0.031606
0.027844
0.039980
0.100264
-0.041546
0.050346
0.012699
0.070444
0.152304
0.133763
-0.007417
0.031907
0.054776
0.076774
0.073619
0.020879
-0.029479
0.028730
0.087412
0.042584
-0.081126
0.023776
-0.075733
0.084709
-0.034003
-0.077625
0.014883
0.031302
0.158349
0.103473
-0.059119
0.063375
-0.072526
-0.033356
0.046053
0.019597
-0.007067
-0.055097
0.123364
0.151820
-0.048640
-0.009383
0.023233
0.074339
0.045946
0.002319
-0.055355
0.057348
0.189985
0.197361
-0.002991
0.067596
0.014961
0.096240
0.073562
0.016821
0.034516
-0.055424
0.170124
0.212447
-0.076765
-0.029639
0.011883
0.127059
0.034565
-0.026591
0.014203
0.006016
0.043117
0.028591
-0.012278
-0.018131
-0.000019
-0.052483
0.039222
-0.047526
0.034295
-0.037039
0.112649
0.054320
-0.048098
-0.038623
0.051996
0.107663
-0.016471
0.030150
0.104677
-0.094113
0.163651
0.054459
0.071887
0.036164
0.047602
0.099232
0.004518
0.043841
0.067436
0.049640
0.094907
0.091730
0.096810
0.013620
0.017173
0.065233
0.060324
0.074727
-0.031840
-0.084854
0.124966
-0.021152
0.121353
0.008995
0.062016
0.033503
-0.002436
-0.026534
0.039467
-0.040032
-0.037924
-0.211364
0.005379
0.106935
0.009808
0.069840
0.084078
0.203691
0.016684
-0.058809
0.088231
0.099648
-0.015983
-0.041613
-0.005074
0.120107
-0.144202
-0.061672
0.071373
0.039705
-0.093601
-0.166041
-0.118266
0.099092
-0.092449
0.002681
0.075953
0.164450
0.037369
-0.082114
-0.070547
-0.176331
-0.009694
0.182397
0.053256
0.043682
0.071760
0.112964
0.051900
0.054918
-0.138471
-0.110432
-0.140918
0.202241
-0.009340
-0.072924
-0.005262
0.182866
-0.038545
-0.080124
-0.059351
0.007045
-0.020760
-0.045867
0.010052
-0.060970
0.007896
-0.038998
0.053386
0.052765
-0.197626
-0.125065
-0.121688
0.140549
-0.085766
-0.017787
-0.010622
0.261740
0.058615
0.010935
0.080790
-0.020073
-0.087696
-0.007538
-0.098474
0.004406
-0.141336
0.048963
-0.113952
-0.032419
0.000923
-0.092856
-0.041986
0.068013
-0.073551
-0.155489
-0.020009
0.173327
-0.032148
-0.040043
0.139129
0.132024
-0.049535
0.038709
-0.012243
0.010329
0.026457
-0.069742
0.088240
-0.041701
-0.105801
-0.088470
0.114173
0.110544
0.043255
-0.004423
0.099798
0.036572
-0.100861
-0.006425
-0.083003
-0.064814
0.044247
0.102102
0.062711
-0.029554
-0.078771
0.063905
0.005648
0.020638
0.178732
0.161086
-0.092455
-0.025603
0.048999
-0.042797
-0.000952
0.026419
-0.117376
-0.005204
0.237212
0.245877
-0.085421
-0.066134
-0.083646
-0.011174
-0.117543
-0.093089
-0.109222
0.026649
0.079808
0.213678
-0.098611
0.005018
-0.057503
-0.023655
-0.067179
-0.022487
0.016318
0.027981
0.115433
-0.008507
0.016219
0.166541
0.010224
0.125130
0.119391
0.139109
0.011308
0.064166
0.189441
0.198789
-0.025198
-0.001178
-0.045009
-0.061413
-0.100726
-0.019453
-0.016897
-0.073778
0.096523
0.057978
0.123181
0.107264
-0.089148
-0.011995
0.068178
0.086833
0.020559
0.054762
0.203354
0.237525
-0.099166
0.003345
-0.026755
-0.043979
-0.036999
0.045347
0.053476
-0.063527
0.180556
0.049578
-0.015556
0.152006
0.061091
0.135675
0.090133
0.071470
0.091240
-0.085666
-0.134962
-0.118052
0.097924
0.050349
-0.039712
0.141550
0.091635
0.105422
0.024070
0.085510
0.139100
0.221022
-0.086758
0.054388
-0.034631
0.060262
-0.040972
-0.001396
0.073555
0.003796
-0.002073
-0.062675
-0.055871
-0.058242
-0.043693
0.119412
0.094457
0.082317
-0.035162
0.067116
0.091366
0.146844
-0.037487
0.043051
0.016144
0.011680
0.073945
-0.018865
0.018995
0.069109
0.061408
0.068379
-0.055707
0.056549
0.035403
0.084449
0.068652
0.035754
0.101675
-0.033607
0.134300
0.158233
0.059786
0.021889
-0.077361
0.096800
0.030136
0.020221
-0.005010
-0.044384
0.476306
0.500573
0.135627
0.155401
-0.068232
0.017606
0.048184
-0.011828
0.146049
0.067159
-0.134497
-0.110105
0.003653
0.014227
0.049815
0.058447
0.153150
0.073853
-0.063434
-0.007181
-0.049305
-0.108001
-0.016917
0.032820
0.045561
-0.043502
-0.007807
-0.057194
0.022835
-0.025199
0.001074
-0.141147
0.083243
0.009048
0.024541
0.098472
0.012854
0.029260
-0.022010
-0.044944
0.432906
0.453603
-0.065417
-0.035182
0.029529
0.032409
-0.112873
-0.033136
0.015550
-0.050497
-0.082563
-0.106442
0.167864
-0.076319
-0.015000
0.114530
0.053095
0.019983
0.037358
0.031149
0.132759
0.038392
0.051100
0.020960
-0.058580
0.007588
0.059730
0.111812
0.076443
0.047356
-0.012753
-0.032123
0.118697
0.038519
-0.076525
0.144440
0.203495
0.063551
0.097497
0.072399
0.077790
0.127035
0.039630
0.049225
-0.026694
0.074971
-0.014090
0.045500
-0.346495
-0.088481
0.052950
0.069677
-0.260488
-0.213674
-0.034690
-0.325073
-0.254127
-0.341084
-0.033395
-0.042685
-0.088025
-0.008621
-0.046302
-0.068922
-0.002418
0.050501
0.018128
-0.008729
-0.112858
0.016946
0.019226
-0.017650
-0.051477
-0.078134
-0.089601
-0.045853
0.014438
0.034031
-0.078135
0.039096
0.152748
0.111191
-0.086580
-0.015036
-0.040669
-0.095363
-0.035997
-0.025534
-0.069400
0.069502
-0.058593
0.053263
-0.034337
0.005015
0.028975
-0.171734
-0.063010
-0.042045
-0.217382
0.024340
0.208523
0.268804
-0.189247
-0.096614
0.077622
-0.053436
-0.237576
-0.131849
0.145747
0.061648
-0.123398
-0.174987
0.198508
0.255127
0.012623
0.120147
0.250358
0.293969
-0.148513
-0.036628
-0.029266
-0.010907
-0.136591
-0.092900
0.050783
0.048956
-0.115562
-0.150008
0.053419
-0.057993
-0.111964
-0.029603
-0.070764
0.060451
-0.045244
-0.032075
0.037325
-0.028321
-0.114782
-0.045040
0.028262
-0.113536
-0.002882
-0.116415
0.065190
-0.028281
-0.138185
0.032431
-0.027042
0.061231
0.052953
0.176998
-0.040314
0.092045
0.064333
0.057632
0.084102
0.055916
0.019967
0.018748
0.031410
0.034408
0.046069
0.212372
0.013404
0.252295
0.044350
0.147446
-0.021127
-0.024766
0.207528
0.333104
-0.123536
-0.154476
-0.038396
-0.006434
-0.069018
-0.026919
-0.002045
-0.071502
0.263852
0.223552
-0.061460
-0.089170
0.019701
-0.065081
-0.076157
-0.006901
-0.055132
-0.065698
0.198085
0.107724
0.074417
-0.073841
0.049133
0.075009
0.036888
0.006306
-0.075413
-0.027442
0.097463
0.120664
-0.091861
-0.128499
0.071839
0.010819
0.046858
-0.044167
-0.013731
-0.023328
0.073581
-0.004009
0.063157
0.138507
-0.095738
0.000936
0.111657
0.073741
-0.024875
-0.037018
0.043390
0.134921
0.128708
-0.025956
0.022662
0.172694
0.084002
0.034225
-0.070552
0.034561
0.088790
0.098523
-0.003536
-0.043217
0.049182
0.066329
0.050347
0.043731
-0.050591
0.046149
0.200051
0.236752
-0.061617
-0.006266
-0.050792
0.135104
0.059021
0.041555
0.021764
0.050502
-0.058950
0.037552
0.027214
0.008700
-0.039255
0.035213
0.086744
0.088482
-0.104367
0.029621
0.107809
0.037213
-0.116103
-0.074612
-0.050641
0.053198
0.037736
0.034179
0.059989
0.034093
0.121793
0.098326
0.045979
0.045585
0.037113
0.071706
0.030531
-0.017475
0.140828
0.008561
-0.000858
-0.042570
0.165916
0.203990
-0.029686
0.150235
0.133136
0.079272
0.152693
-0.054187
-0.017308
0.036068
0.152473
0.128905
0.029639
0.143030
0.021950
0.067622
0.015613
-0.027226
0.097825
0.029941
0.068579
0.039000
0.041588
-0.043210
-0.035399
0.057897
-0.011564
-0.020351
0.171078
0.070007
-0.079066
-0.000013
0.046391
0.024745
-0.099564
-0.083812
-0.015291
-0.021645
0.080406
0.143254
0.071879
-0.006850
-0.071487
0.010968
0.088179
-0.030661
0.093038
0.017631
0.062547
0.056835
-0.017786
0.052631
-0.018513
0.063421
0.092483
0.075536
0.121742
-0.024202
0.095615
0.083588
0.097298
0.113531
-0.048130
0.124614
0.066153
0.047709
0.083548
-0.043996
-0.184047
-0.202373
-0.062479
0.091127
0.074294
0.008036
0.158143
0.176501
-0.092129
-0.068238
0.125651
0.030160
0.009879
-0.060733
0.016540
0.053622
-0.065693
-0.024922
-0.025957
-0.082922
-0.039516
-0.054040
-0.028573
0.075725
0.026927
-0.083120
-0.002044
0.059399
-0.006410
-0.075064
-0.005636
-0.168956
-0.031661
0.179809
-0.041897
-0.088339
0.142135
0.185835
-0.065674
0.072726
-0.038679
-0.029929
-0.061906
0.105285
0.024668
-0.048185
-0.001951
0.026470
-0.061145
-0.087378
0.068718
0.103460
-0.042104
-0.056078
0.026297
-0.087748
-0.143318
-0.120324
0.014482
0.035483
-0.131604
-0.123301
-0.074715
0.115565
-0.010128
-0.069344
0.008597
0.111781
-0.231915
0.055336
0.431764
0.325841
-0.136324
-0.075599
0.028085
-0.126414
-0.171566
-0.237010
-0.035920
-0.040965
0.002196
0.096495
-0.147560
0.115533
-0.067815
-0.033638
-0.076871
0.142895
-0.084997
0.073166
0.343739
0.223786
-0.235618
-0.045902
0.030559
-0.073951
-0.258971
-0.183237
-0.037275
-0.092146
0.017756
0.010879
-0.011737
0.074590
-0.042212
0.077203
0.046942
-0.041692
-0.049552
-0.024916
-0.045495
0.026330
-0.049516
0.042171
-0.059782
-0.020473
-0.026585
-0.061512
-0.068776
-0.040504
0.231939
0.339821
-0.089244
0.001276
-0.080550
0.047092
0.035864
-0.102819
-0.124667
0.030479
0.394158
0.406757
-0.140065
-0.220813
-0.095876
-0.210633
-0.178868
-0.211962
-0.041535
-0.042957
0.277632
0.235930
-0.007677
-0.071717
0.067628
0.036829
-0.115318
-0.042864
0.154957
-0.019929
-0.155199
-0.099145
0.157312
0.167784
0.075062
0.087384
0.153714
0.118880
-0.001165
0.031511
0.044919
0.070371
-0.105542
0.032097
-0.045169
-0.037704
-0.128182
-0.024154
-0.053609
0.075412
0.165371
0.208734
0.006522
-0.095351
-0.048734
-0.077094
-0.034815
-0.158423
-0.075483
0.003996
0.156003
0.241905
-0.032609
-0.034543
0.042832
-0.077440
-0.062938
-0.086648
-0.065341
-0.008678
0.111548
0.155647
-0.116741
-0.004692
0.001473
-0.081218
-0.020829
-0.092199
0.320588
-0.094066
-0.321542
-0.236331
0.213608
0.274518
0.024124
0.236818
0.358941
0.235148
0.100981
-0.081149
0.276237
0.344716
-0.024973
0.112865
0.041977
0.073603
0.098673
0.092259
0.078967
0.051867
-0.087775
-0.071900
0.022159
0.034519
0.029789
-0.051928
-0.062901
-0.039172
-0.021530
-0.049860
0.080158
0.061194
-0.160301
-0.066762
-0.014030
-0.105147
-0.101686
0.004060
-0.007662
-0.056408
-0.064919
-0.116399
0.061456
-0.086404
-0.079960
0.006870
0.006746
0.019041
0.036441
-0.026809
0.089291
0.084371
0.107388
0.079945
0.058907
0.029399
0.063690
0.060261
0.164920
-0.014640
-0.073246
-0.057004
0.095484
0.115847
-0.056825
0.214884
-0.015268
0.119776
0.175839
-0.060832
-0.067097
-0.156222
0.177019
0.205958
-0.003544
0.149278
0.148732
0.101016
0.155714
-0.059265
-0.161034
-0.251675
0.083772
-0.011618
-0.025514
0.091159
0.198719
0.168701
0.123513
-0.063053
-0.205187
-0.221327
0.240058
0.170948
-0.073319
0.191750
0.253798
0.141237
-0.269618
-0.073253
0.266628
0.351868
-0.158864
-0.104576
-0.073528
-0.185623
-0.276018
-0.133957
-0.078632
-0.065637
0.096905
0.075530
-0.107850
-0.143801
-0.088088
-0.104618
-0.160559
-0.220074
0.067985
-0.102547
-0.003845
-0.098020
0.161218
0.137946
-0.048015
0.090096
0.053150
0.158662
0.177755
0.038043
-0.208276
-0.113951
0.144054
0.186511
-0.020903
0.205938
0.179297
0.188259
0.099028
0.024499
-0.063723
-0.024226
0.091263
0.074599
0.058913
0.057462
0.158087
0.048558
-0.275503
-0.059843
0.069960
0.149064
-0.295100
-0.267510
0.029460
-0.244443
-0.215697
-0.206469
0.122666
-0.064416
0.050474
0.069819
0.143657
-0.014089
-0.064311
0.089038
0.062598
0.072982
-0.141713
-0.021205
0.029272
0.021341
-0.143611
-0.024454
-0.044469
-0.147703
-0.149330
-0.071954
-0.082977
0.038364
0.082882
0.173389
-0.037384
0.040897
-0.019494
-0.054632
0.014837
0.044257
-0.027092
-0.001447
0.102415
0.030127
-0.169152
0.023925
0.039785
-0.073778
-0.141240
-0.099114
0.065729
0.030853
0.001711
-0.130841
0.112697
-0.019622
-0.006443
0.042453
0.026763
-0.038639
0.145139
0.007878
-0.016920
-0.043320
0.149670
0.211006
-0.053717
0.009203
0.126029
0.191392
-0.131607
0.009277
-0.049519
0.091219
-0.208338
-0.162411
-0.067111
0.037211
-0.074315
-0.080538
-0.208627
-0.072201
-0.025522
0.005466
-0.057191
-0.094117
-0.041389
-0.146341
-0.189447
-0.188825
-0.092597
0.065786
0.072411
0.043824
-0.079100
-0.217178
-0.070185
-0.139837
-0.114832
-0.199327
0.017420
0.038493
0.099425
0.056900
-0.057313
-0.032928
0.037334
0.082945
-0.008815
-0.084122
-0.050850
-0.028154
-0.115095
-0.079306
-0.065174
0.005122
-0.082084
0.023012
-0.078637
-0.099595
-0.069458
-0.014402
0.218543
0.297351
-0.189146
-0.284714
-0.059685
-0.068055
-0.165722
-0.161908
-0.112538
-0.082532
0.241438
0.421561
-0.201519
-0.139759
-0.083565
-0.063051
-0.215989
-0.192013
-0.109268
-0.017335
0.273708
0.208638
-0.063035
-0.253884
0.047578
-0.072675
-0.207241
-0.107947
0.118915
-0.015374
-0.039812
-0.050443
0.129726
-0.012958
0.061802
0.236281
0.079952
0.124728
0.060635
0.024808
-0.019239
-0.037209
0.107743
-0.050204
-0.048412
0.057297
0.038326
0.023770
-0.176332
0.033900
0.511951
0.533790
-0.235569
-0.096802
0.041206
-0.270181
-0.197758
-0.264762
0.024785
-0.068439
0.120615
0.120770
0.006489
-0.151109
0.026207
0.105375
0.059000
-0.016758
-0.182831
-0.031507
0.378186
0.416760
-0.142779
-0.195246
-0.044207
-0.247077
-0.195811
-0.251030
0.008123
-0.053412
0.043094
-0.068792
0.069820
0.016813
-0.008554
0.012551
0.018521
0.048387
-0.011593
-0.092259
0.213786
0.213821
-0.032069
0.039664
-0.039458
0.012774
-0.122372
0.025492
0.003048
-0.082623
0.079370
0.060282
0.144254
0.021152
-0.090365
-0.022667
0.056271
0.059758
-0.115580
0.027504
0.212872
0.160452
-0.064072
-0.096822
0.043568
-0.075046
-0.046331
-0.164685
0.048946
0.037474
0.172313
0.096326
-0.078267
0.009948
0.027852
0.002973
0.056005
0.013089
-0.042218
-0.061338
-0.041784
0.040474
-0.036852
-0.000917
-0.028666
0.093719
0.091732
-0.006394
-0.117862
0.022295
0.158000
0.030515
-0.013399
0.052455
-0.034822
0.062329
-0.075249
-0.008268
0.085109
0.015267
0.139985
0.020721
0.029091
0.085622
0.017141
-0.006463
-0.035783
-0.041979
0.118476
0.066944
0.023530
0.087680
0.011003
0.062230
0.001682
0.061221
0.035777
0.068958
-0.001736
-0.004002
0.052135
0.046540
-0.002593
0.019915
0.052575
0.121207
0.013151
0.073294
0.023883
-0.023627
-0.029155
-0.087020
0.033305
0.173482
0.003223
-0.015638
0.108976
0.099122
0.050741
-0.060284
0.067369
-0.039636
0.024233
0.040608
-0.086679
-0.030487
0.039235
0.042620
-0.070811
-0.048241
0.041752
0.098189
-0.145833
0.003412
-0.075100
-0.173954
-0.064545
0.091128
0.048239
-0.076410
-0.061300
0.016220
-0.067819
0.111659
-0.006267
0.011777
0.090317
0.164041
-0.056170
-0.057071
0.028664
0.051270
-0.026020
0.139072
0.017629
-0.082455
-0.063440
0.078424
-0.076095
-0.025085
0.079294
0.150888
-0.002826
-0.058888
0.049357
-0.144168
-0.055139
-0.112321
-0.007451
-0.054607
-0.046408
-0.093375
-0.189650
0.117986
0.003059
-0.090056
-0.124853
0.094101
-0.078361
0.011257
0.439988
0.451448
-0.146709
-0.160076
0.047397
-0.302497
-0.230770
-0.214214
-0.132999
-0.045604
0.160709
0.221541
-0.159334
-0.027370
0.019450
-0.152495
-0.080959
0.010042
-0.106165
0.005189
0.322343
0.425249
-0.095656
-0.084757
-0.041193
-0.257040
-0.317949
-0.166729
-0.014606
-0.067171
0.130687
0.150620
-0.014917
0.025932
0.011186
-0.078494
0.017796
0.035603
-0.035397
0.029513
0.137200
0.160979
-0.122568
-0.029109
-0.026873
0.004571
-0.053545
-0.120401
-0.114316
-0.048872
0.250887
0.321056
-0.028588
-0.083093
-0.059696
-0.048887
-0.059187
-0.079576
-0.143016
-0.018653
0.311426
0.355102
-0.078787
-0.001866
0.029690
-0.134704
-0.080480
-0.028149
0.047228
0.067102
0.239531
0.264212
-0.109034
-0.066541
-0.063143
0.001046
-0.055069
0.027502
0.247058
0.055541
-0.149046
-0.118928
0.237811
0.279919
-0.078907
0.269218
0.331533
0.266027
0.042328
-0.025867
0.163459
0.159178
-0.007444
0.010229
-0.069392
-0.042501
-0.059496
-0.092615
-0.143990
0.003243
0.218464
0.116128
-0.160634
-0.208064
-0.091945
-0.171812
-0.060879
-0.157378
-0.061781
-0.100060
0.231386
0.307111
-0.060218
-0.040337
0.047501
-0.228003
-0.119314
-0.115193
-0.182590
-0.007675
0.161281
0.090055
-0.118938
-0.216249
-0.002212
-0.180278
-0.085518
-0.138700
0.289281
-0.020845
-0.225038
-0.292551
0.336433
0.293538
-0.057180
0.299327
0.377053
0.346888
0.193223
-0.020640
0.137850
0.225346
0.203749
0.175570
-0.009141
0.283949
0.301318
0.241275
0.031429
0.050152
-0.056719
-0.093902
0.038608
0.017727
0.028716
0.095095
0.024138
-0.048872
-0.077763
0.013055
0.159978
0.036494
-0.085006
-0.095218
0.032881
-0.128676
-0.047998
-0.101638
0.065101
0.019868
-0.130807
-0.144283
0.108929
-0.036107
0.047701
0.098414
0.084488
0.018060
-0.099369
-0.094381
0.142998
0.187839
-0.075819
-0.136976
0.015410
-0.165600
-0.189401
-0.099059
-0.094941
-0.047228
0.071546
0.016235
-0.095562
-0.106381
-0.064895
-0.136422
-0.216069
-0.229288
0.382058
-0.065426
-0.341593
-0.448660
0.453300
0.293813
-0.052386
0.346835
0.452160
0.327797
0.181818
-0.048600
-0.256703
-0.300361
0.168463
-0.012539
-0.086725
0.136733
0.071058
0.040262
0.271634
-0.017549
-0.355248
-0.340133
0.383878
0.315289
-0.039187
0.296824
0.340816
0.337125
-0.271679
0.053418
0.252374
0.288737
-0.287122
-0.257352
-0.046829
-0.199259
-0.301610
-0.282878
-0.049223
-0.071594
0.155623
0.239783
-0.044151
-0.122626
-0.050113
-0.075545
-0.042186
-0.006664
0.033187
-0.052546
0.040795
-0.023302
0.020135
0.078830
-0.067273
-0.045598
-0.011584
0.065266
0.243245
-0.066102
-0.122177
-0.195269
0.251316
0.247040
0.058219
0.177126
0.299561
0.196770
0.132213
0.011014
-0.029789
-0.003488
0.104675
0.150037
-0.081081
0.080549
0.006679
0.122606
0.116142
0.008855
0.015280
0.015777
0.154071
0.045399
-0.059291
0.153713
0.116208
0.140974
0.172169
0.023218
-0.218923
-0.272442
0.407974
0.348868
0.051532
0.169961
0.184164
0.289800
-0.232445
0.047870
0.202386
0.270990
-0.330953
-0.262697
-0.015392
-0.150920
-0.330064
-0.232384
-0.070190
-0.079829
0.147713
0.212800
-0.099528
0.034305
-0.073467
-0.088456
-0.083473
0.019413
-0.158067
-0.041285
0.088075
0.120769
-0.064954
-0.126972
-0.055288
-0.039384
-0.145920
-0.164753
0.160069
0.061547
-0.231285
-0.197446
0.148915
0.028335
-0.083445
0.204190
0.077411
0.153702
0.126029
0.039462
-0.009926
-0.039453
0.060910
0.194391
0.035879
0.066435
0.106842
0.077501
-0.192777
-0.057423
-0.045637
0.057648
-0.150175
-0.150804
-0.049251
-0.092558
-0.183441
-0.155989
-0.159235
0.031925
-0.015692
0.053088
-0.177748
-0.084973
0.046933
-0.185203
-0.242542
-0.227741
-0.115058
0.016302
0.021289
-0.042848
-0.274210
-0.255688
-0.017118
-0.244342
-0.281668
-0.228393
-0.016566
-0.056688
0.054774
-0.075349
-0.018424
0.038383
0.037200
-0.013599
0.129598
-0.035616
0.040073
-0.006218
-0.109409
0.048289
-0.062389
-0.207101
-0.013150
0.120231
-0.108695
0.015977
-0.105896
-0.083833
0.353906
0.472353
-0.207888
-0.230972
0.032101
-0.204430
-0.251300
-0.113098
-0.180888
-0.052651
0.256509
0.428513
-0.170128
-0.121718
0.009812
-0.159943
-0.103110
-0.134361
-0.268772
0.069287
0.335962
0.365501
-0.195077
-0.232978
-0.094654
-0.121270
-0.238426
-0.251002
-0.010334
0.023542
-0.082540
-0.018964
0.089128
-0.058922
-0.019234
0.138716
0.111093
0.063545
-0.091289
-0.008833
0.139568
0.167382
-0.003546
-0.190967
-0.054273
-0.018281
0.010067
-0.047343
-0.260202
-0.041279
0.321355
0.342471
-0.225514
-0.198411
-0.010453
-0.180482
-0.216080
-0.209484
-0.060236
-0.037017
0.294426
0.318722
-0.140789
-0.279967
0.055211
-0.100479
-0.062934
-0.182191
-0.097750
-0.018010
0.174228
0.230204
-0.091910
-0.233523
-0.079050
0.000731
-0.165050
-0.081188
0.042921
-0.034020
0.045023
0.049008
0.058775
0.010713
-0.088010
0.019384
0.016763
-0.044012
-0.163655
0.003408
0.198921
0.174401
-0.107525
-0.125011
0.051634
-0.017335
-0.138302
-0.053312
0.107044
-0.054947
0.046486
-0.012138
0.133076
0.157173
-0.046368
0.028523
0.123271
0.072409
-0.149502
-0.017840
0.313525
0.199816
-0.117564
-0.124414
0.046808
-0.239175
-0.076667
-0.069776
-0.104854
0.027631
0.096110
0.128708
0.018078
-0.012402
0.058345
-0.118366
-0.053540
-0.017291
-0.053665
0.046845
-0.008446
0.036346
-0.066656
0.062593
-0.059854
-0.034554
0.060169
-0.023668
-0.021842
-0.064204
0.168868
0.108791
0.037114
-0.016408
-0.013355
0.089484
-0.031925
0.018318
0.084495
0.026954
0.162601
0.131860
0.024239
0.008459
0.017218
0.091725
-0.029872
0.059842
0.072448
-0.026622
-0.003550
0.089580
-0.023571
0.113854
-0.074351
0.003811
0.072728
0.018845
0.050837
-0.013707
0.059190
0.138456
-0.011047
0.063386
-0.000336
0.092929
0.083990
0.044653
-0.023672
0.007667
-0.035582
-0.028355
-0.052075
0.131585
-0.029077
0.009617
0.118471
0.081872
-0.016340
-0.073738
0.056723
0.023805
0.108459
0.023233
-0.015580
0.032235
-0.037106
0.112128
0.063810
-0.007634
0.096475
0.039929
-0.088372
-0.006297
-0.065877
-0.088867
-0.095177
-0.041917
-0.105350
-0.007707
0.108036
0.109063
-0.050537
0.036415
0.045205
0.006525
-0.084802
0.020698
-0.027133
-0.028648
0.152640
0.061692
-0.089322
-0.071895
-0.043926
-0.078815
-0.142510
-0.014590
-0.077730
0.064675
0.216554
0.257324
-0.124065
-0.084865
0.056703
-0.097662
-0.169136
-0.177059
-0.056479
-0.010280
-0.059362
-0.009073
-0.061557
0.130787
0.047436
-0.003060
-0.001003
0.175016
0.004976
-0.029270
0.331049
0.301143
-0.069536
-0.026046
0.032051
-0.330276
-0.236373
-0.103863
0.040149
0.072363
0.206704
0.261044
-0.088968
0.004978
0.044538
-0.270201
-0.151470
-0.140644
-0.076706
-0.076809
0.174659
0.222821
-0.113911
-0.012081
-0.050467
-0.347529
-0.068278
-0.151046
0.141497
0.034236
-0.024314
-0.064785
0.180557
0.245329
0.041753
0.139366
0.217016
0.120349
-0.088196
-0.003324
0.201550
0.106111
-0.063715
-0.172549
-0.048518
-0.070747
-0.175316
-0.136167
-0.011139
0.042067
0.318561
0.314095
-0.092356
-0.172319
-0.045605
-0.202988
-0.166667
-0.070080
-0.068667
-0.029082
0.226854
0.301074
-0.039295
-0.014610
-0.056273
-0.122136
-0.058581
-0.072405
-0.176452
0.040263
0.316325
0.276151
-0.085545
-0.174348
-0.070332
-0.145570
-0.202369
-0.191272
0.047319
0.026760
-0.032713
-0.072102
0.196619
0.209013
0.041367
0.110816
0.058652
0.152332
0.290570
-0.041493
0.031988
-0.129546
0.218789
0.343936
-0.031318
0.166761
0.301594
0.172594
-0.061316
0.024107
0.004589
0.008201
-0.023206
-0.194905
0.026389
-0.088635
-0.054408
-0.022674
-0.181610
-0.031192
0.276769
0.331256
-0.229706
-0.176591
-0.096666
-0.285125
-0.258269
-0.088264
-0.027893
-0.038685
0.002153
0.081770
-0.057834
-0.119428
-0.027844
-0.080974
-0.041998
-0.076520
0.324371
-0.038964
-0.361331
-0.325115
0.331644
0.292181
0.048424
0.291498
0.340906
0.304876
0.016493
-0.044012
0.182582
0.263046
-0.021694
0.092897
-0.040099
0.075888
-0.055036
-0.048740
0.117804
0.079318
-0.241285
-0.200400
0.031041
0.044770
-0.081636
0.129618
0.111272
0.136808
-0.151998
-0.025267
0.060283
-0.015215
-0.088717
-0.152034
-0.091758
-0.130909
-0.136679
-0.022955
0.124044
-0.067843
-0.304791
-0.201041
0.079564
0.038203
0.067003
0.028994
0.183511
0.064714
0.127228
0.044387
0.002859
0.031574
0.021319
0.024377
-0.037554
0.095164
0.011720
0.053625
-0.363763
-0.028391
0.204611
0.371375
-0.468561
-0.421037
-0.001444
-0.428611
-0.358981
-0.452448
0.230257
0.018471
-0.272756
-0.271198
0.373385
0.414844
-0.045232
0.281644
0.396011
0.415435
0.210414
0.026722
-0.368244
-0.342152
0.241208
0.198221
-0.064368
0.297250
0.215877
0.222651
0.220721
-0.070814
-0.282701
-0.224973
0.175320
0.233453
-0.035160
0.260645
0.161715
0.220000
-0.154661
-0.056188
0.157133
0.196435
-0.194407
-0.218705
-0.004984
-0.078961
-0.215176
-0.028828
0.385303
0.042635
-0.320051
-0.401049
0.578752
0.394123
0.012922
0.376870
0.436133
0.514935
-0.064631
-0.059826
0.192153
0.113565
-0.126750
-0.066437
-0.060840
-0.115126
-0.061685
-0.028352
0.223527
0.053382
-0.126093
-0.077336
0.212299
0.238988
-0.091860
0.144098
0.137173
0.118109
0.046934
0.027471
0.099088
0.113265
0.023644
0.088428
-0.003093
0.046141
0.017051
-0.091753
0.138377
-0.055286
-0.290150
-0.296653
0.187717
0.311641
0.044625
0.152608
0.193993
0.234403
0.060317
0.020319
-0.051886
-0.208936
0.160094
0.285192
0.028211
0.146266
0.046937
0.147831
-0.195249
-0.025920
0.276989
0.239586
-0.337535
-0.218303
0.064947
-0.196193
-0.353087
-0.359119
-0.181534
0.010207
0.107634
0.188756
-0.196214
-0.126898
-0.010506
-0.059220
-0.134722
-0.185858
-0.238208
-0.099397
0.166355
0.183137
-0.147259
-0.134411
-0.041490
-0.088066
-0.275635
-0.223997
0.139175
-0.044040
-0.060127
-0.065982
0.190937
0.116838
-0.056883
0.149396
0.209812
0.056778
-0.192928
-0.062730
0.424602
0.324529
-0.209344
-0.185762
-0.025005
-0.082926
-0.159519
-0.143099
-0.314853
0.030350
0.001284
0.095115
-0.282445
-0.173837
-0.006788
-0.394339
-0.367142
-0.367697
-0.147093
-0.099708
0.052453
0.123827
-0.327557
-0.183032
-0.096355
-0.239085
-0.217738
-0.252139
-0.238428
0.075233
0.072466
0.103039
-0.304374
-0.175608
-0.092972
-0.242159
-0.289882
-0.197329
0.002749
-0.065399
0.001791
-0.081978
0.080482
0.036014
-0.061393
0.022869
0.131295
0.162415
-0.006158
-0.044823
-0.015462
-0.051607
-0.080811
-0.038427
0.063152
-0.085782
-0.062349
-0.103438
-0.092457
0.062251
0.256964
0.345672
-0.142915
-0.138915
0.057811
-0.166750
-0.125160
-0.238498
-0.087411
-0.057714
0.078830
0.060837
-0.236606
-0.077325
0.035378
-0.145758
-0.197838
-0.126266
-0.222297
-0.077260
0.154376
0.260679
-0.145366
-0.234983
0.044603
-0.218571
-0.240566
-0.244756
-0.036080
0.024155
0.057398
-0.030013
0.104493
0.039661
-0.079366
0.063652
0.053530
0.032759
-0.153029
-0.064338
0.323284
0.231172
-0.106007
-0.131246
-0.059962
-0.153743
-0.186028
-0.138706
0.114352
-0.078059
0.068422
0.004610
0.057199
-0.026032
-0.009817
0.018637
-0.010950
0.032839
-0.137567
-0.032689
0.166431
0.301756
-0.042557
-0.148532
0.036023
-0.191871
-0.018098
-0.003286
-0.025899
0.016626
0.022763
0.063031
0.035916
-0.198293
-0.018071
-0.114299
0.016998
0.119557
0.085204
-0.063086
-0.053730
-0.013039
-0.038306
-0.032292
0.038721
0.081421
-0.005406
-0.015352
-0.152044
-0.006965
0.161456
0.043886
-0.107269
0.063322
0.046422
-0.051471
-0.047316
-0.101048
0.170937
-0.016743
-0.045278
-0.024485
0.097651
0.056909
-0.038253
0.007851
0.103937
0.180118
0.115873
0.003446
0.032490
-0.000349
0.075264
-0.133768
-0.003789
0.097570
0.079236
0.051820
0.029054
0.043495
0.083220
0.038606
0.025618
-0.034998
0.034467
0.041730
0.039535
0.113978
-0.024592
-0.049626
0.035198
0.059870
-0.034306
-0.024471
0.056522
-0.010265
0.045712
0.021453
-0.088944
-0.028259
0.077775
0.158773
0.021505
0.081509
0.054205
0.087941
-0.153949
-0.062678
0.002609
0.066497
0.098542
0.083573
-0.035145
0.053395
0.037949
0.067267
0.089479
0.022852
-0.034955
-0.090832
0.097278
0.006297
-0.003218
-0.034856
-0.055654
-0.041153
-0.018173
0.005499
0.029439
-0.082145
0.138897
0.091497
0.090831
-0.007940
-0.069969
0.021014
0.020745
0.049794
0.061395
-0.046702
-0.045665
0.024539
-0.006194
0.028458
-0.066897
-0.015782
-0.100500
0.074566
0.023242
-0.062863
0.044182
0.026292
-0.018348
-0.030956
-0.014633
0.024681
-0.093942
0.027242
-0.047043
0.001747
0.144369
0.139547
-0.021728
-0.066110
-0.053084
-0.128658
-0.096111
-0.038664
-0.013172
-0.074692
0.248492
0.242798
-0.152051
-0.005699
-0.027524
-0.068976
-0.027907
-0.109000
-0.023026
0.006253
0.169930
0.254331
-0.008258
0.018018
-0.004303
-0.190146
-0.188084
-0.158785
0.035072
0.010360
0.090520
0.116238
0.095010
0.083528
-0.053200
-0.131107
-0.001196
-0.054268
0.067216
-0.098530
-0.030824
0.009384
-0.008965
0.058320
0.026266
-0.086728
-0.057928
0.019648
0.012459
-0.070411
0.189286
0.130574
0.008177
-0.150666
-0.042776
-0.189065
-0.030686
-0.074873
-0.021984
0.034099
0.164004
0.199056
0.079484
0.025330
-0.022700
-0.093619
-0.127025
-0.036288
-0.030329
-0.078760
0.191994
0.116302
-0.039557
-0.078905
-0.095875
-0.094350
-0.071634
-0.003388
-0.062386
0.025617
0.088966
0.163312
-0.066285
0.010884
0.044019
-0.047277
-0.025349
-0.007116
0.043020
0.051798
0.021123
0.063175
-0.020411
-0.012689
0.025289
-0.075343
0.070562
0.023218
-0.065677
0.013040
0.246933
0.281586
-0.010647
-0.109299
-0.045703
-0.128487
-0.153918
-0.002910
-0.020505
-0.017879
0.155405
0.239636
-0.011245
-0.093271
0.028363
-0.118787
-0.094280
-0.028212
-0.036451
-0.024163
0.185439
0.182938
-0.080255
-0.011528
-0.033231
-0.027541
-0.027550
-0.072298
0.069345
-0.064393
-0.080938
-0.078998
-0.018845
0.012609
0.055542
-0.017740
-0.037312
-0.097412
0.196079
0.042380
0.041138
0.116973
0.226074
0.161626
-0.075040
-0.051937
0.156911
0.193795
-0.129392
-0.046947
0.082619
0.044388
-0.105676
-0.181151
-0.079994
-0.128981
-0.154883
-0.097519
-0.151750
-0.085264
0.137187
0.142565
-0.062306
-0.090828
-0.003376
-0.181122
-0.160646
-0.081594
-0.042293
-0.056611
-0.049897
-0.001910
-0.132308
-0.039371
-0.071430
-0.017485
-0.082662
-0.060296
0.007448
0.039053
-0.088526
-0.059806
0.197869
0.042316
0.048074
0.123181
0.135645
0.050086
-0.137755
-0.041633
0.312643
0.261230
-0.198872
-0.223122
0.036040
-0.167397
-0.243818
-0.210177
0.035396
-0.030213
-0.230704
-0.240984
0.227385
0.108144
-0.062029
0.206280
0.193325
0.193838
-0.087939
0.040389
0.061372
0.001720
-0.156764
-0.085375
0.036225
-0.104620
-0.056969
-0.170872
0.028669
-0.065838
-0.280123
-0.192867
0.134050
0.002582
-0.001937
0.075796
0.161789
0.101183
0.178094
0.001423
-0.055920
-0.183268
0.237073
0.055826
0.055782
0.257065
0.086008
0.122303
-0.127256
-0.057387
-0.151203
-0.151490
-0.061427
-0.279422
0.017964
0.037416
-0.074961
-0.006433
0.151629
-0.012622
-0.080610
-0.067047
0.099185
0.142665
-0.021019
0.138541
0.060157
0.105915
0.243164
-0.078284
-0.251370
-0.211436
0.248519
0.186001
0.022715
0.166262
0.323828
0.283823
0.160623
0.013595
-0.067786
-0.011655
0.117068
0.138660
0.053303
0.159477
0.056374
0.049701
0.148372
0.035094
-0.186633
-0.180842
0.209428
0.224654
-0.006064
0.314895
0.196741
0.242454
0.284381
0.056280
-0.185542
-0.205577
0.183995
0.270240
0.057591
0.168741
0.206295
0.198438
-0.115676
-0.095557
0.287525
0.254400
-0.153210
-0.014698
-0.080967
-0.124780
-0.185293
-0.078893
0.195731
0.043367
-0.134411
-0.085044
0.223805
0.242216
-0.027708
0.153835
0.096320
0.088734
-0.044908
0.040442
0.062330
0.156393
-0.042441
0.028681
-0.079579
0.075409
-0.044030
-0.016640
0.067127
0.000621
-0.277446
-0.383408
0.044015
0.031929
-0.035366
0.066477
0.120501
0.122743
-0.105919
0.044434
0.185765
0.187851
-0.095991
-0.015981
-0.009824
-0.224228
-0.133355
-0.179866
-0.282921
-0.085635
0.171591
0.090488
-0.276020
-0.177655
-0.043018
-0.176221
-0.294398
-0.321187
-0.091173
0.001570
0.251378
0.194089
-0.094192
-0.060138
-0.080247
-0.044115
-0.200158
-0.093091
-0.238206
-0.075205
0.105072
0.137231
-0.238074
-0.140737
0.002177
-0.161040
-0.162990
-0.328439
0.113086
-0.071723
0.034136
0.041312
-0.016810
0.025321
-0.006416
0.025538
-0.016814
0.110847
-0.348352
-0.082115
0.187633
0.140423
-0.356534
-0.267350
0.008639
-0.300108
-0.446650
-0.357697
-0.178796
0.024480
0.227304
0.210096
-0.217507
-0.177673
-0.071482
-0.229652
-0.237734
-0.094274
-0.239537
-0.062131
0.101123
0.099937
-0.248229
-0.235982
0.010282
-0.175750
-0.168688
-0.269549
-0.081401
-0.031330
0.226601
0.188555
-0.162178
-0.135616
0.043031
-0.097841
-0.246332
-0.230260
0.098061
-0.033394
-0.123932
-0.028138
0.062004
0.098353
0.029251
0.060366
0.014089
0.073213
-0.116652
0.046781
0.138750
0.136744
-0.167389
-0.227779
-0.059990
-0.208630
-0.271054
-0.119782
0.009948
0.027010
0.155085
0.116353
-0.027264
-0.063923
-0.095554
-0.032133
-0.043775
-0.018746
-0.099955
-0.003658
0.314123
0.338883
-0.025926
0.020921
-0.091206
0.024415
-0.057791
-0.151525
-0.040317
0.073802
0.114827
0.071397
-0.072389
-0.087553
-0.062262
-0.030373
0.041473
-0.052552
0.193486
0.031612
-0.048399
-0.187335
0.182404
0.020251
-0.014617
0.161860
0.134676
0.148698
-0.092296
0.003055
0.202364
0.143241
-0.113784
-0.057010
-0.018664
0.006885
-0.097462
-0.024035
0.102006
-0.095773
-0.016941
-0.099149
0.143962
-0.004009
-0.064309
0.103695
0.160093
0.061456
-0.024089
0.014100
0.003261
0.082705
-0.009953
-0.073448
0.030223
-0.052410
0.070219
0.087214
0.091035
-0.019459
-0.054878
-0.014620
0.046347
-0.020103
-0.029814
0.093339
0.073197
0.095945
-0.078751
-0.075997
0.071012
0.027110
-0.079931
0.026086
0.053305
-0.066559
-0.078079
-0.100246
0.057090
-0.040698
0.099385
0.003483
-0.023631
0.019032
0.013151
0.080136
-0.021097
0.118123
0.216195
0.018691
-0.022056
0.022704
0.225240
0.051415
0.030936
0.180499
0.232893
0.198295
0.198313
0.022932
-0.088287
-0.149813
0.070487
-0.048301
-0.033701
0.138022
0.187850
0.107897
0.031157
-0.004315
-0.072756
-0.098112
0.157018
-0.013469
-0.015429
0.106151
0.163462
0.159930
-0.060703
0.002370
0.032823
-0.022960
0.068676
-0.089433
0.057862
-0.031329
0.087373
-0.069669
-0.011189
0.035686
0.080982
0.046390
-0.091361
-0.034621
-0.076050
0.107369
-0.149683
0.017730
-0.054550
-0.082808
0.236215
0.238528
0.094542
0.079658
-0.027377
0.046778
-0.046600
-0.038686
0.104729
0.033162
0.168928
0.210120
0.022954
0.060610
-0.027763
-0.006082
0.023762
-0.013832
0.062030
0.033360
0.157486
0.156829
0.073695
0.019158
0.010912
0.026927
-0.026465
0.085258
-0.205831
-0.042870
0.138687
0.234480
-0.169101
-0.057998
-0.012334
-0.152525
-0.167049
-0.190625
-0.109573
0.065055
0.141924
0.015606
-0.052323
-0.052990
-0.061723
-0.011486
-0.026971
0.061560
-0.124985
-0.074056
0.270609
0.241485
-0.106493
-0.122836
0.029694
-0.064545
-0.062544
-0.055977
-0.069189
0.052265
0.143540
0.069458
0.025334
-0.013162
-0.019023
0.079415
-0.024825
0.043106
-0.017393
-0.000513
0.229955
0.224206
-0.050469
-0.061819
-0.045162
-0.019751
-0.054875
-0.083767
0.045874
-0.053933
0.184816
0.239590
-0.049086
-0.079382
0.014296
-0.005595
0.018022
0.013748
0.033482
-0.047595
0.054072
0.115208
0.076934
0.024803
-0.070683
0.009494
0.143037
0.000608
-0.017144
-0.068025
0.241057
0.239966
-0.087073
0.034423
-0.089326
0.044593
0.018499
0.048464
-0.049856
0.043305
0.083071
0.117477
0.101115
-0.003103
0.026200
0.080798
0.084043
0.110729
-0.007466
-0.041491
0.080015
0.223319
-0.053959
0.011530
-0.098184
0.009314
-0.033136
0.061880
0.084848
-0.028205
0.184507
0.095851
0.005407
0.060275
0.046281
0.060944
0.023833
-0.009057
0.096239
-0.005494
0.110762
-0.011086
0.039638
0.089582
-0.014452
0.040924
0.049021
0.079398
0.063646
-0.025180
0.006977
0.096160
0.067304
-0.032216
-0.016653
-0.003252
0.086043
-0.069363
-0.007910
0.056113
0.148652
0.267035
-0.084816
-0.063616
-0.093364
-0.125792
-0.093854
0.011167
0.115944
0.015020
-0.019691
0.070937
0.097210
0.017651
0.036186
0.048767
0.120491
0.104696
-0.129952
-0.056384
0.135795
0.183381
-0.175065
-0.088512
0.013448
-0.077826
-0.116501
-0.102965
-0.105358
0.028339
0.162242
0.054610
0.066679
-0.009112
-0.046811
0.070057
0.007298
-0.047757
-0.007342
-0.023777
-0.038583
-0.018272
-0.037827
-0.136105
0.018660
0.049076
-0.034077
-0.106081
-0.056429
-0.056546
0.089803
0.070009
-0.075997
-0.123994
0.038467
-0.021137
-0.037065
-0.069222
0.058806
0.069293
0.060125
0.058126
-0.059263
-0.112641
-0.072963
0.069952
-0.060346
0.006844
0.041021
0.081444
0.054964
0.137424
0.077478
-0.023849
0.008143
0.068971
0.037864
0.075215
0.104017
0.063460
-0.049180
-0.108010
0.187296
-0.031628
0.063837
0.163502
-0.026723
0.073552
-0.006292
0.078439
0.033125
-0.064924
-0.040138
0.024886
-0.029507
0.060281
-0.009614
-0.023989
-0.132490
-0.041273
0.077595
0.003692
-0.066758
-0.091514
0.003570
-0.079837
-0.123810
-0.082221
-0.035391
-0.022182
0.099574
-0.042293
-0.006119
-0.019205
-0.021037
-0.033032
0.000366
0.001523
0.296182
-0.054106
-0.090425
-0.110657
0.214114
0.250243
-0.071158
0.106593
0.158947
0.131328
-0.047170
-0.052576
-0.302117
-0.265832
0.187429
-0.006076
0.031455
0.171477
0.037350
0.116971
0.100606
0.064923
0.038853
0.092833
0.016328
0.013618
-0.080663
0.017136
-0.059983
0.091779
0.016665
0.068666
-0.056415
-0.071093
0.006806
0.097615
-0.010709
0.039273
0.109639
0.002192
0.016271
-0.010816
0.167093
0.145810
0.091794
0.063907
0.029332
-0.015677
0.026415
0.068871
0.131795
-0.004609
0.167775
0.049015
0.146987
0.140187
0.068114
0.113888
0.207905
0.150071
-0.093279
0.034471
0.234325
0.180070
-0.109102
-0.096553
-0.087629
-0.166030
-0.133005
-0.135989
-0.018537
0.018907
0.163172
0.137295
-0.006265
-0.031252
-0.088561
0.052624
0.063204
-0.030763
0.163909
-0.097342
-0.029651
-0.032770
0.122533
0.155840
-0.006946
0.076250
0.140809
0.026351
0.083075
0.016096
0.139345
0.172313
0.130183
0.096236
-0.088540
0.008517
0.012998
0.099300
0.109860
-0.026577
-0.119539
-0.163759
0.055139
0.035952
-0.060001
0.004166
0.014816
0.098547
-0.207070
-0.022802
0.346087
0.312117
-0.265484
-0.209247
0.043568
-0.102690
-0.251739
-0.274515
0.165431
0.032803
-0.095763
-0.055756
0.076898
0.153466
0.063444
0.133766
0.106202
0.156412
0.074595
0.010467
-0.045478
-0.053077
0.015145
0.055820
0.009793
0.066214
0.125743
0.009252
0.046542
-0.074738
0.026941
0.098762
0.179495
0.167943
-0.014115
0.077974
0.121370
0.076119
0.081579
0.064460
0.085333
0.044909
-0.027661
0.194563
0.035102
0.131092
0.090566
-0.000075
-0.243904
-0.064399
0.003632
0.004952
-0.151032
-0.194393
-0.083670
-0.251843
-0.264937
-0.131464
0.159630
0.018500
0.015738
0.138041
0.126237
0.046243
-0.097970
0.075438
0.147043
0.181941
0.018378
-0.010549
-0.095422
-0.099846
0.152979
0.042328
0.032980
0.060301
0.139397
0.161093
0.103132
0.060118
-0.022185
0.006173
0.081465
0.126662
0.045834
0.025560
0.049568
0.115738
0.073115
0.017840
-0.034183
0.000085
0.033028
0.026075
0.028522
0.062091
-0.015274
0.015215
-0.143043
-0.051915
0.254114
0.380058
-0.196800
-0.074116
-0.075755
-0.060804
-0.054151
-0.141728
0.115224
-0.011617
-0.009557
0.036860
0.108316
0.023708
-0.022310
0.125085
0.129862
0.045485
0.136532
-0.087706
-0.012155
0.101908
0.082803
0.073517
-0.037974
0.181874
0.028951
0.019748
0.020016
0.022365
-0.029246
0.043657
0.132320
-0.001718
-0.022095
0.069261
0.009914
0.154004
0.134252
-0.020979
-0.063709
-0.123138
0.001866
-0.120747
-0.078755
0.131798
0.168928
0.034093
0.013145
-0.019803
0.132640
0.193548
-0.104522
-0.066916
0.022151
0.029928
-0.038267
-0.012389
0.093533
-0.045261
-0.188726
-0.059589
0.176989
0.037180
0.014587
0.077018
0.245610
0.226219
0.158101
0.007630
0.015497
-0.095286
0.067336
0.107430
-0.061780
0.066789
0.156053
0.125567
0.107080
-0.068127
-0.068262
-0.045367
0.103093
0.021666
-0.095709
0.103482
0.100166
0.127219
0.056540
0.019521
0.036965
0.070512
0.004113
0.046489
0.017690
0.056734
-0.051387
-0.028785
0.170514
-0.019376
-0.144027
-0.169881
0.162237
0.058728
-0.042369
0.111220
0.089383
0.216192
0.086409
-0.045977
-0.155437
-0.128888
0.241062
0.086126
0.038747
0.080601
0.201793
0.255853
0.191985
-0.074201
-0.088334
-0.035891
0.142533
0.001932
-0.031004
0.195263
0.185166
0.118689
0.138694
-0.008888
-0.126861
-0.057066
0.109869
0.103034
-0.024785
0.237831
0.187758
0.174230
0.028182
0.039852
0.092382
0.113380
-0.043609
-0.018868
-0.045809
-0.013409
0.007468
0.013749
-0.002069
0.017899
0.078389
0.156981
-0.115948
0.077056
0.002616
-0.028824
-0.146736
-0.025332
0.061750
-0.058131
0.272113
0.170816
-0.053724
0.032521
0.002153
0.037742
0.011948
0.043957
0.023870
-0.004477
0.152555
0.197520
-0.002440
0.015260
-0.014569
-0.044435
0.006230
0.051418
0.088741
-0.090013
0.110293
0.103838
0.087114
0.090008
0.066849
-0.039891
-0.046925
0.041717
-0.078678
-0.064806
0.124435
0.044394
-0.069489
-0.023727
0.071944
0.050235
-0.082110
-0.066095
-0.009466
0.016409
0.141144
0.140937
0.025483
-0.018445
0.020377
-0.015291
-0.067961
-0.104169
0.047537
0.049718
0.002380
0.084348
0.059438
0.120617
0.033282
0.024670
0.012961
0.079244
0.045525
-0.079117
0.088257
0.054825
0.049113
0.021858
-0.083392
-0.010806
0.068079
0.007980
-0.020322
0.022845
0.128016
0.041506
-0.007787
0.079424
-0.038770
0.113873
0.014524
0.029431
0.019177
-0.060449
-0.053899
0.054186
0.075825
0.062564
0.018650
0.055774
0.134739
0.117784
0.159356
0.056612
-0.122044
-0.007180
0.180212
0.167372
0.048268
0.182207
0.135177
0.153784
-0.064598
0.021344
0.110452
0.117794
-0.035004
0.079518
0.041008
0.143364
-0.021980
-0.024838
-0.033361
-0.065666
0.088922
0.040606
0.085785
0.001828
-0.036602
0.015283
0.071571
0.009692
-0.051564
-0.057674
0.079339
0.024304
0.055712
-0.038917
-0.032706
0.086987
0.055591
0.055161
0.009935
-0.016166
0.053767
-0.060630
0.027424
-0.023549
0.035388
0.088963
0.054345
0.034356
0.087701
0.059755
-0.150155
-0.045396
0.186906
0.019208
-0.065924
0.114548
0.115006
0.104197
-0.020495
-0.092289
-0.031381
-0.113967
0.024085
-0.016543
-0.008514
0.065834
-0.024928
0.082846
-0.041630
-0.035532
0.150779
0.143774
0.006145
-0.092778
-0.006505
-0.037791
-0.023444
-0.112914
0.054689
-0.072670
0.032020
-0.063401
0.082254
0.051066
-0.082273
0.045521
0.082959
-0.025434
-0.155174
0.036287
0.076685
0.064273
-0.106466
-0.036394
-0.044192
-0.034958
0.009729
-0.131912
0.265327
0.087460
-0.080412
-0.144868
0.245423
0.211393
0.030168
0.160187
0.196489
0.202016
-0.127464
0.038993
0.049687
0.007507
-0.134016
-0.078381
0.000631
-0.053790
-0.019267
-0.085101
-0.052350
0.026634
0.065800
-0.040490
-0.077371
-0.036187
-0.096143
-0.070294
-0.099956
-0.029291
-0.123177
0.018857
0.126821
0.083541
-0.085980
-0.104465
-0.035547
-0.105503
-0.024248
-0.118333
-0.063878
-0.019061
0.311971
0.302577
-0.139598
-0.159563
-0.005741
-0.141080
-0.244299
-0.236745
0.251244
0.053800
-0.369007
-0.418900
0.276130
0.193210
-0.007139
0.231892
0.328688
0.272726
-0.020269
-0.037669
0.183451
0.167736
-0.062620
0.054975
0.029557
-0.045205
-0.058406
-0.002024
-0.095145
0.029276
0.122876
0.100978
-0.073066
-0.100331
0.069169
0.016401
-0.088790
-0.150752
0.019401
0.011901
0.147691
0.211564
-0.104487
0.021111
-0.018054
-0.136437
-0.025275
-0.021513
0.084595
0.042450
0.120700
0.169793
0.086221
0.031508
0.028628
0.006293
-0.082989
0.082084
-0.019233
-0.044392
0.141664
0.092693
-0.180090
-0.045354
-0.051030
0.003871
-0.184335
-0.263034
0.046773
-0.039070
0.052846
0.056766
0.035544
0.143496
-0.004392
0.097305
0.146817
0.082150
0.043548
-0.063105
0.178399
0.194931
0.050891
-0.031321
0.064067
-0.152631
-0.077982
0.028756
0.010061
0.041719
0.040517
0.086058
0.019796
0.084292
0.018971
0.129798
0.184797
0.123558
0.217328
0.028064
-0.164266
-0.147948
0.325449
0.272832
-0.081957
0.275979
0.290313
0.285181
-0.057230
-0.036025
0.176313
0.307959
-0.145243
-0.000228
-0.031113
-0.165994
-0.153593
-0.070848
0.081930
0.068798
0.059234
0.102707
0.037250
0.135969
-0.081813
0.184099
0.041222
-0.016053
0.059507
-0.005209
0.122066
0.010365
0.120814
0.105220
0.022322
0.016309
0.051410
0.036445
0.083384
-0.067286
0.085086
0.172634
0.156852
0.047556
-0.058827
0.107784
0.089396
0.028833
0.232373
0.074146
-0.144258
-0.180001
0.320336
0.384883
0.042854
0.202413
0.326366
0.342215
-0.183521
-0.072091
0.380434
0.310616
-0.154177
-0.142786
0.043932
-0.028956
-0.068654
-0.155461
0.138958
0.018232
0.033053
0.099347
0.221213
0.175166
-0.007918
0.258539
0.234705
0.247711
0.158117
0.003004
0.104128
0.120626
0.137962
0.159630
-0.070469
0.154943
0.188300
0.052790
0.159192
-0.015686
-0.021886
-0.032847
0.202683
0.145556
-0.073007
0.140722
0.154490
0.136849
0.092900
0.007436
-0.164204
-0.152287
0.258160
0.193706
-0.011655
0.242045
0.238331
0.260299
0.014301
0.066546
0.169610
0.154041
0.061652
0.132432
-0.079126
0.129695
0.007932
0.152635
0.180515
-0.011393
-0.046528
-0.206541
0.203044
0.152654
-0.028692
0.233112
0.202851
0.250442
0.203929
0.064711
0.001612
-0.003069
0.191206
0.116585
-0.045342
0.136868
0.206477
0.082394
0.174786
0.071742
-0.097910
-0.053695
0.172796
0.158660
0.020124
0.176736
0.193581
0.156752
0.071524
0.010163
-0.166376
-0.133740
0.087534
0.030283
0.029527
0.114763
0.104721
0.112093
0.179654
-0.051963
-0.064826
-0.044079
0.081032
0.101255
-0.083490
0.018526
0.035398
0.198810
0.027476
-0.038036
-0.003391
-0.145973
0.169982
0.134854
0.040340
0.039068
0.178656
0.204320
0.216466
0.074871
-0.133418
-0.149923
0.251181
0.174615
0.033247
0.191410
0.262837
0.233884
0.074456
-0.081056
-0.139379
-0.076634
0.172278
0.104679
-0.036536
0.173127
0.140999
0.198013
0.236207
0.018548
-0.185447
-0.205548
0.126303
0.129527
-0.053069
0.200032
0.221843
0.265271
-0.063196
0.027896
-0.050854
-0.069620
-0.040107
0.127988
0.054040
0.016922
-0.008113
0.054518
0.177626
0.046404
-0.183667
-0.189732
0.261874
0.121088
0.057678
0.190806
0.254524
0.161032
0.111000
0.048708
-0.161046
-0.026740
0.189609
0.185464
-0.063656
0.158243
0.079206
0.169373
0.188207
-0.091419
-0.108416
-0.072282
0.224501
0.072352
0.012520
0.085799
0.143981
0.138874
-0.016105
0.056292
0.030250
0.012112
0.005952
-0.027239
0.021437
0.134347
0.108372
0.039097
0.090975
-0.016531
-0.155354
-0.045028
0.090548
0.002114
0.010718
0.170710
0.099562
0.198077
0.030683
-0.093775
-0.024343
0.041126
0.004699
0.136260
0.028230
-0.015256
0.137860
0.101288
0.171297
-0.028353
-0.168023
-0.095370
0.128751
0.035802
0.054552
0.244163
0.215583
0.227773
0.159691
-0.081072
-0.073197
-0.084410
0.158074
0.015966
-0.040756
0.147333
0.214367
0.159301
-0.035667
0.036923
0.091411
0.027122
-0.051945
-0.006179
-0.052248
0.053803
0.006999
-0.026282
-0.022594
-0.003357
0.072883
0.145484
-0.074778
0.068803
0.041469
0.067951
-0.144887
0.068517
-0.023029
0.005158
0.124529
0.091843
-0.036336
0.024729
-0.079314
0.070137
0.049441
0.103819
0.014853
0.052968
0.118112
0.016645
0.042186
0.034597
0.054416
0.104998
0.083397
0.049101
-0.013572
-0.019707
0.111250
0.126105
0.076547
0.021570
0.054441
0.078360
0.015893
0.018286
0.093412
0.058179
0.039520
-0.053758
0.079340
0.099408
0.067803
0.156944
0.013810
0.135675
0.015469
0.042191
0.131085
0.039497
-0.002046
0.134679
-0.001517
0.037526
0.010586
0.003193
0.044915
0.065167
0.066803
-0.020894
0.116674
0.100714
-0.064559
0.132647
0.116604
0.127023
0.064222
0.001228
0.044030
0.043033
0.106189
0.020310
-0.095826
0.004883
0.093156
-0.028677
0.160688
0.040604
0.098098
0.047051
0.010835
0.150463
-0.088663
0.012627
0.013524
0.036195
0.050991
0.012921
0.124142
0.039717
-0.068245
0.043085
0.010674
-0.042482
0.071292
-0.056952
0.068568
-0.051999
0.091848
0.053046
0.060383
0.072494
-0.095769
0.125479
-0.038276
-0.068193
-0.055069
-0.035480
0.234144
0.240876
-0.056635
-0.054071
0.013622
-0.053883
-0.015756
-0.005738
0.061878
0.059879
0.086763
0.104621
0.105717
0.073580
-0.067633
0.029187
0.087311
0.079954
0.013886
0.065633
0.160075
0.062132
-0.072703
0.012437
0.033822
0.054139
-0.106423
-0.096805
-0.088091
0.027412
0.057496
0.105410
0.041010
-0.097414
-0.056769
-0.027111
-0.122849
-0.031703
0.048571
0.045472
-0.140120
-0.119522
0.001587
-0.019990
0.051096
0.049141
-0.052789
0.020780
-0.004297
-0.016479
0.028889
-0.043534
-0.096955
-0.054172
0.004844
-0.007149
-0.021888
-0.029209
0.045423
-0.095519
0.075661
0.080978
0.062775
0.089929
-0.011127
-0.001369
0.065216
-0.022280
0.062752
-0.085343
-0.013210
-0.098933
0.007708
-0.059709
0.004998
0.103139
-0.015961
0.005617
-0.137487
-0.064581
0.045216
0.113571
-0.111887
-0.127693
-0.072498
-0.058465
-0.070692
-0.145799
-0.013723
-0.070313
0.186202
0.233528
-0.079933
-0.197012
0.008616
-0.095293
-0.148936
-0.057750
0.022526
-0.004784
-0.057956
0.005199
-0.012658
-0.024385
-0.081419
-0.043061
-0.024824
-0.072595
-0.031866
-0.077754
-0.125981
-0.109245
-0.078379
0.061989
-0.010014
0.079151
0.004893
0.024640
-0.035587
-0.021428
-0.011486
-0.001529
0.023510
-0.073511
-0.016867
-0.007121
0.000496
0.009363
-0.118930
-0.018160
0.273912
0.187820
-0.024223
-0.094865
-0.058687
-0.119022
-0.061776
-0.142282
-0.127173
-0.076305
0.057244
0.034075
0.021836
-0.007093
-0.035411
-0.072138
-0.042321
-0.080772
-0.063774
-0.073605
0.166564
0.183522
0.022643
-0.007473
0.034467
-0.105811
-0.029174
0.050492
-0.141217
-0.027616
0.030387
-0.041022
-0.174570
-0.006502
-0.026836
-0.098035
-0.129129
-0.189750
-0.041690
-0.011584
0.014287
0.155780
-0.071510
0.024108
-0.038411
-0.063815
0.032767
0.043678
0.039940
-0.057090
0.187714
0.032966
0.121495
0.150422
-0.021460
0.041193
0.041871
0.048466
0.024479
0.083219
0.086225
0.179074
0.022445
0.120992
0.067313
-0.038954
0.036137
0.110221
0.109855
-0.069942
0.017060
-0.022269
0.167024
0.158890
0.007841
0.012456
0.044235
0.178832
0.060498
-0.015150
0.148839
0.030582
0.073097
0.032649
0.000355
-0.076964
0.117578
0.027012
-0.037635
0.054991
0.174229
0.168011
-0.040215
-0.027622
0.037312
0.064366
0.096662
0.083287
-0.037573
-0.083645
0.134599
0.163400
0.154494
0.017084
-0.047878
0.083777
0.027677
0.026587
0.120186
0.071280
0.019547
0.037697
0.082140
0.100883
0.048272
0.033809
0.038686
0.188047
0.077661
-0.081113
0.128432
0.110018
0.007980
-0.022423
-0.030452
0.147624
0.092725
0.046920
0.072775
0.070548
-0.018757
0.021127
0.102327
0.071027
0.034203
0.130368
0.019913
0.099755
0.164221
-0.071026
0.056202
0.056661
0.034928
0.088408
-0.050184
0.122401
0.173161
0.031279
0.047327
-0.033451
-0.087892
-0.062764
0.233379
0.177616
-0.011776
0.230841
0.089386
0.160351
-0.098371
-0.055158
0.145943
0.222800
0.064787
-0.022398
0.012093
0.096270
0.013940
-0.042935
0.107041
-0.029531
0.058596
0.060602
0.154849
0.097651
0.062673
0.171946
0.173640
0.160496
-0.009480
0.031372
0.144917
0.113217
0.104217
-0.002289
-0.080331
0.113488
0.030557
0.038878
0.170846
-0.019140
0.047600
-0.049214
0.039793
0.029473
-0.028574
0.043655
0.190262
0.077193
0.221191
0.042067
-0.031797
-0.177082
0.221566
-0.036962
0.047620
0.125137
0.101827
0.208474
0.111197
-0.060028
0.098189
-0.037914
0.116434
0.223877
0.001308
0.050152
0.149784
0.169673
0.279436
-0.001042
-0.170305
-0.146758
0.212380
0.145223
0.045388
0.208739
0.269127
0.150414
0.192374
-0.007508
0.043412
-0.049254
0.181392
-0.008604
0.006432
0.116630
0.147303
0.027335
0.205534
-0.003423
-0.134762
-0.046253
0.196211
0.109124
-0.028497
0.182582
0.113635
0.205977
0.112974
-0.026999
-0.061959
-0.030420
-0.002322
0.006711
-0.077384
0.069923
0.101691
0.087657
0.126187
-0.017243
-0.100055
-0.094095
0.201878
0.075591
0.001015
0.280196
0.114295
0.126908
0.033025
0.020048
0.087407
-0.009413
-0.036578
0.006723
-0.041638
0.045965
-0.018208
-0.074548
0.140673
-0.045796
-0.122769
-0.113974
0.242617
0.026451
0.048790
0.201950
0.156051
0.160612
0.214624
0.026949
-0.017983
-0.158376
0.260684
0.054015
0.060375
0.259349
0.135980
0.140551
0.002576
-0.008482
-0.006470
-0.038565
0.053996
-0.079766
0.005777
-0.042481
0.040176
0.049198
-0.072813
0.053374
0.164069
0.048857
-0.056523
-0.005597
0.057356
0.089352
-0.119580
-0.015635
-0.004176
0.015123
0.055183
0.049498
0.072153
0.088735
0.063799
-0.035219
-0.013698
0.084954
-0.009485
-0.003253
0.191722
0.134076
-0.145987
-0.041951
-0.093454
-0.050890
-0.000846
-0.043205
-0.062325
0.003232
0.041071
0.134580
0.033138
-0.052470
0.051762
0.014787
0.046348
0.025934
0.076039
0.029754
-0.078295
0.013936
-0.012667
0.021059
0.077420
0.088131
0.056612
-0.006538
0.076074
-0.087156
0.081869
0.069180
0.038109
-0.048289
-0.056531
0.129373
-0.095072
0.023720
-0.027353
-0.005461
0.068028
0.011189
0.129031
-0.011043
0.056295
0.016305
0.031999
0.088512
0.106291
0.027810
-0.001431
0.002616
0.078315
0.101969
-0.007310
0.025177
0.028660
-0.022856
-0.004500
-0.008609
-0.013571
0.082731
0.009745
0.053234
-0.013016
0.098451
0.099724
0.022571
-0.028180
0.045603
-0.053208
0.090488
0.002321
-0.057723
-0.041613
-0.026503
0.102402
-0.042173
0.047688
-0.032332
0.084429
0.159669
0.006666
0.059839
-0.098057
0.118431
-0.108770
0.007912
0.080553
0.042427
-0.017298
-0.027382
0.110691
0.040437
0.017680
0.099443
-0.030901
0.072783
0.046189
0.001067
0.121964
-0.016147
0.060574
0.080776
-0.025704
0.030051
0.091827
0.059666
-0.014925
-0.023326
0.034150
-0.030600
0.125987
0.090255
-0.050721
0.040053
0.035166
0.062898
-0.056954
0.052286
0.059171
0.091205
-0.026944
0.013080
0.067600
-0.083823
-0.072123
-0.043620
-0.025431
0.035941
0.108596
0.039388
0.028878
0.008811
0.018768
0.082847
-0.108543
-0.077470
0.045874
0.056911
0.104920
0.121016
-0.036286
-0.028539
0.061289
-0.035979
-0.063247
-0.040556
0.098276
0.055879
0.045176
0.062154
0.083252
-0.034797
0.049438
0.014558
0.002194
-0.019407
0.064414
-0.079248
0.140580
0.014950
0.005266
-0.075645
-0.031418
0.009231
-0.027287
-0.010556
0.126717
-0.084770
-0.072984
0.052848
0.058699
0.047162
-0.051885
0.079263
0.011560
0.093725
-0.086136
-0.013024
0.179609
0.076891
0.014947
0.050407
-0.031054
-0.004033
0.000694
0.005772
0.090465
0.010554
0.091548
0.067407
0.133841
0.157398
-0.061238
0.045029
0.033299
0.158070
0.076235
-0.078982
0.152862
0.143016
-0.050207
0.031023
-0.059673
0.022447
0.070534
0.086399
0.057659
-0.053593
0.119002
0.122840
-0.037749
-0.019228
-0.009117
0.040387
0.094062
0.056436
0.041728
0.063017
-0.145730
-0.185555
0.087236
0.164908
0.046611
0.037115
0.139335
0.091568
-0.010756
0.056105
0.099597
-0.044093
0.069292
0.008708
-0.008114
0.142970
0.044025
0.089695
0.129188
-0.095471
-0.003654
-0.149076
0.185692
0.181486
-0.015329
0.061945
0.050727
0.112685
0.246194
-0.091457
-0.068400
-0.083434
0.212663
0.082169
0.048113
0.148381
0.108521
0.251069
0.183931
0.011485
0.022315
-0.021919
0.165368
0.175302
-0.016939
0.145876
0.188483
0.159129
-0.029183
-0.011155
-0.260110
-0.270689
0.005220
0.021716
0.043589
0.135175
0.012497
0.131017
0.070310
-0.040354
-0.038181
-0.071780
0.026485
0.216650
-0.078352
0.137849
0.085896
0.029148
0.083243
-0.036244
-0.235203
-0.223999
0.086378
0.001851
0.043446
0.026744
0.075442
0.044328
0.240421
-0.095993
-0.168403
-0.294534
0.187345
0.164577
-0.045032
0.241279
0.292964
0.215698
0.026436
-0.081025
-0.073964
-0.028731
0.091222
-0.000744
-0.025598
0.076526
0.036847
-0.055478
-0.069611
0.020519
0.019476
-0.038453
-0.093007
0.073406
0.000138
0.004014
0.015021
0.007047
0.086570
-0.100597
-0.262646
-0.303185
0.096511
0.189027
-0.021388
-0.023108
0.038041
0.054212
0.133031
0.031714
-0.057251
0.050750
0.002926
0.151875
-0.031829
0.048208
0.013639
0.161581
0.108914
-0.054104
-0.120978
-0.288903
0.004253
0.133824
-0.057426
0.035998
0.095352
0.046235
0.126900
-0.052338
-0.125715
-0.203057
0.043206
0.094084
-0.083138
0.028336
0.113698
0.134601
0.081795
-0.029796
0.039991
0.036896
0.059618
0.113528
-0.026369
-0.067109
-0.059320
0.089889
0.079367
0.021930
-0.021065
0.002558
0.070579
0.035350
-0.029195
-0.120186
0.025646
0.146859
0.192496
-0.008622
-0.017568
-0.030647
0.063494
0.023416
0.053773
-0.027536
0.028535
0.154551
0.002493
-0.059902
-0.004998
-0.004284
-0.061401
0.086440
0.008374
-0.077521
0.083600
0.118303
0.004078
-0.022848
-0.007810
-0.006891
-0.007374
0.003913
-0.047909
0.103703
0.006647
0.088204
0.091945
-0.047142
0.038175
-0.031929
0.078189
0.084548
0.075773
0.166177
0.162448
0.020885
0.111230
-0.066249
0.159403
0.082837
-0.004397
0.032423
-0.074971
0.086018
0.028058
0.058859
0.099713
0.064245
0.036466
0.044730
0.093842
0.151517
-0.039947
0.109868
0.213269
0.137960
0.032567
-0.014360
0.007468
0.017701
0.127274
0.058155
0.068177
0.153073
0.129739
0.028143
0.124446
0.071147
0.068799
0.118161
-0.011635
0.105532
-0.051541
0.085008
0.030309
-0.060131
0.124717
0.021723
0.043173
-0.003768
0.137796
0.077671
0.060088
0.086254
0.078614
-0.015994
0.062931
-0.081847
0.018680
-0.008093
0.116645
0.100857
0.031178
0.173158
0.053722
0.143845
0.013655
-0.040058
0.098467
0.079408
0.086503
0.097303
-0.046186
0.068653
0.030232
0.102678
0.046069
0.003763
-0.029016
-0.026510
0.150466
0.197290
0.032566
0.036298
0.126170
0.054882
0.076898
0.049965
-0.021466
-0.061708
0.139894
0.035816
0.068626
0.100748
0.071465
0.125750
-0.048651
-0.071372
0.037835
0.041234
-0.040627
0.056675
-0.059200
0.068136
-0.023656
0.016607
-0.017773
0.019710
0.062434
0.058691
0.050212
0.149285
0.041188
0.019368
0.082536
0.122523
0.164756
0.065319
-0.074811
-0.095817
0.219519
0.079071
-0.096274
0.192533
0.111985
0.081429
0.065820
0.017034
0.120057
0.144983
0.105426
0.137122
-0.083957
-0.032095
-0.093436
-0.017483
0.071757
0.019143
0.107035
0.042557
-0.009463
0.013409
-0.097800
-0.032150
-0.025862
0.103853
0.008916
-0.019860
0.033819
-0.011600
-0.061411
0.038113
0.070725
0.060817
0.062511
0.007953
-0.024091
0.026286
0.051524
0.098719
-0.034972
0.093607
-0.047605
0.077063
0.031797
0.086165
0.072343
-0.004196
-0.023073
-0.068360
0.135392
0.168284
-0.038850
0.127002
0.092145
0.093907
0.164172
-0.020980
-0.121449
-0.117549
0.112391
0.151158
-0.013270
0.115329
0.064758
0.086022
0.161667
-0.088899
-0.114337
-0.009117
0.116891
0.183740
0.022358
0.098249
0.050566
0.035966
-0.076364
0.035284
-0.047186
0.020145
-0.026342
-0.071572
-0.080547
0.063197
0.034379
0.003945
0.055438
-0.071524
0.028604
0.007773
0.031506
0.043079
0.061557
0.138909
0.020592
0.001318
-0.021826
0.066727
0.012340
-0.006770
0.078986
0.111909
-0.064279
0.007141
-0.019295
0.039348
0.025515
-0.064341
-0.059152
-0.057888
-0.009745
0.037066
-0.026439
0.084834
0.082897
0.031786
0.061563
-0.087191
0.095430
0.078225
0.015972
-0.038459
-0.066585
-0.035710
-0.029292
-0.015797
-0.015853
0.035644
0.000289
-0.051018
0.028417
0.048562
-0.074549
-0.059462
0.051182
-0.010380
-0.097618
-0.080453
0.126499
0.165761
-0.000727
0.007761
-0.094011
0.118564
-0.002298
-0.075568
-0.046433
-0.084226
0.044462
-0.034420
0.006229
0.093961
0.048239
0.014856
0.099466
0.006811
0.091082
0.057059
0.064626
0.073412
0.066937
0.015590
-0.033976
0.109566
0.098741
0.049184
0.053311
0.043809
-0.033107
0.092698
-0.004871
-0.013883
0.001774
0.102792
0.077369
0.120861
