0.001890
0.105888
0.033313
-0.074809
0.062801
-0.004483
0.074211
0.004262
-0.085124
0.006037
-0.040660
-0.020863
0.104910
0.036210
0.025337
0.004751
-0.017444
-0.025600
-0.084716
0.035953
-0.057350
0.130542
0.042925
0.010134
0.105988
0.017989
-0.018111
0.072915
0.054404
0.084784
-0.064237
0.068854
0.006739
0.018597
0.103769
-0.037994
0.088118
-0.015449
-0.075382
-0.028923
-0.024077
0.077166
-0.029192
-0.046826
-0.025197
0.035734
-0.022180
0.040330
0.078428
-0.028759
0.026816
0.005929
0.067686
-0.063195
-0.001831
-0.001977
0.024696
0.012901
0.012474
0.011589
0.072880
0.080836
-0.009685
0.000840
0.052706
-0.040365
0.033581
0.086099
0.056119
0.050300
0.013036
0.088695
0.003654
-0.079231
0.044498
0.029494
0.013750
-0.042682
-0.080777
0.031467
-0.018178
0.046158
0.013223
-0.083297
0.086566
-0.029797
0.082762
-0.057622
0.030957
-0.046131
0.069794
0.029400
0.022032
0.060488
-0.016042
-0.022283
0.071579
0.037913
-0.003224
0.120845
-0.011599
-0.000984
0.039065
-0.053460
0.038121
0.067886
0.080401
-0.015947
0.035704
0.061125
0.077161
0.027316
-0.009398
0.007573
0.091709
-0.001133
-0.035505
0.084172
0.055110
-0.028035
0.021522
0.097776
0.080198
0.038256
-0.025129
-0.010576
0.105013
-0.057589
-0.083663
0.108925
0.010429
-0.028458
0.039799
0.042224
0.064540
-0.065358
-0.019107
-0.071162
-0.069879
0.056620
-0.066613
0.046308
-0.027242
-0.039883
0.063456
0.021089
0.108629
-0.064646
-0.009549
-0.000498
-0.077814
0.100782
-0.004701
0.004619
0.007069
-0.025706
0.102052
-0.082094
0.037493
0.026094
0.058980
0.102236
0.009160
-0.073043
-0.007284
0.067977
-0.040625
-0.004135
-0.014564
0.071320
0.075020
-0.004169
0.066761
-0.062447
0.103805
0.064617
0.058903
-0.049520
0.025001
0.001750
-0.070286
0.104587
0.105264
-0.011836
0.069857
-0.051927
0.083375
0.023083
-0.064612
0.088016
0.022182
0.071343
0.060715
0.062816
0.058542
-0.001748
0.122557
0.077270
-0.015612
0.108112
0.069405
0.110838
0.093801
-0.086406
0.118212
0.056127
0.111885
-0.046729
0.027243
0.097372
-0.050121
0.034153
0.060338
0.001701
-0.014451
0.024180
-0.005119
-0.006969
-0.073541
-0.040465
-0.064541
0.126709
0.112980
0.028898
0.116306
0.035285
0.082456
0.034593
-0.017895
0.056811
-0.070321
0.050546
0.014924
0.042210
0.034845
0.037056
0.059063
0.080472
-0.014703
0.112869
-0.032488
0.107794
0.077302
-0.006678
0.107078
-0.003118
0.113583
-0.073147
-0.060376
0.022569
-0.076783
0.048230
0.054583
-0.000879
0.144889
-0.074214
0.127612
-0.070321
-0.086722
0.063028
0.064148
0.000657
0.027697
-0.081742
-0.030153
0.083036
0.103954
0.036731
-0.035678
0.013582
-0.027370
0.060489
0.067967
-0.036064
0.033953
0.041689
0.093043
-0.011323
-0.020901
-0.006456
0.012040
0.016977
0.024689
-0.066353
0.008176
0.014812
0.033868
-0.006839
-0.049650
0.053883
-0.074374
-0.011504
0.067591
-0.097104
0.101790
0.046695
0.072843
-0.005387
-0.030710
0.110345
-0.012391
0.125463
-0.014789
-0.089656
0.136415
0.045661
0.099019
-0.063513
0.000133
0.132659
-0.024662
0.064155
0.076140
0.033037
0.120584
-0.027403
0.014891
-0.106293
-0.087633
0.077932
-0.061207
0.163712
0.077752
-0.003370
0.136066
0.026295
0.109820
-0.094620
-0.022861
-0.009825
-0.132612
0.181891
0.018916
-0.027676
0.157578
-0.001755
0.132068
-0.118862
0.058778
0.045432
-0.070363
0.027584
0.014271
-0.028569
0.026700
-0.033227
-0.007010
0.025714
-0.076489
0.127416
-0.103835
0.063336
-0.012765
0.005187
0.030500
0.038698
0.085423
-0.027538
0.073711
0.029801
0.008759
0.170124
0.091491
-0.135655
0.087433
-0.101814
0.131061
-0.046715
0.032384
0.116627
-0.023249
0.051487
0.119692
-0.034473
0.030258
0.021050
0.065910
-0.050647
-0.007982
0.085455
-0.037394
0.049338
0.003418
-0.094034
0.056447
-0.090941
0.014228
-0.077252
0.022519
0.041102
-0.010199
0.082907
0.070836
-0.008799
0.103869
0.008300
0.094827
-0.044137
-0.058278
-0.016597
-0.009619
0.004447
0.065438
-0.071568
0.098316
0.019300
0.108385
0.017298
0.036931
0.002336
-0.026040
0.036496
0.020676
0.099250
-0.032751
-0.044851
-0.077267
0.005314
-0.022623
0.032199
0.103262
0.068349
-0.048657
0.102439
-0.033337
0.104709
0.027612
-0.033829
0.060056
-0.078027
-0.067051
-0.038232
-0.018733
-0.066490
-0.008394
-0.031351
-0.033946
-0.009560
0.066888
-0.061421
0.037081
0.103505
0.013277
-0.009751
0.069582
0.048143
-0.062209
-0.051605
-0.079644
0.063748
-0.040844
-0.024133
0.082381
0.075844
0.067888
-0.042446
-0.055415
-0.039162
-0.059286
0.046426
-0.032124
0.039181
-0.017440
-0.026206
-0.074632
0.057801
-0.085995
0.041549
0.014618
-0.014374
-0.047655
0.013241
0.068167
0.049686
0.027612
0.062957
0.042096
0.055920
-0.077139
0.079960
-0.014057
-0.051956
-0.084666
0.125494
0.014722
0.073357
0.055055
0.057223
0.069455
0.050161
-0.029427
0.028243
-0.090879
0.086578
-0.001626
0.040787
-0.082220
-0.003724
-0.027076
0.036695
0.034910
0.144663
0.034011
-0.079597
0.121041
0.054297
0.090390
0.014113
0.077517
-0.033205
0.030154
0.069851
0.046862
-0.045786
0.088052
0.046312
0.085498
0.027865
0.052424
0.077026
-0.045597
-0.019260
0.073007
0.036201
0.041325
0.005035
0.117431
0.037960
0.010288
0.105332
-0.057396
0.101678
-0.075213
0.050717
-0.053612
0.074655
0.053691
-0.048979
-0.083888
0.032890
0.034332
-0.018952
0.077001
0.060087
0.088621
-0.009604
-0.039943
-0.077681
-0.035926
-0.008831
-0.013577
-0.010669
0.136241
0.006822
0.053748
-0.076328
0.095697
-0.018900
-0.087247
0.111405
0.068575
0.039948
0.109619
-0.016001
0.042980
-0.069495
0.035657
-0.028151
-0.004890
-0.037496
0.050150
0.134412
0.123735
0.044376
0.078676
-0.076834
0.096991
0.057215
0.001376
0.056448
0.034892
0.044584
-0.001206
0.011765
0.000942
-0.049316
0.048626
-0.022073
-0.012077
-0.009842
0.038765
0.105844
-0.036959
-0.017338
0.005586
0.035689
-0.012378
0.011758
-0.018422
0.078360
0.024085
-0.011083
0.097162
0.006328
0.096305
0.026817
0.059148
-0.062869
0.035011
0.046453
-0.009398
0.041616
-0.040486
-0.071751
-0.012388
-0.020382
0.102462
-0.001613
-0.024993
-0.019067
-0.041816
0.081810
0.111932
0.039925
0.034936
0.034912
0.081522
-0.050029
-0.062309
-0.008538
0.064867
0.114155
0.057185
-0.003232
0.104129
0.052344
0.091411
0.059567
-0.060695
-0.043551
0.059924
0.123234
0.083327
0.054602
0.056578
0.016278
0.020032
-0.031850
-0.033329
-0.006993
-0.073565
0.016691
-0.019160
0.051855
0.021061
0.005998
0.111042
0.069821
-0.078552
0.070653
-0.044100
0.021873
0.033796
-0.056112
0.049479
-0.035181
0.062750
-0.056815
0.061804
-0.013057
0.041751
0.003254
-0.025697
0.034159
0.106139
-0.001403
0.061593
0.081015
-0.037377
0.071432
0.005213
0.039735
0.043937
-0.017832
0.035345
0.022196
0.025030
0.032739
-0.068893
0.045303
-0.046463
0.031668
0.115924
-0.077332
0.032710
0.045874
-0.028686
-0.071926
0.033204
0.108856
-0.015030
0.083858
0.072822
0.011831
0.139175
-0.064991
-0.022349
0.052349
0.036815
0.131628
0.067472
-0.017784
0.064518
-0.079974
0.051633
-0.015880
0.096471
-0.034425
-0.019931
0.007185
-0.071434
0.072297
0.075057
-0.072821
0.112183
0.068878
0.033320
-0.005040
-0.058936
-0.030905
-0.075098
0.039347
0.054751
-0.086616
0.106635
-0.047413
0.106242
-0.066213
0.032493
0.095211
-0.004729
0.058610
0.034593
-0.033691
0.039652
-0.046401
0.030691
0.020430
0.011991
0.011718
0.084762
-0.011249
-0.012072
0.040161
0.143925
0.025151
0.100203
0.066269
-0.034895
-0.017296
-0.071691
0.041818
0.055563
-0.068566
0.091084
-0.060664
0.059199
-0.010540
-0.024357
0.069913
0.024493
0.086421
0.109343
-0.060787
0.112901
0.040365
0.030994
0.021168
-0.050462
-0.011925
-0.007970
0.000424
0.081083
0.029896
0.023889
0.010679
0.119590
-0.027385
-0.049919
-0.005037
0.009561
0.075560
0.041541
-0.003785
-0.052523
0.058531
-0.038874
-0.007711
-0.012259
0.023388
-0.079674
0.008890
0.108724
-0.027396
-0.013011
0.007026
-0.014464
-0.027987
0.058360
0.097209
0.054521
0.016090
0.032692
-0.036500
0.048318
0.019979
0.041570
-0.078265
0.040915
-0.011299
0.076321
0.040401
-0.019913
0.028408
0.021388
-0.024806
-0.004496
-0.063138
-0.072324
0.098175
0.042789
0.017478
0.032048
0.003467
-0.033665
-0.042596
-0.063918
-0.042903
-0.065831
-0.042076
0.005967
0.044729
0.050234
-0.066888
-0.011238
0.083644
0.029953
-0.007345
0.040897
0.019357
-0.007960
0.013465
0.088469
-0.030262
0.046586
-0.086931
0.061860
-0.000045
-0.010759
0.051749
-0.092225
0.121653
0.009199
-0.001411
-0.001096
0.035955
0.025649
-0.060551
-0.060176
-0.049301
-0.030590
-0.000631
-0.006562
-0.047540
0.062648
0.044035
0.104910
0.002635
0.037207
-0.001170
0.066610
-0.019398
0.114274
0.033449
-0.007075
0.046101
-0.007715
-0.077900
-0.064043
0.143996
0.041854
0.084723
0.017171
0.011000
0.037725
0.037843
-0.045054
0.063525
-0.054282
0.032700
0.000958
0.007555
0.110255
0.061035
0.097330
0.005026
0.019806
-0.065976
0.059559
0.077054
-0.020334
0.006881
-0.013289
-0.032968
0.030490
0.047750
0.033418
-0.003851
-0.052771
0.081575
-0.025909
0.017298
0.021640
-0.042682
0.064612
0.010947
-0.000053
-0.037406
0.038378
-0.017320
0.047211
0.110171
0.085384
0.037147
0.057946
-0.066442
-0.052107
0.024168
0.006251
0.066085
0.031550
0.118867
0.003113
0.036398
-0.017765
0.066299
-0.015085
0.036252
0.029314
-0.040508
-0.133161
0.223220
0.039962
-0.052843
0.183198
-0.132511
0.145598
-0.035592
0.044461
0.206001
0.156606
-0.026758
-0.005945
0.073603
0.022531
0.030155
0.049758
0.018623
0.014477
-0.125243
-0.028513
0.016039
0.011443
0.081507
-0.001975
0.037886
0.066063
-0.004867
-0.040086
-0.034365
0.006330
-0.018439
0.017731
0.012059
0.084641
-0.050186
0.049273
0.080050
0.016518
0.059875
0.004979
0.035568
0.055656
0.000645
-0.063001
0.023434
0.046321
0.101753
0.064228
0.053703
0.048825
0.070821
-0.006429
0.053116
-0.078891
0.005697
-0.060447
0.121648
-0.032292
-0.079204
0.133361
0.006333
-0.070822
-0.041815
-0.008823
-0.006389
0.036361
0.012652
-0.046924
-0.042813
0.002721
-0.082140
-0.021451
-0.022118
0.023942
0.014594
-0.042522
0.106724
0.003822
-0.079135
0.085362
0.038831
-0.063648
0.078991
-0.044276
0.101796
0.061614
0.093943
-0.002692
-0.061131
-0.022280
0.033133
0.051894
0.048245
-0.065716
0.102440
0.049503
0.094309
0.045075
0.006787
0.104318
0.011085
0.089123
0.025850
0.097395
-0.060629
0.090141
0.007694
-0.002290
-0.061166
0.104237
-0.000135
0.038078
0.062501
-0.073578
0.089577
-0.103800
-0.038794
-0.001731
0.066153
-0.023729
0.045339
0.066621
0.082343
0.094231
0.000678
0.044860
0.034584
-0.086396
-0.005120
-0.000152
0.032496
-0.053426
0.076244
0.100181
-0.001310
-0.012317
0.019926
-0.003169
0.100346
-0.039488
-0.025194
-0.016918
0.059883
0.043675
-0.034640
-0.028789
0.098060
0.004408
-0.032500
-0.103980
0.105959
0.021356
-0.078624
0.154878
0.058691
0.053350
-0.065672
-0.047973
0.106172
-0.019250
0.129994
0.081167
-0.115404
0.132143
0.005330
0.002899
-0.077564
-0.080086
0.027639
-0.024024
0.017272
-0.012819
-0.092639
0.133512
0.009857
-0.011506
0.012606
0.057055
0.047716
-0.091602
0.093322
0.128111
-0.094807
0.137197
0.012096
-0.004240
-0.100160
-0.043643
0.060643
0.037051
0.056984
0.091356
-0.059198
-0.015128
-0.043813
0.094489
-0.077539
-0.054950
0.085532
-0.074729
-0.008986
0.032949
0.032313
-0.010328
-0.043435
0.099944
-0.061185
-0.066293
0.055828
-0.010327
0.086463
0.073691
0.000255
0.099343
0.038704
-0.046276
0.031379
-0.080313
-0.006899
-0.053659
0.069349
0.102354
-0.056382
-0.003525
-0.059041
0.038453
0.005422
0.032339
-0.061777
-0.061087
-0.001418
0.016185
-0.015200
0.121871
-0.059570
0.001980
-0.058788
-0.073077
0.116532
0.058388
0.026601
-0.040897
0.000056
0.058266
-0.019977
-0.007849
-0.069561
0.003766
-0.009722
0.019234
-0.014033
-0.019472
0.058156
0.133472
0.003037
-0.030812
0.026794
-0.045706
0.091646
0.071303
0.072613
-0.035862
-0.059969
0.103981
0.085183
0.090321
0.004686
-0.013507
-0.053365
0.039675
0.057160
0.061215
0.061263
0.072445
-0.066140
0.110334
-0.010008
0.072969
0.009295
0.075849
0.028818
0.073880
0.036112
0.006693
0.028952
-0.010618
-0.077343
0.072473
0.016193
0.071905
0.005248
0.004882
-0.062390
-0.015487
-0.069214
-0.033468
0.087094
0.007245
0.066396
0.050080
0.109710
0.077264
0.037312
0.075434
-0.087005
0.095019
-0.018312
0.045278
0.103710
0.023999
0.016490
-0.049570
0.038766
0.062878
0.059310
-0.000762
0.012346
-0.009189
0.043345
-0.057741
0.091880
0.101727
-0.062762
0.030553
-0.086210
0.078676
-0.017446
-0.082285
-0.031586
-0.041815
0.037155
0.094008
-0.036473
0.086509
-0.072097
-0.066191
0.071201
0.051964
-0.039872
-0.010341
0.044921
-0.005033
-0.040326
0.101838
-0.069135
0.083712
-0.028073
-0.029596
-0.021338
-0.052441
0.017901
0.088766
-0.009547
0.140754
0.072111
0.050766
-0.024646
-0.056378
0.105618
-0.011401
-0.026760
-0.004894
-0.075745
-0.000364
0.021820
-0.016422
-0.049523
0.061171
-0.038403
0.061273
0.111364
0.116677
0.028351
0.098248
-0.030465
0.074568
0.020867
0.023428
-0.025323
-0.066896
0.058622
0.065411
-0.028364
0.030153
-0.076216
0.014575
0.081173
-0.050087
-0.023848
-0.062141
0.032029
0.124592
0.001251
0.061444
0.061572
0.084243
0.043515
-0.005653
0.049923
0.006512
0.061974
-0.024621
0.043504
-0.011313
-0.004906
0.023370
0.075172
0.057349
-0.012305
0.057835
0.011491
-0.032166
-0.011056
0.014650
0.068262
0.005411
0.059108
0.018776
0.099751
0.054846
-0.008599
0.005086
-0.077306
0.086148
-0.023096
0.039402
0.045776
0.024310
0.089550
-0.035492
-0.008867
0.059907
-0.036673
0.052527
0.076265
-0.041139
-0.073004
0.004920
0.038007
-0.041689
-0.027251
0.092094
-0.012785
0.027009
0.033106
0.114470
-0.004033
-0.023685
-0.039543
0.082466
0.060116
0.043398
0.058367
0.035252
0.045360
0.014346
-0.030237
-0.003626
0.023596
0.030392
0.015087
-0.007030
0.036024
0.113056
-0.026845
-0.024634
0.071382
0.023337
-0.053850
-0.073170
0.119144
0.118113
0.016180
0.007755
0.042484
0.021199
0.072290
-0.036439
0.109557
-0.081549
0.109340
0.087407
-0.106711
0.052640
-0.044875
-0.022786
-0.038829
0.037772
0.064777
-0.033472
0.083027
0.029938
-0.003586
-0.062154
-0.015240
-0.014755
0.030921
-0.045671
0.049560
-0.073761
0.024771
0.100603
-0.020324
0.131242
0.021737
0.124933
0.042702
-0.056287
0.052627
-0.007185
0.016849
0.091249
-0.107420
-0.024797
-0.034571
0.119356
0.029555
-0.067773
0.083408
0.058521
-0.046456
0.039580
-0.028411
0.077902
0.029797
-0.047037
0.071124
-0.062440
0.090491
-0.010511
-0.025154
0.080513
-0.053862
-0.014719
-0.037414
-0.035105
-0.067829
-0.075730
0.071584
-0.027848
0.005567
-0.049901
0.058963
0.073322
0.004011
-0.076967
-0.052279
0.076749
-0.063636
0.041147
0.018727
0.020116
0.050514
0.080477
-0.020078
-0.016041
0.080872
-0.005350
0.034753
-0.018168
-0.089438
-0.017556
-0.040018
-0.095506
0.008219
0.001297
0.109131
0.022482
-0.071065
0.092765
0.075495
0.020502
0.068438
0.079447
0.092483
0.062221
0.061057
0.068793
-0.042979
-0.034071
0.053388
0.066525
-0.049544
-0.049819
0.021995
-0.027610
0.014846
-0.041790
0.089650
0.035202
-0.079059
0.069408
-0.027706
-0.029434
0.055030
0.074323
0.087684
0.042962
-0.037396
0.064265
0.116881
-0.022852
-0.008487
0.037788
0.055506
0.025849
-0.010809
-0.042305
0.014907
-0.023665
-0.003975
0.107750
-0.041182
0.076262
-0.031188
-0.027000
0.067333
0.052504
0.015644
-0.034426
0.095979
-0.033123
-0.011696
-0.031604
0.059462
0.073111
-0.005450
-0.059459
-0.026859
0.093196
0.086151
0.070254
0.028947
0.069044
-0.031335
0.006467
0.103936
-0.001319
-0.038935
0.026046
0.057058
0.087721
0.026460
0.041103
0.083527
-0.051064
0.053024
0.043832
-0.070781
-0.133260
0.139227
0.054911
-0.054666
0.166805
-0.128789
0.154755
-0.193467
-0.070902
0.183120
-0.104436
0.127720
0.128697
0.015983
0.028770
-0.120538
0.024806
0.014109
0.002379
0.152609
0.086281
-0.032193
-0.041143
-0.023738
0.075024
-0.024431
0.031082
0.119732
-0.086181
-0.082674
0.049808
-0.056285
0.009708
-0.024110
-0.074601
0.120404
-0.093415
0.092850
-0.008100
0.027910
0.037665
0.028295
0.017699
0.034912
-0.022924
0.094088
0.033679
0.064183
0.064665
-0.097833
-0.062052
0.197834
0.173372
-0.188900
0.217143
-0.129843
0.100766
-0.091540
0.007831
0.245612
-0.035065
0.038723
-0.036294
0.042048
-0.029860
0.037879
0.081837
-0.077814
-0.004259
0.058013
0.119955
-0.036582
0.022657
-0.018639
-0.022763
-0.006877
-0.071878
-0.023945
-0.024660
-0.015795
0.073175
0.072654
0.053247
0.067655
0.033811
0.044520
-0.046747
0.034284
0.038429
-0.008138
0.029995
0.065251
-0.059875
0.074544
0.061033
0.080341
0.042794
0.026595
-0.083028
-0.022275
-0.082876
0.040697
0.142150
-0.113557
0.035685
-0.046559
0.028789
-0.028941
-0.074366
0.119473
0.088082
-0.029680
-0.114125
0.069138
-0.036838
0.157079
-0.053043
0.105494
0.064546
-0.119848
-0.056455
-0.033045
0.042325
-0.006755
-0.007942
0.067260
0.021757
0.078247
0.063506
0.053772
-0.012562
-0.053019
-0.035372
-0.033052
0.009359
0.011618
-0.013996
0.023443
-0.068759
0.080708
-0.040189
0.032847
-0.080424
-0.032982
0.012662
0.027642
-0.042921
0.065863
-0.065726
-0.055512
0.028599
-0.027813
-0.038627
0.044816
0.015875
0.096490
-0.082715
0.119942
0.067205
0.049734
-0.051368
0.104296
0.059982
0.025051
0.030209
0.006352
0.114460
-0.106917
0.024434
0.112469
0.013560
0.017310
0.127261
-0.010815
0.103469
0.041473
0.132506
-0.080663
-0.077437
0.145810
-0.085909
0.117811
0.157860
-0.013730
0.053222
0.001035
0.147614
-0.095145
-0.007585
0.127093
0.045153
0.044530
0.024673
-0.037161
0.042584
0.060631
0.000257
0.036623
0.076987
0.028595
0.083591
-0.040531
0.064099
-0.034297
0.042098
0.097158
-0.008354
0.090432
0.058644
-0.055736
0.041078
0.006511
-0.029712
0.064664
0.094510
-0.068501
-0.022507
-0.077145
-0.052228
0.051005
-0.050849
-0.000391
0.102281
0.009507
0.031467
-0.075507
-0.020849
0.053821
-0.027160
0.074542
0.028236
0.135866
-0.036496
-0.070374
0.078871
0.046116
0.081119
0.036972
-0.086500
0.001887
0.052261
0.043261
0.104200
0.034230
0.041284
0.067995
0.097645
-0.009133
0.022443
0.052058
0.040883
-0.005342
0.006002
-0.074341
0.026414
-0.021623
0.026225
0.056620
-0.072183
-0.030711
0.027274
0.112730
0.027632
-0.015317
0.010920
0.078354
0.059495
0.070124
-0.083972
0.054785
0.022093
-0.004385
0.041338
-0.043184
-0.029741
0.085924
0.014317
0.037633
0.011253
0.086469
-0.086919
0.022874
-0.020766
0.019400
0.078703
-0.007988
0.048450
-0.068487
0.061460
-0.001034
0.070966
0.098318
0.087530
0.071805
0.014182
-0.071292
0.037558
-0.060810
-0.025348
0.018257
-0.076332
-0.001601
0.060477
0.056757
-0.005842
-0.067494
0.071592
-0.053493
-0.021119
0.011776
-0.067826
-0.049265
-0.066008
0.053665
-0.044321
-0.021810
-0.060779
0.035480
-0.067625
-0.035750
0.069512
-0.042038
0.027083
-0.000391
0.108219
0.015412
0.113150
-0.002242
0.063744
-0.055217
-0.030084
0.057730
0.101170
-0.028549
0.052392
0.037028
-0.033561
0.030941
-0.084768
0.037919
-0.051909
0.046169
0.003303
0.071236
-0.041960
0.015166
0.074240
0.072457
-0.010179
0.013713
-0.020146
0.122371
0.060934
-0.060575
0.055804
-0.091570
0.054296
0.071337
-0.020729
0.010124
-0.036575
0.009338
-0.006996
0.009397
0.083335
0.053058
0.074168
0.048612
0.004143
-0.021283
0.059225
-0.017664
-0.016678
0.065718
0.003788
-0.064537
0.034652
0.058595
0.003850
0.080630
0.015364
0.048490
0.073543
-0.089533
0.122117
-0.023116
-0.006452
-0.040125
0.043911
0.089578
-0.045277
0.090228
-0.015789
-0.067708
0.075676
0.025113
-0.054930
0.006102
-0.067642
0.091691
-0.057108
0.066588
0.004090
-0.074373
0.064693
0.068810
0.016756
-0.028897
-0.053670
0.082839
-0.032798
0.011480
0.109604
-0.041951
-0.024654
-0.022037
0.046283
0.031634
0.008244
0.046683
0.081012
0.094750
0.013464
0.033330
-0.025711
-0.073020
-0.027802
-0.072803
-0.051194
-0.012607
0.070591
0.009971
0.044456
0.055615
0.056183
-0.060892
-0.025983
0.039538
-0.063172
0.089121
-0.000455
0.068211
0.039957
-0.040106
0.034642
-0.022880
0.081041
0.058209
0.018404
-0.033047
0.035143
-0.038399
0.041595
-0.071967
-0.034125
0.070603
0.032342
0.035450
0.003093
-0.019687
0.035079
-0.012504
-0.070302
-0.001467
-0.085002
0.031247
0.024995
-0.012208
0.017058
0.071496
-0.013233
-0.006520
-0.028820
-0.069281
0.077172
-0.084879
0.011736
0.038251
0.049727
0.111760
-0.103296
0.093278
-0.012271
-0.033311
0.080420
-0.079135
-0.003674
-0.012155
-0.041511
0.051955
0.022473
0.000482
0.090046
0.049208
0.063913
-0.010368
0.075101
0.059555
-0.030494
0.090504
0.093812
0.094980
0.068529
-0.070995
0.098598
0.002458
0.028161
0.002957
-0.023979
-0.013049
-0.068283
0.047322
0.010936
-0.036327
0.017186
0.045054
0.115267
-0.085794
0.075728
0.077619
0.023323
0.126734
-0.026853
0.075508
0.046839
-0.023367
0.070467
-0.031585
0.047486
-0.017400
0.018835
0.112043
0.010911
0.026781
-0.018130
0.037090
-0.053383
-0.018391
-0.024356
-0.025302
-0.034218
0.014422
-0.015240
-0.039170
0.001409
-0.057981
0.026000
0.045940
0.066758
-0.048606
0.008396
0.066909
0.087902
-0.009036
0.109289
-0.029248
0.105053
0.012047
0.059799
0.046562
0.007831
0.138506
0.024166
0.006086
0.001852
-0.099110
0.109368
-0.118796
-0.066899
0.036121
0.036529
-0.026544
0.085224
-0.033086
0.072823
-0.056746
0.035186
0.014778
0.052517
0.079147
-0.002807
0.001728
0.041858
-0.049874
-0.039491
0.068397
-0.031102
0.077682
-0.007270
-0.034315
0.025138
-0.027813
-0.018254
0.020890
-0.030930
0.001550
0.058739
0.080332
-0.069485
0.013174
-0.067934
0.054922
-0.038701
-0.070974
0.021137
-0.030520
0.056438
-0.030499
0.072468
0.102540
0.099948
0.036059
-0.018248
0.061009
-0.024836
-0.017326
-0.060061
0.118600
-0.063498
-0.029757
0.006941
-0.001875
0.088774
0.062447
0.004015
0.014721
-0.066364
0.043864
0.011240
-0.062149
-0.047117
0.047327
-0.033329
-0.044609
0.071371
-0.022926
0.032452
-0.021284
0.060791
-0.037188
-0.027285
0.109346
-0.059066
0.035349
-0.022630
0.083718
-0.064766
-0.016530
-0.072984
-0.025642
0.068429
0.014158
0.069223
0.027599
0.067517
0.014680
0.107970
0.069720
0.032472
-0.008575
-0.087626
0.120625
0.149556
-0.109488
0.156182
-0.062824
0.157363
-0.098987
-0.073558
0.155089
-0.005215
0.050654
-0.046009
0.073394
-0.022233
-0.017052
-0.051037
0.013340
0.070777
-0.002174
0.007258
0.000714
-0.016195
0.095689
0.067335
0.121228
0.053053
-0.002510
-0.076224
0.007634
0.001933
0.092778
0.032537
0.013194
-0.039210
-0.016874
0.053569
0.088664
0.005030
-0.092809
-0.078824
0.200913
0.054321
-0.176148
0.095899
-0.038217
0.065869
-0.109483
-0.075996
0.254659
-0.015453
0.167962
0.012560
0.001475
0.072138
0.014571
0.128221
-0.102059
0.009583
0.027241
0.051671
-0.032643
0.039854
0.026997
0.027308
-0.021554
0.055505
0.063970
-0.079599
-0.045356
0.079085
0.091387
0.070892
0.045110
0.074778
0.070612
-0.040593
0.091082
0.074181
-0.032192
-0.001024
0.051034
0.015167
-0.017815
0.077706
-0.000447
0.095826
0.028782
-0.005161
0.061176
0.030553
0.106975
0.108434
-0.130695
0.122828
-0.018848
0.141098
-0.070646
0.038131
0.161673
0.076749
-0.023124
0.026672
0.117033
-0.040524
0.079897
-0.044590
0.087357
0.043602
-0.084334
0.033216
0.051085
0.037341
0.001322
0.003724
0.068098
-0.066906
0.089162
0.072336
0.049305
-0.028155
0.000192
-0.019703
0.104541
0.015972
-0.037069
-0.030876
-0.000904
-0.049467
0.096443
0.048106
0.008733
0.082867
0.083767
0.028988
0.034103
-0.055274
0.089466
-0.051206
0.081459
-0.024859
0.095680
0.089179
0.062671
0.087051
0.005650
-0.056402
0.004593
-0.045035
-0.030389
0.009967
0.106413
-0.008848
-0.021138
-0.020095
-0.050105
-0.014733
-0.007916
0.030774
0.126517
0.084329
0.056513
0.086579
-0.015979
0.041244
-0.045597
0.086040
-0.026325
-0.064445
0.005210
0.005101
0.093147
0.034253
0.034061
0.049258
-0.004290
-0.009040
-0.002499
0.075930
0.156907
0.013815
0.041396
0.099494
-0.059023
0.122175
0.065341
-0.001937
0.021663
-0.074222
0.041413
-0.049361
-0.012367
0.077000
0.027649
0.126762
-0.072659
-0.000108
0.084537
-0.042832
-0.024052
-0.001217
0.105301
0.030604
-0.051315
0.091056
0.108071
0.081902
0.108748
0.055787
0.047831
-0.015232
-0.042615
-0.027754
0.003951
0.093904
0.083079
-0.002014
-0.003468
0.005097
-0.074470
-0.040392
0.044589
0.068294
0.065655
0.023246
-0.019370
-0.027380
-0.006400
0.045817
0.055699
0.064963
-0.030964
-0.031049
0.013137
0.026440
-0.033068
-0.054075
0.066248
-0.054694
-0.006583
0.081293
0.104480
0.095343
-0.068991
0.026617
-0.045936
0.061512
0.014490
-0.063362
-0.002352
-0.003679
0.075091
-0.035667
0.035399
0.074060
0.047419
-0.031586
0.084720
-0.020015
0.035882
-0.030666
0.095442
0.072451
0.053132
-0.050063
0.111673
0.091549
0.001117
0.045701
0.066672
-0.028101
-0.106074
-0.055297
0.082353
-0.044619
0.007149
0.037002
0.053526
0.016940
0.016281
0.055035
0.053704
-0.008943
0.051887
-0.042424
0.032878
0.051356
0.011555
0.037294
0.050754
-0.069708
0.042607
0.030054
-0.059873
0.082333
0.065851
0.108040
-0.046742
-0.070646
0.091816
-0.002649
0.060553
-0.017837
0.004451
0.019397
-0.043995
0.012182
0.064158
-0.059460
0.054590
0.072458
0.000506
0.056076
0.083285
-0.032443
0.061292
0.098065
-0.032246
-0.008712
0.016914
0.058240
-0.008473
0.006250
0.020639
0.029756
0.030410
-0.059763
-0.049035
0.001793
-0.010946
0.095465
-0.081369
-0.022896
-0.053247
0.035734
0.051983
0.077697
0.069045
0.008882
0.008396
0.036188
0.002532
0.078861
0.023583
0.074609
0.048275
0.119928
0.043063
0.046594
0.076441
-0.057671
0.045673
0.103154
-0.004715
0.077574
-0.048371
-0.000822
-0.039178
-0.075493
-0.013577
0.049623
0.108368
0.109673
-0.035266
0.123842
-0.069876
0.115733
-0.029761
0.005120
0.036523
0.001289
0.001056
-0.031485
-0.048584
0.050926
-0.040984
0.070014
0.037250
0.057174
-0.020670
-0.017667
-0.006525
0.018204
0.056557
0.013819
-0.011868
0.020803
-0.039484
-0.010548
-0.004664
-0.030588
0.047854
0.129407
0.055366
0.122751
-0.043837
0.095589
-0.034569
-0.052078
0.085946
-0.004507
0.087024
0.043645
0.018636
0.008725
-0.023597
0.033537
-0.019951
-0.031719
-0.022988
0.063065
-0.047107
-0.035061
0.072013
0.020910
0.065914
-0.086015
0.092864
0.033412
0.030705
0.101012
-0.076431
-0.026153
0.084494
-0.057951
-0.007045
-0.052827
-0.009692
0.010577
-0.027375
0.128832
0.010464
-0.081595
0.037755
-0.101542
0.019822
0.035786
0.000722
0.008841
0.046743
0.036768
-0.032284
-0.039613
0.038324
0.018509
-0.061337
0.031358
0.079824
-0.050134
-0.000959
0.122431
-0.070085
-0.030540
0.070123
-0.058270
0.051586
-0.047676
0.152915
0.010078
-0.055386
0.080597
-0.001076
-0.053622
-0.076816
0.070816
0.033409
0.085602
0.021837
-0.055305
-0.000116
0.059817
0.035949
-0.040230
-0.018739
0.066097
-0.011426
0.080587
-0.033842
-0.081343
0.030180
0.013009
0.065415
0.059653
0.032285
-0.007349
0.055152
0.075111
-0.023906
-0.069183
-0.056739
0.030666
-0.018057
0.043869
-0.009493
0.043869
0.057928
0.073444
-0.001049
-0.022495
0.096757
0.022916
0.063053
0.076146
0.020348
0.027681
0.034397
0.019748
0.050371
-0.075372
0.124251
0.036381
-0.039157
0.113255
0.065782
0.080122
-0.019012
-0.025946
0.018473
0.017306
0.058889
-0.029630
-0.008546
0.089628
0.016141
0.047219
-0.017845
-0.017565
-0.000246
-0.066625
0.057998
-0.051016
0.085047
0.087630
-0.084181
0.018551
-0.024648
-0.052637
0.069540
0.053867
0.093003
-0.100103
-0.001103
0.021911
-0.074992
0.042491
-0.016591
0.048784
-0.104187
0.071610
0.120323
-0.060561
0.038604
0.110025
-0.098183
0.123769
-0.078049
0.078782
-0.037320
0.011447
0.108931
-0.030076
-0.021729
0.041965
-0.005896
0.045182
-0.037055
-0.064780
-0.011121
-0.027661
-0.054694
-0.042141
-0.057662
0.057851
-0.041381
0.009088
0.062893
0.030024
0.080085
0.067616
-0.016873
-0.048149
-0.069883
-0.061627
0.041077
-0.008923
0.002890
-0.039089
-0.031452
-0.080801
0.072902
-0.034913
0.177065
0.153053
-0.161532
0.195127
-0.075715
0.181099
-0.080498
-0.046662
0.230372
0.123396
-0.003495
-0.068156
0.077706
-0.072849
0.092025
0.065163
-0.007220
-0.040671
0.002807
0.090240
0.047182
0.023891
0.084686
0.011822
0.021200
-0.043929
0.017036
0.070281
-0.027368
-0.032873
0.034340
0.029843
0.125745
0.006596
-0.028639
0.008695
0.035869
0.031145
-0.086451
-0.019789
0.071452
0.046040
0.092513
-0.095771
0.053918
0.055208
0.043021
0.037314
-0.035050
-0.057346
0.041648
0.073682
0.024712
-0.019298
0.008349
-0.036324
0.043293
-0.066390
0.000695
-0.012146
-0.048042
-0.013743
-0.002349
-0.025130
0.028669
-0.067962
0.075043
0.032827
0.052553
-0.036286
-0.006252
0.028903
-0.012758
0.037059
-0.045255
0.090794
0.054977
-0.054993
-0.026995
-0.037295
-0.031874
-0.018223
0.074719
0.101503
0.088382
-0.027234
0.016203
0.048352
-0.023100
0.103064
0.058835
-0.013227
0.029905
-0.057456
0.073578
-0.052763
-0.027730
0.075900
0.042849
0.077563
0.108684
-0.001673
0.016056
0.040368
0.001356
0.100115
-0.009527
0.017479
0.045934
-0.118274
0.164751
0.159187
-0.038686
0.028023
0.021414
0.018133
0.030324
0.071618
0.140796
0.034173
0.012118
0.117403
0.027508
0.070019
-0.030758
0.119395
-0.073736
0.067124
0.049509
0.052568
-0.023981
0.019218
0.044824
0.090194
0.063749
0.086897
0.070323
-0.009453
0.085003
-0.036028
-0.010986
0.088909
-0.011285
0.083103
-0.088423
-0.028433
0.021713
-0.057566
-0.005325
0.044349
0.071750
0.067082
-0.118036
0.076035
-0.045875
0.051305
-0.014588
-0.041192
0.035600
0.012950
0.115312
0.028378
-0.051709
0.107816
0.068477
-0.008214
0.048996
-0.081232
-0.005851
0.041985
-0.071031
0.013601
0.078347
-0.040677
0.076946
-0.010433
0.023214
0.042406
-0.046162
-0.003583
0.012585
0.094366
-0.021158
0.092148
-0.046303
-0.061943
0.018779
-0.040199
0.088646
0.084508
-0.036618
-0.049765
-0.003240
0.031047
0.024314
0.074781
-0.069012
0.070116
0.087519
-0.089741
0.011737
-0.017303
0.011116
0.110442
-0.041174
0.078195
0.000854
-0.047927
0.118613
-0.042851
-0.004453
-0.007336
-0.019941
-0.018246
0.000571
0.031024
0.070568
-0.083098
0.039142
-0.002220
0.025713
-0.077577
0.021678
0.008195
-0.035849
0.056687
0.113524
-0.075020
0.005750
0.027552
-0.066475
0.017830
0.108524
0.048922
0.028136
0.051247
0.087870
0.034366
0.068588
-0.004715
0.008937
0.073996
0.004109
-0.069134
0.095732
0.057645
0.034620
0.069494
-0.057572
-0.099934
0.151140
0.010983
-0.049771
0.029595
-0.044487
0.100771
-0.016653
0.074244
0.007057
0.069687
-0.106179
-0.063189
0.159106
-0.018317
0.038310
-0.079843
0.115272
-0.048044
0.006932
0.091479
0.027997
-0.099757
0.058631
-0.057274
0.033591
-0.104586
-0.016619
0.000676
0.003341
-0.002529
-0.086027
-0.084628
0.135257
-0.133488
0.073776
-0.128749
0.157119
-0.046583
-0.031058
0.115802
-0.100198
0.005544
0.114427
-0.001734
0.134486
-0.063334
0.061592
0.017122
0.046601
0.051060
0.020752
0.072447
0.037758
0.088075
-0.023068
0.016693
0.095161
0.035272
0.023909
0.079346
-0.195886
-0.139099
0.106030
-0.176547
0.117647
-0.122194
0.089243
0.054578
-0.115732
0.042731
0.037669
-0.050501
0.030497
0.053881
0.066170
-0.003417
0.098558
-0.038652
0.050274
0.082005
-0.044855
-0.051594
0.128187
-0.172762
-0.011459
-0.069694
0.137433
0.076038
-0.125494
-0.012952
0.028917
-0.046439
0.114171
-0.096500
0.111889
-0.070951
0.000222
0.024811
0.038826
-0.014859
0.133451
-0.012406
-0.069108
-0.005250
-0.038541
0.102546
0.070527
-0.040152
0.087007
0.071359
-0.050768
0.091938
-0.044030
0.032573
0.084336
0.018229
-0.067785
0.028043
0.012676
-0.058424
0.087914
0.037791
0.085453
-0.006917
0.008295
-0.007698
0.085753
-0.088544
-0.064297
0.048296
0.054410
0.018463
0.028520
0.066419
0.026159
0.029324
0.081996
-0.048166
0.071935
-0.046321
0.013035
-0.027247
0.048347
0.100000
-0.035819
0.036033
0.064613
-0.030857
-0.022465
0.039876
0.136531
0.095478
0.011507
0.015336
0.045380
0.081467
-0.006715
-0.019124
0.076112
0.011096
0.101907
-0.041144
0.068929
-0.001235
0.035719
0.045467
0.086428
0.049491
-0.038703
0.044111
0.114656
0.066867
-0.073274
-0.019471
0.014736
0.024715
-0.039403
-0.074153
0.014573
-0.028549
0.087569
0.020481
-0.031921
0.064412
-0.026720
0.104086
0.010460
-0.043837
0.010770
-0.008360
0.053656
0.104598
0.077088
0.043247
-0.083628
-0.028380
-0.071469
0.073466
0.014170
-0.018469
0.115369
0.107750
-0.059668
0.063068
-0.027375
0.074692
-0.036799
0.045590
0.021043
-0.001746
-0.012994
0.009150
-0.076770
-0.041622
-0.032656
0.047645
-0.029948
0.072334
0.059330
0.040300
0.049762
-0.082190
-0.027680
0.049804
0.045881
0.015866
-0.039653
0.030017
-0.083293
0.088858
0.057993
0.044549
0.111361
-0.060157
0.086610
-0.098801
-0.012475
0.010856
-0.065161
0.021520
-0.069096
-0.055915
-0.020057
-0.035931
-0.032767
-0.006965
0.088423
-0.082817
-0.063881
0.099661
-0.004873
0.058158
-0.018968
-0.002360
-0.053866
-0.006066
-0.007483
-0.010951
0.076439
0.118822
0.002075
-0.023136
0.156274
-0.141827
0.075875
-0.148042
0.174986
0.038577
-0.009827
-0.008456
0.053755
0.077647
0.040677
0.064691
-0.078641
0.045064
0.020033
0.068148
-0.017165
0.048760
-0.021197
0.007710
0.025441
0.023544
0.008030
0.015936
0.080278
0.015158
0.028371
-0.070327
0.030528
-0.041906
0.071580
0.115113
0.048449
-0.035334
0.048044
-0.024568
0.026036
0.076856
-0.001433
0.087335
0.009206
0.082039
-0.034191
0.061811
-0.010430
-0.025510
-0.051592
0.018123
-0.005212
0.124679
0.006372
-0.009310
-0.020030
-0.000690
0.003641
-0.028853
0.009084
-0.005197
-0.060446
-0.047073
0.022413
-0.029461
0.077699
0.053868
-0.013026
-0.002632
0.032797
-0.001848
-0.037129
0.097603
-0.043888
0.009834
-0.015039
0.013959
0.029155
-0.044003
-0.015406
0.070330
0.013231
-0.016535
0.003183
0.071383
0.000227
0.038689
0.073546
-0.010567
-0.056317
-0.025083
0.089580
0.109418
-0.130633
0.102609
0.005281
-0.005298
-0.026145
-0.056031
0.136305
-0.050749
0.042869
0.122535
-0.005382
0.081921
0.096391
0.002685
0.043638
-0.001644
0.002510
0.054339
0.017703
-0.003495
0.038335
-0.067786
0.040079
-0.053814
0.052921
-0.011576
0.009244
0.004427
0.033523
-0.071708
-0.033971
0.009776
-0.007749
0.018888
-0.022582
-0.022040
-0.077065
0.005180
0.041308
0.060317
0.037573
0.025667
0.024200
0.036523
0.008696
-0.055047
0.069346
-0.003827
0.101769
0.098950
-0.035717
0.199225
-0.074850
0.065573
-0.116070
-0.019137
0.098591
0.084223
-0.152612
-0.088297
0.139913
-0.114813
0.108958
-0.092825
0.180817
-0.034069
-0.043124
0.056223
0.059757
-0.003660
0.098150
-0.060747
-0.022639
0.019329
-0.021791
0.006059
0.003144
0.091885
-0.039380
-0.063571
0.043654
-0.034254
0.066574
-0.020941
0.068418
-0.049442
-0.083226
0.071393
-0.101145
0.021260
0.095973
-0.118648
-0.016090
-0.059723
0.037610
0.040580
-0.061351
-0.019409
0.002776
0.041905
0.099644
-0.095626
0.131660
-0.083904
0.106423
-0.029776
0.036884
0.057144
-0.088016
-0.020715
0.039779
-0.008353
0.160844
-0.086210
0.154670
-0.051031
-0.041658
-0.095002
0.024402
0.007754
-0.106148
0.075287
0.032807
0.082419
-0.100732
-0.032201
-0.001627
-0.076460
0.127229
0.074508
0.036096
0.002411
-0.078620
-0.006950
-0.031414
-0.028707
0.029752
-0.025981
0.006777
-0.011674
-0.079877
0.097769
0.013116
0.120115
0.061193
-0.054422
-0.000281
0.134394
0.001980
-0.109226
0.003583
-0.040646
0.077969
0.004229
0.081134
0.035473
-0.009047
-0.128094
0.099207
0.127239
-0.064282
0.075738
-0.107761
0.105312
-0.126495
0.071252
0.084538
-0.026534
0.052105
0.036267
-0.084671
0.031850
-0.018878
0.090321
-0.119394
-0.086802
0.122634
-0.093400
0.163550
0.112072
-0.027892
0.152744
-0.029616
0.153323
-0.014093
-0.076045
0.080264
-0.040938
0.135604
0.075606
0.000418
0.126351
-0.045960
0.057503
-0.076261
-0.080601
0.050573
-0.088594
0.155191
0.018621
-0.081907
0.023334
0.027347
0.040575
-0.041124
0.057326
0.100585
-0.085346
0.127133
0.147406
-0.034545
0.146837
-0.081891
0.071289
-0.136365
0.012985
0.128276
0.004580
-0.082940
-0.044117
-0.027238
-0.068878
0.010910
0.036304
0.113979
0.071854
-0.075203
0.021176
-0.083481
0.017166
-0.027303
0.071815
0.073138
-0.037064
0.075157
-0.072095
-0.042830
0.052623
-0.069706
-0.056625
0.047502
0.054751
0.029413
0.063847
0.013277
-0.065720
0.023169
-0.139903
0.071842
0.137530
-0.164291
0.164826
-0.028905
0.127224
-0.015938
-0.052884
0.022549
0.058563
-0.092841
-0.117129
0.092078
-0.052595
0.012560
-0.056680
0.141019
-0.056914
-0.015419
0.137552
-0.072812
-0.019268
0.131184
-0.121309
0.023351
-0.138078
0.024260
0.056099
-0.035061
0.136584
-0.039112
-0.132397
0.092070
-0.027758
0.001172
-0.089904
-0.002795
0.007772
-0.086986
0.088892
-0.012846
-0.010866
0.067514
-0.136639
0.061473
-0.023920
-0.006484
-0.081240
-0.010588
-0.085719
0.133277
-0.022148
-0.100474
0.015299
-0.012355
0.076188
-0.099012
0.027545
0.073957
0.148619
-0.091251
-0.113751
0.160636
-0.182514
0.117940
-0.142742
0.059650
0.033539
-0.106397
0.077768
-0.190876
-0.032504
0.155778
-0.124917
0.092295
-0.110324
0.162615
0.021913
-0.138035
0.063379
-0.242717
-0.059930
0.150951
-0.058230
0.034438
-0.130103
0.178393
0.069168
-0.042196
0.113309
-0.137156
0.029303
0.088737
-0.079119
0.090244
-0.033595
0.042216
-0.073731
-0.071773
-0.004049
0.046321
0.019663
-0.059813
0.028093
0.020143
0.028912
-0.021821
-0.063443
0.032280
0.198612
-0.096999
-0.118790
0.100678
-0.104281
0.048802
-0.042811
0.075420
-0.030768
-0.136629
0.152216
-0.064429
-0.062058
0.017144
-0.121648
0.119735
0.041594
0.020199
0.052821
0.010253
0.149846
-0.183610
-0.127045
0.072719
-0.155551
0.007822
-0.113356
0.011736
0.055131
0.005806
0.121001
-0.055871
-0.013485
0.115402
-0.036210
-0.005220
-0.077815
0.108773
0.074173
-0.110335
-0.065322
0.008803
0.005021
-0.065381
0.055397
-0.072275
0.020202
-0.032360
0.031347
0.106405
0.102031
0.028143
0.047938
0.015863
0.084048
0.017674
-0.033811
0.089267
-0.059531
0.030473
0.007511
0.015233
0.082828
0.067955
-0.026347
0.051145
0.004048
-0.057642
0.022662
0.062066
-0.082453
0.116796
0.013758
-0.068376
-0.037545
-0.029193
-0.059181
0.044257
-0.080561
0.090635
-0.054613
0.039317
-0.023285
-0.029288
-0.010022
0.003562
-0.009640
0.023841
0.046642
0.012858
-0.056663
0.116465
0.038795
0.016521
0.038912
0.072507
0.043855
-0.033026
-0.018773
-0.016738
-0.070021
0.097316
-0.001734
-0.060368
-0.049544
-0.024456
-0.032297
0.023633
0.012042
0.074626
0.017127
0.011597
0.072945
0.058786
-0.031007
0.031612
0.119683
-0.049472
-0.030316
0.048270
0.018906
0.119382
0.028021
-0.052825
0.016348
0.063428
0.054077
0.048660
-0.063213
-0.030322
-0.070727
0.086266
-0.037734
0.006825
-0.040726
-0.021982
-0.040990
-0.073151
0.011800
0.041778
-0.077874
0.109791
0.062777
-0.014388
0.052630
-0.009129
0.036992
-0.026819
-0.008113
0.121058
0.082409
0.014445
0.045707
0.080751
0.017714
-0.036332
-0.033421
0.009945
-0.012934
0.072877
0.034926
-0.007301
0.039181
0.068703
-0.094119
-0.019917
0.062956
0.045999
0.047899
-0.062175
0.061953
0.012487
-0.072769
0.073398
-0.129750
0.112557
-0.045268
0.080692
-0.024939
0.039336
0.080806
0.031116
-0.053663
0.028358
-0.082977
0.066614
-0.047247
0.020119
-0.004732
-0.081470
0.009298
0.072400
0.043411
-0.099679
0.135786
-0.076520
0.019322
-0.074712
0.030621
0.009947
0.125952
-0.009224
0.003873
0.129345
-0.034609
0.136974
-0.004966
0.152546
0.036207
-0.047484
0.034951
-0.059900
-0.062704
-0.019151
-0.032661
0.028753
-0.014893
-0.022214
-0.078918
0.025303
-0.051669
-0.011444
0.086781
0.013860
0.037862
0.072150
-0.064240
0.020573
0.003206
0.111199
0.000491
-0.062597
0.016214
0.063529
0.033680
0.012198
-0.048687
0.097614
0.063853
0.031381
-0.050642
0.040152
0.023203
-0.088286
0.065492
0.032056
0.069026
-0.048964
0.063265
0.113884
0.079068
0.031758
-0.021148
-0.046831
0.008185
0.029759
0.055319
-0.052658
-0.034267
0.104467
0.107951
-0.020583
-0.084841
0.032381
-0.091615
0.130271
-0.105373
0.113288
-0.015991
-0.067754
-0.023408
0.078481
-0.073795
0.030445
-0.065399
-0.024711
-0.036676
-0.046100
-0.051204
-0.002124
0.057359
-0.050207
0.028092
0.113393
-0.010059
0.017144
-0.014805
0.041677
0.051583
-0.073441
-0.218372
0.220750
0.223749
-0.240007
0.290333
-0.225380
0.093924
-0.238984
0.037669
0.243593
0.036036
0.033887
0.077809
0.007825
0.038452
0.024230
0.017316
-0.070816
-0.050040
0.044623
0.100561
-0.174924
-0.062712
0.060803
-0.144887
0.084952
-0.135798
0.124183
-0.062887
-0.128971
0.090758
-0.073298
-0.136776
0.109978
-0.163838
0.180063
-0.095117
0.196316
0.074273
-0.154104
0.146748
-0.100604
-0.064254
0.139793
-0.160312
0.151734
-0.119079
0.178028
0.019849
-0.086977
-0.103050
0.113653
0.074377
-0.058415
0.108146
-0.108372
0.034637
-0.055326
0.005417
0.037713
0.256371
-0.128658
-0.171529
0.140720
-0.197270
0.136812
-0.225226
0.093195
0.053400
-0.230876
0.086098
0.008926
0.000666
-0.040022
-0.059421
-0.031740
0.077046
0.026711
-0.048957
-0.035385
0.075414
-0.100489
-0.123029
0.022065
-0.024442
0.089092
-0.046612
0.067076
0.024169
-0.017858
0.039286
-0.040337
0.010026
0.140049
-0.061622
0.107485
-0.027643
0.096224
0.027626
-0.012813
0.195245
-0.068154
-0.131074
0.202086
-0.191934
0.147859
-0.189983
0.159619
0.043860
-0.113652
0.047883
-0.111368
-0.058759
0.134101
-0.043066
0.038906
-0.166080
0.169815
0.063429
-0.044692
-0.152071
0.101427
-0.003892
-0.122990
0.154619
-0.049938
0.023616
-0.096504
0.027452
0.149000
-0.108486
0.062788
0.109297
-0.069546
0.160319
0.000902
0.115704
-0.073700
-0.035937
0.062293
-0.017752
0.134618
0.095556
-0.020291
0.066348
-0.059843
0.098610
-0.070681
0.001839
0.103431
-0.012012
-0.026444
0.034502
0.049499
0.009831
0.067371
-0.001075
0.053940
0.002180
0.067959
-0.185608
0.242934
0.079354
-0.084910
0.136643
-0.167522
0.108148
-0.202077
0.072523
0.180572
-0.022273
-0.013622
0.119267
-0.087556
0.025547
-0.078322
-0.029447
0.022900
0.057207
0.046698
-0.131216
0.104914
0.059107
-0.078487
0.157228
-0.153402
0.040994
-0.154746
0.055888
0.065930
-0.031620
0.066776
0.122882
-0.020167
0.166077
-0.127435
0.046392
-0.115847
0.010901
0.098934
-0.078532
0.098761
0.077052
-0.021202
0.163000
-0.112266
0.098172
-0.134842
0.025232
0.036957
-0.065215
0.011619
0.092754
0.006024
0.002351
-0.019213
0.112452
-0.011575
0.038970
0.049787
0.028836
0.007119
-0.037924
0.033132
0.019350
0.078134
-0.018221
0.118542
-0.023084
0.020889
-0.007304
-0.005986
-0.008940
0.007717
-0.121200
0.050265
-0.122061
0.011991
0.042174
0.024709
-0.049568
0.080855
0.047460
0.020979
-0.049684
-0.029905
-0.070762
0.043227
-0.040367
-0.035883
-0.133981
0.128218
0.061762
-0.096327
0.064428
-0.067100
0.038469
-0.037440
0.009122
0.142492
0.073875
-0.042128
-0.087398
0.029718
-0.110651
0.107366
0.018113
0.027573
-0.022187
0.049302
0.130289
-0.073079
0.024581
0.026164
-0.049587
0.088706
0.000138
0.032202
0.002890
0.004585
0.181990
-0.142236
-0.088384
0.041286
-0.149228
0.052848
-0.023010
0.146122
-0.044365
-0.149150
0.043237
0.005278
-0.056680
0.101254
-0.058900
0.125211
0.028160
0.106736
0.015820
-0.023888
-0.046956
0.062118
0.073074
0.042957
0.116281
-0.095216
0.068572
-0.015044
0.077383
-0.000337
0.075755
-0.134946
0.007831
0.096637
-0.087049
0.031890
-0.148102
0.040565
0.056808
-0.132001
0.132095
-0.103261
-0.096060
0.166716
-0.147087
0.099935
-0.069440
0.045354
0.021862
-0.042836
0.104515
-0.071982
-0.129058
0.139225
-0.033027
0.095138
-0.121115
0.015292
0.044341
-0.102878
0.102898
-0.088867
-0.014816
0.044939
-0.130008
0.017358
0.006137
0.097573
-0.068111
-0.066411
0.060349
0.075819
0.090918
-0.077723
0.124950
0.054621
0.039135
-0.070836
0.067633
0.035525
0.181802
-0.185105
-0.182024
0.185832
-0.171991
0.160515
-0.126102
0.042685
-0.015651
-0.184290
0.130267
-0.103435
-0.105368
0.114472
-0.061694
0.120602
-0.009803
0.102248
0.002534
-0.110776
0.120188
-0.192566
-0.095806
0.085753
-0.112812
0.154213
-0.036415
0.134111
-0.072088
-0.000879
0.133945
-0.079099
0.013721
0.037533
0.000991
0.131674
-0.044413
0.123955
0.057397
-0.019191
0.012766
0.021333
0.076692
0.085614
0.023169
-0.032332
0.019423
-0.046476
-0.035080
0.036341
0.116241
0.038175
0.028253
0.073324
-0.090554
0.031068
-0.015341
-0.012103
-0.089208
0.019001
0.076196
-0.002554
0.066099
-0.035191
-0.012700
0.050725
-0.068751
0.076411
-0.017192
-0.060568
0.093947
-0.026286
0.071021
0.118150
0.042965
0.068247
-0.019390
0.066217
0.024988
-0.074871
-0.042743
0.040294
-0.007285
0.031888
-0.027529
-0.018674
0.038828
0.067540
-0.029741
0.053324
-0.037579
0.044671
0.033450
0.063230
0.087157
-0.012000
0.066366
0.027357
0.027255
0.108756
0.024150
0.107832
-0.037615
0.067186
0.092137
0.059887
-0.021448
-0.018851
-0.053635
0.116059
0.052091
0.047043
0.087977
-0.015619
0.100579
-0.065426
0.084691
-0.006233
0.078330
-0.042609
-0.066892
0.072815
-0.036478
-0.013425
-0.036994
-0.026511
0.040513
0.088395
-0.065973
0.064271
0.033942
0.013016
0.010078
-0.064930
-0.010429
-0.058268
0.118488
0.023990
-0.005833
0.075769
0.075542
0.093230
0.032076
-0.057292
0.029439
0.020443
0.098722
0.056176
-0.035345
-0.012702
0.062485
0.098339
0.015283
0.073605
0.110733
-0.036675
0.046451
0.015220
-0.019910
0.088355
0.056158
-0.076989
-0.007104
-0.019358
-0.037543
0.018961
-0.068313
-0.006078
-0.073000
0.043294
0.041373
0.047799
-0.024036
0.123840
0.056116
0.064962
-0.043299
0.089412
0.064545
0.046254
0.136695
-0.071311
0.012501
0.011916
-0.031295
0.113230
-0.095103
0.121663
-0.013661
-0.037723
-0.000514
0.040000
0.080632
-0.128492
0.154382
-0.064880
0.030849
-0.011002
-0.013276
0.146626
0.153807
-0.040920
-0.058945
0.100438
0.008333
0.149426
-0.001775
0.207171
-0.052086
-0.116394
0.089432
-0.082081
-0.017517
0.009657
-0.106519
0.075582
-0.015557
0.034700
0.068941
-0.055095
0.069479
-0.136566
-0.133568
0.161881
-0.075822
0.035300
-0.069360
0.012823
0.060284
-0.036331
0.015849
-0.143471
-0.075066
0.062402
-0.004169
0.110467
-0.025441
0.018533
-0.024954
-0.092440
-0.061156
0.067272
0.111429
-0.050709
0.000050
0.002784
0.145756
-0.024421
0.071551
0.018921
0.164648
-0.032900
-0.130774
0.083701
-0.105833
0.115510
-0.098287
0.110307
0.046632
-0.085334
0.153179
-0.107287
-0.084435
0.181449
-0.185862
0.108933
-0.046014
0.179004
-0.015200
-0.012083
0.066738
-0.006599
-0.128439
0.125364
0.007694
-0.013540
-0.127559
0.092938
0.018179
0.017083
0.155780
-0.039243
0.005859
0.131956
-0.061114
0.134620
-0.039843
0.007439
-0.055224
-0.131151
-0.095524
0.202048
0.143126
-0.185075
0.126313
-0.064975
0.180261
-0.030857
-0.026582
0.117710
0.002729
-0.031019
-0.097735
0.145889
0.042094
0.037784
0.004822
0.135741
-0.013993
-0.004411
0.065368
-0.123742
-0.005303
0.112572
-0.097979
0.051769
-0.060266
0.151729
-0.054224
-0.131444
0.087205
-0.095728
-0.164281
0.115411
-0.078049
0.128615
-0.054239
0.104162
-0.041238
-0.040287
0.153867
-0.049611
-0.090663
0.178960
-0.154837
0.158250
-0.032722
0.095199
-0.059423
-0.008511
0.087404
0.016837
0.002851
-0.028210
0.072462
-0.030637
0.067132
0.087407
-0.014316
0.006367
0.165947
-0.169998
-0.150519
0.123421
-0.164849
0.144284
-0.190480
0.203711
0.038193
-0.146516
-0.037820
0.055287
0.044841
-0.086395
0.066759
0.015803
-0.013891
-0.076425
-0.028642
0.038781
-0.035420
0.026847
0.000048
0.007938
0.000543
0.041133
0.053638
0.072154
-0.031217
0.026383
0.002940
-0.090327
0.046320
0.118117
-0.036229
-0.010182
-0.065261
0.055683
0.002135
0.001101
0.240068
-0.211867
-0.057568
0.215405
-0.090936
0.222002
-0.067365
0.126289
0.067697
-0.143155
0.107511
0.030874
0.053555
0.078477
-0.092262
0.068262
0.046001
0.086881
-0.059076
-0.016921
-0.110264
0.082609
0.140750
-0.048444
0.155054
-0.088935
0.090657
-0.052279
-0.056201
0.149108
-0.103013
0.209192
0.151079
-0.138025
0.227903
-0.185026
0.196982
-0.095594
-0.041379
0.145380
-0.116725
0.166519
0.014722
-0.044758
0.027690
-0.035274
0.024659
-0.136542
0.016116
0.038762
-0.229525
0.320182
0.136159
-0.244083
0.297112
-0.217124
0.198253
-0.166790
0.046107
0.174544
-0.126914
0.129384
0.077293
-0.199565
0.153691
-0.163326
0.086690
-0.190130
-0.075919
0.169430
0.016572
-0.021877
-0.006439
-0.011399
0.091733
0.010822
0.093271
0.039816
-0.024351
0.052331
-0.052354
0.046372
0.123565
-0.023305
0.105959
-0.045437
0.103888
-0.079149
-0.001152
-0.013834
-0.126796
0.029598
0.138647
-0.098408
0.124706
0.001728
0.040275
-0.033536
0.006940
0.019610
-0.046965
0.177862
0.130073
-0.096723
0.039284
-0.036277
0.083519
-0.050712
-0.005493
0.072661
-0.027924
-0.070447
-0.087099
0.011996
-0.040442
-0.035396
-0.033951
0.068864
-0.012190
-0.030910
0.008455
-0.104578
-0.106438
0.029743
-0.080160
0.078754
-0.030482
0.136478
-0.037972
-0.100428
0.087731
-0.003759
-0.043747
0.097244
-0.128367
0.107987
-0.113109
0.043104
0.022672
-0.152305
0.006218
-0.022355
0.043176
0.013153
-0.110377
0.082997
-0.022791
0.123484
0.053691
0.017723
0.032263
0.108236
0.012867
-0.057741
0.097697
0.006586
-0.019684
0.021559
-0.072109
0.098993
-0.006519
0.044579
-0.094962
0.086462
-0.000891
0.081662
-0.107095
0.004110
-0.020484
-0.095393
0.074499
-0.136560
-0.079499
0.151442
-0.140997
0.147835
-0.022110
0.079857
-0.037924
-0.003263
0.176981
-0.045813
-0.111910
0.109451
-0.075529
0.113971
-0.061085
0.093161
-0.036205
0.009714
0.010360
-0.133457
-0.082564
0.006382
-0.070220
-0.002513
-0.073577
0.070783
0.030664
-0.054147
0.025611
-0.003497
-0.011006
0.018881
0.022922
0.016016
0.076849
0.003984
0.002732
0.001857
0.176334
-0.169907
-0.048257
0.064556
-0.164840
0.074762
-0.130048
0.106888
-0.048611
-0.043770
0.163443
-0.030842
-0.120914
0.019475
-0.038600
0.069490
-0.004953
0.026733
-0.083451
-0.001733
0.067592
-0.046645
-0.122337
0.069556
-0.126119
-0.012117
-0.012654
0.045963
0.012832
-0.054863
0.120622
-0.047542
-0.100797
0.058482
-0.043240
-0.027454
-0.028759
0.054674
-0.033743
-0.000887
0.028208
0.026304
0.004667
0.055465
0.116746
0.063095
-0.009520
0.015245
-0.042900
0.087426
0.193631
-0.085874
-0.097758
0.198885
-0.051614
0.104074
-0.083373
0.180949
-0.029202
-0.102657
0.002475
-0.039272
-0.100999
0.020528
0.017539
-0.019429
-0.080623
0.142762
0.054516
-0.072431
0.028083
-0.198629
-0.112477
0.123673
-0.188506
0.108659
0.019769
0.000458
-0.063897
-0.069232
0.143981
-0.148866
-0.020748
0.007917
-0.002769
-0.000143
-0.039183
-0.014038
-0.001032
-0.110013
0.022366
0.013871
-0.006446
0.035340
0.009815
-0.035273
0.008998
0.062725
-0.065097
0.016540
0.152606
-0.009202
0.025873
0.097269
-0.080848
0.057270
-0.091581
0.130515
0.069255
-0.103879
0.031591
0.025853
-0.059616
0.086944
-0.018557
0.066413
-0.009555
0.115983
-0.007473
0.025570
-0.018253
-0.052233
0.043528
0.010926
-0.032486
-0.029954
0.068242
0.059514
0.056331
0.063589
0.048910
-0.015034
-0.041557
0.000692
-0.066914
0.018276
-0.072975
0.007090
-0.034818
-0.109300
-0.033883
0.148907
0.056024
-0.091915
0.112778
-0.023230
0.105876
-0.020133
0.055680
-0.021023
-0.012721
-0.021729
-0.031339
-0.000549
0.110627
-0.056914
0.096262
0.015127
-0.058730
-0.021893
0.087529
0.072677
0.075330
0.015360
-0.003670
0.047355
-0.009136
0.000356
-0.003662
0.047447
-0.065129
0.096197
0.008212
0.055522
0.102362
-0.081508
-0.005915
0.058819
-0.045614
0.068941
-0.057815
0.123205
-0.001091
-0.076299
-0.032611
0.002722
-0.016594
-0.010432
-0.053528
-0.031429
-0.065080
-0.010892
0.131723
-0.080960
0.010866
0.004269
0.086910
-0.089677
0.070921
0.089737
0.053831
0.031860
0.085362
0.032901
0.013356
0.042575
-0.057474
0.089895
0.065283
0.073946
0.056066
0.008377
0.029356
0.065091
-0.011825
0.092034
-0.029654
0.089523
-0.037295
-0.089901
0.044554
-0.056019
-0.074324
0.112142
-0.110990
0.083831
-0.060961
-0.003288
-0.072891
-0.012475
0.046243
0.026335
0.032678
0.113615
-0.031878
-0.019396
-0.009676
0.000384
-0.012813
-0.077048
-0.045228
0.063021
0.150968
-0.124821
0.170266
-0.020382
0.166852
-0.072842
-0.003032
0.067790
0.133438
0.000044
0.036451
0.033014
-0.077017
0.061802
0.051075
0.166196
-0.017939
0.022129
0.010559
-0.119390
-0.047954
0.098468
-0.039875
-0.008951
-0.008490
0.151691
-0.001922
-0.051704
0.067015
-0.104665
-0.056830
0.166588
-0.172968
0.152495
-0.072079
0.087537
0.057072
-0.042379
0.108956
-0.081552
-0.096223
0.048944
-0.134032
0.090921
0.021474
0.004941
-0.049212
0.002460
-0.130211
0.163101
0.150358
-0.081554
0.102587
-0.034303
0.005923
-0.054786
0.014167
0.069185
0.203563
-0.185394
-0.123610
0.262644
-0.118797
0.132987
-0.089166
0.212247
0.031550
-0.181697
0.034194
-0.145500
0.008989
0.085843
-0.146381
0.102794
0.023440
0.110220
0.041307
0.004386
0.187517
-0.125926
-0.076316
0.165873
-0.038680
0.160331
-0.055355
0.098077
0.075363
-0.077219
0.051006
-0.032568
-0.037076
0.035328
-0.080160
0.047561
0.037849
-0.009878
-0.023938
-0.035528
-0.086948
0.252855
0.080668
-0.134682
0.220801
-0.111755
0.195799
0.006786
-0.004175
0.140720
0.104428
-0.010489
-0.078223
-0.040805
0.077885
0.108816
-0.038457
0.104905
0.004592
0.071610
0.067774
-0.112805
-0.059931
0.008728
0.000073
0.144144
-0.061393
0.010129
-0.048706
-0.079039
0.187487
-0.136588
-0.116301
0.165062
-0.148184
0.054238
-0.049409
0.153284
-0.070963
-0.029727
0.029512
-0.170699
-0.050218
0.046971
-0.025886
0.060300
0.003749
0.053903
-0.089258
-0.081214
0.026502
0.058958
0.015984
0.061671
0.032780
-0.036269
-0.015039
-0.047206
-0.014619
0.060585
0.124634
-0.194758
-0.082953
0.191806
-0.191040
0.185540
-0.182758
0.057992
-0.041121
-0.163780
-0.055380
0.056777
0.085127
0.019437
-0.045812
-0.052775
0.068081
-0.018920
0.053674
0.026165
-0.084616
-0.038899
-0.016553
0.065556
0.110167
-0.000829
-0.003809
-0.059245
0.025292
0.042630
0.029595
-0.077906
0.018407
0.081553
-0.043146
0.088444
0.014659
-0.054378
-0.000104
0.059646
0.069164
-0.045789
0.020785
-0.075096
-0.018606
0.008874
0.046598
-0.043409
-0.035541
0.063696
-0.095227
0.116315
0.188104
-0.200642
0.140385
-0.120590
0.087547
-0.066138
-0.075780
0.084060
-0.122350
0.117929
0.101289
-0.099406
0.156386
-0.137133
0.015179
-0.124934
-0.014859
-0.005888
-0.069847
0.173084
0.156790
-0.097698
0.064701
-0.134783
0.139332
-0.182774
0.077629
0.124307
-0.081408
0.031253
0.106640
-0.057809
0.136828
-0.074440
0.134581
-0.100089
0.054282
-0.001993
-0.237972
0.265919
0.217746
-0.275519
0.293204
-0.222882
0.132998
-0.209364
0.030582
0.248038
-0.025295
0.056865
0.161043
-0.145313
0.182635
-0.122226
0.026956
-0.042221
0.057591
0.086485
-0.008466
-0.033578
-0.044948
0.051011
-0.030523
0.068603
-0.052704
-0.032839
-0.053753
-0.089406
0.024072
-0.003433
-0.022022
0.081976
-0.072856
-0.000265
0.070261
0.021815
-0.085435
0.011046
0.074619
0.060199
-0.047993
-0.028984
0.067402
0.036428
0.023422
0.034094
-0.060285
0.056588
-0.282745
0.327438
0.220282
-0.321727
0.242740
-0.245008
0.186605
-0.226094
0.077321
0.283978
0.003319
-0.010920
-0.092904
-0.001661
-0.012541
-0.038869
0.034991
0.091083
0.063424
0.000217
0.126251
-0.047148
-0.036086
0.083781
-0.065810
0.139182
-0.133737
0.040290
-0.038800
-0.072733
0.084646
-0.110025
-0.165722
0.132968
-0.151728
0.170782
-0.036673
0.075260
-0.086294
-0.088035
0.083359
0.014972
0.014828
0.112432
-0.094445
0.001705
-0.093397
0.027685
0.056676
-0.016906
-0.059227
0.074700
0.100917
-0.010291
0.012786
0.061917
0.033423
0.002954
0.047519
0.070902
0.112680
0.036342
-0.095094
0.036796
-0.057358
0.056112
-0.059928
0.071568
0.070410
0.032635
0.106880
0.021887
-0.092340
0.129514
-0.012084
0.038645
-0.061852
0.053649
-0.035138
-0.013634
0.115242
-0.029352
-0.041804
0.000216
-0.046842
0.056913
-0.074540
0.072967
0.017313
0.038833
0.057230
-0.120471
-0.080450
0.010008
0.023172
0.005845
0.029052
0.069404
-0.001814
0.041953
-0.052697
-0.008311
0.064867
-0.000794
0.081979
-0.012754
0.066419
-0.068341
-0.052092
-0.018933
0.096836
0.086929
0.050445
-0.046241
0.045910
0.030820
0.079972
-0.049528
-0.081705
0.077135
0.017833
0.031072
0.055829
0.130353
-0.093907
0.025594
-0.049048
0.107941
-0.054088
-0.022480
0.003066
-0.062475
-0.062975
0.102071
-0.070410
0.003969
0.051375
0.079760
-0.037865
0.033048
-0.024114
-0.004153
0.014997
0.117665
0.007455
0.010911
0.060220
0.047859
0.058349
-0.089281
0.028042
0.124828
-0.005353
0.063768
0.031118
0.040235
0.109108
0.001353
0.034027
0.053200
-0.017264
0.053150
0.040709
-0.063300
-0.064758
0.009480
0.072097
0.092886
0.001648
-0.040758
0.094957
0.020960
-0.037640
-0.022324
-0.034312
-0.012879
0.060292
-0.046150
-0.089045
0.022239
-0.011396
0.043572
-0.059390
0.091163
0.015890
0.116484
-0.083254
0.019812
-0.027547
-0.028136
0.075901
-0.071858
-0.036822
0.103723
0.030556
-0.007442
0.055708
0.078991
0.021811
0.044957
-0.060755
0.122646
0.033861
-0.072412
0.035223
0.058219
0.094322
-0.071974
-0.029478
0.028094
-0.009265
0.006633
-0.052826
0.091463
-0.063593
0.025871
0.000652
-0.004926
-0.002999
-0.045409
-0.005053
0.099768
0.009422
0.011937
-0.019642
0.075252
-0.078196
0.076577
-0.038060
0.082559
-0.105594
0.064660
0.016266
-0.119434
0.153220
-0.006868
0.109661
-0.055625
-0.079280
0.027342
0.044753
-0.014102
0.082113
0.035952
-0.062551
0.092573
-0.034786
-0.015882
0.069175
-0.013095
-0.000406
0.072193
0.122248
-0.051470
0.004967
0.051537
0.001168
-0.046560
-0.027273
-0.011637
-0.004437
0.052269
0.088686
0.030020
-0.008591
0.001312
0.058943
0.095593
0.005656
0.118109
-0.043702
0.120476
0.142231
-0.048523
0.048343
-0.042128
0.058372
-0.043058
-0.045175
0.077115
-0.081134
0.050193
0.092068
-0.008073
0.112968
-0.041820
0.051595
0.020297
-0.072783
0.015934
0.047053
0.100495
0.124450
0.068187
0.044369
-0.031910
-0.005117
-0.049241
-0.066018
0.097306
-0.036383
-0.012697
0.115229
-0.029539
-0.006457
0.007668
-0.019912
-0.042286
0.074302
-0.005913
0.003787
0.097574
0.021290
-0.027325
0.111000
0.064958
0.048067
0.000364
0.053274
0.014068
0.102047
-0.067059
-0.049580
-0.010011
-0.067795
0.059521
-0.043560
0.024222
0.076331
-0.027841
0.072758
0.030215
-0.098463
-0.022628
-0.070153
0.110600
-0.045467
0.056803
-0.078789
0.014815
-0.001604
-0.022732
0.056536
0.048455
-0.093761
-0.019649
-0.019643
-0.026480
-0.064028
-0.066136
-0.005670
0.148887
0.034826
-0.024069
0.070206
-0.072002
0.029934
-0.060092
-0.053955
0.061867
0.090311
0.067299
0.037725
0.109171
0.019343
0.076615
-0.078469
-0.007313
-0.042268
0.035225
0.037101
-0.017054
-0.070772
0.141479
0.005412
0.124867
-0.056199
0.060773
0.031373
-0.018257
0.024768
-0.061742
-0.039864
0.148479
0.007903
0.107439
0.000150
0.058288
-0.043628
-0.038581
0.132041
0.012159
-0.090079
0.039688
-0.079037
0.069451
0.043344
0.016607
-0.075862
0.013032
-0.087774
0.019225
0.003026
-0.048908
0.058110
-0.081315
0.049320
-0.110374
0.048182
0.124216
0.065833
-0.029344
-0.075686
0.034724
-0.048131
0.100123
-0.012268
0.049202
0.031180
-0.119397
-0.038649
0.052086
-0.015582
-0.047750
0.017420
-0.050051
0.086924
0.042127
-0.052342
0.034082
0.031593
-0.002595
-0.027258
0.104840
0.058917
-0.021507
-0.092336
0.044184
0.057871
0.054689
-0.045642
-0.034678
-0.044682
0.014557
0.003007
0.099376
-0.071207
-0.019072
-0.015059
0.083493
0.012410
0.228503
0.091474
-0.010827
0.098746
-0.072668
0.137904
-0.017691
0.039274
0.046725
0.108505
0.003721
-0.021816
-0.044899
-0.001022
0.105279
0.079481
0.083995
0.033627
-0.000563
0.074919
-0.097204
0.009427
-0.018162
-0.067305
-0.021512
-0.071562
0.050598
-0.043837
-0.052392
-0.000160
-0.087987
-0.005487
0.042521
-0.054460
0.009652
-0.079133
-0.004944
-0.022624
-0.059792
0.106204
-0.058390
-0.001274
0.108560
0.065193
0.014844
0.029922
0.019741
-0.017175
0.051037
-0.043618
0.189971
0.068901
-0.057702
0.157319
-0.080315
0.055992
-0.059097
-0.024797
0.095823
0.106189
-0.142824
-0.063810
0.144803
-0.079450
0.023712
-0.120412
0.127823
0.044179
-0.033532
0.035125
-0.014746
0.079488
0.017676
-0.041729
0.002599
-0.028164
-0.009880
-0.072879
0.088175
0.046796
0.084384
0.015411
-0.028233
-0.013548
-0.063257
0.115442
0.031624
0.030623
0.013757
0.097144
0.004716
0.045851
0.032477
0.005306
0.042182
-0.016032
0.074127
-0.012845
-0.053079
-0.027964
0.103917
0.086028
-0.073689
0.069569
-0.123638
0.048491
-0.036751
-0.013248
0.080434
0.073948
0.083728
-0.037020
0.005103
0.003983
0.064210
-0.021254
0.044856
0.072007
-0.036893
0.003526
0.116501
0.059121
0.019269
0.056551
-0.049570
0.088615
0.053856
-0.067046
0.045569
-0.012331
0.030705
-0.030145
0.008794
0.078699
-0.072360
0.020740
-0.068422
-0.013724
0.065730
-0.030763
0.030409
-0.047081
0.030167
0.083592
-0.011966
-0.019383
0.020692
0.034152
-0.002103
-0.127562
0.176043
0.198471
-0.116092
0.135076
-0.169560
0.201466
-0.175587
0.029787
0.257875
0.068331
-0.016911
0.030774
0.004560
-0.026391
0.045924
0.098225
-0.075998
0.055065
0.128007
-0.002306
-0.027180
-0.088909
0.011588
0.004638
-0.002035
0.014670
0.052778
-0.047998
-0.063115
0.149485
-0.057529
-0.066172
0.078181
0.053121
0.105016
-0.041203
-0.010301
-0.048504
-0.037147
-0.032770
-0.004329
0.068839
-0.057743
0.008757
0.097762
0.063743
0.022744
-0.070885
-0.002137
0.015164
-0.032086
0.059330
-0.031095
0.062455
0.028027
0.017703
0.032021
0.006953
0.051845
0.082459
-0.099616
-0.024446
0.040062
-0.029146
0.057111
0.017476
0.127189
0.053892
-0.082177
0.059858
0.045686
0.064790
0.080246
-0.095214
0.074849
-0.014910
0.108869
-0.060043
-0.031331
0.161174
-0.083967
-0.120292
0.109188
-0.038827
0.110180
-0.118320
0.088238
0.076387
-0.117345
0.000329
0.016652
-0.088628
0.122714
-0.059518
0.059951
-0.039131
0.018653
-0.055301
-0.018967
0.093840
-0.108602
0.013617
0.124582
-0.088605
0.137171
-0.027220
-0.002110
-0.073514
-0.079533
0.039917
-0.017256
0.078288
0.071273
-0.013929
0.074953
0.052629
0.070418
0.071135
-0.060968
0.078248
-0.051476
0.087497
0.026197
0.006854
-0.051726
0.069932
0.053434
0.056459
-0.056508
0.004694
0.090414
-0.016807
0.063223
-0.032000
-0.063009
0.044882
-0.056578
0.052261
0.048903
-0.029852
-0.010119
0.069019
-0.053017
0.005102
0.059789
-0.006177
0.008774
-0.007912
-0.029865
-0.034579
0.025918
0.092928
0.002541
0.099040
0.093332
0.006475
0.002101
0.064126
-0.007176
0.063231
0.068955
-0.032854
-0.064603
0.001377
-0.080211
0.098949
-0.000797
-0.079503
0.112955
0.039961
0.012262
-0.038465
-0.008759
-0.012557
0.012515
0.035970
-0.012883
0.033365
0.016312
0.060511
-0.007695
0.091950
-0.068409
0.047827
0.032348
0.038883
0.022844
-0.077138
0.036121
-0.072193
-0.027040
0.032983
-0.029373
0.022140
0.006962
0.066421
-0.071342
0.020374
0.113974
0.087408
-0.037541
0.045111
0.021857
0.047162
0.130816
0.041086
0.121496
-0.060583
0.077190
-0.083252
0.054319
0.024471
0.038226
0.094645
0.035177
0.003073
-0.060924
0.005937
0.032333
-0.019734
0.073205
0.102645
-0.063175
0.118336
0.067806
-0.047090
-0.006159
-0.056606
-0.003954
-0.090717
0.098660
0.101281
-0.058686
0.089075
0.000943
0.052336
-0.063244
-0.077484
0.035403
-0.055509
0.009227
0.076287
-0.051578
0.039978
-0.011422
0.036064
0.001249
0.007869
0.085796
-0.076385
0.066035
0.128936
0.051867
0.129626
-0.055768
0.001616
-0.019847
0.020127
0.132525
-0.103596
-0.011882
0.066898
-0.125280
0.112273
0.026925
0.015258
0.036322
0.071537
0.162164
-0.004448
0.138375
0.108589
-0.059997
0.084750
-0.089404
-0.019403
0.043650
0.024470
0.111294
-0.111123
0.132901
0.089626
-0.032378
0.004668
-0.090379
0.134155
-0.052972
0.075428
0.018986
-0.056084
0.062838
0.040031
-0.031456
0.039225
-0.086425
0.082812
-0.014543
-0.045478
0.065537
0.020468
0.032503
0.013218
-0.071224
0.026173
-0.014748
0.123290
-0.023135
0.002476
0.018913
-0.016524
0.092402
0.027333
0.032488
-0.006418
0.032548
-0.038590
-0.040108
0.071938
0.027814
-0.007836
0.001225
0.110507
-0.063163
0.026331
-0.098094
0.133340
-0.034309
0.034215
0.006757
0.044520
0.066160
0.049527
-0.017283
0.091218
0.001489
0.060377
-0.090871
0.049090
0.082969
0.009410
0.125485
0.081253
-0.087214
0.020367
-0.090432
0.103118
-0.083281
0.069184
0.000933
-0.021053
0.017428
0.055138
-0.090677
-0.015372
-0.046897
0.010157
0.061374
-0.076027
0.094214
0.003754
0.050039
0.051686
0.056773
-0.062956
0.010077
-0.061786
0.109563
-0.005604
-0.060399
0.061403
0.010294
-0.022822
0.063684
-0.061760
0.055683
0.055811
0.001156
0.054672
-0.086465
0.023367
-0.045320
0.050856
0.055761
0.040654
0.024735
-0.047547
-0.035537
-0.084397
-0.012905
0.002723
0.012301
0.066444
-0.045123
0.071335
0.045049
-0.048104
0.030658
0.068411
-0.054650
0.045849
0.106349
-0.002370
-0.013373
0.118799
-0.047002
-0.019431
-0.046581
0.070923
0.046129
0.084887
-0.086620
0.016099
0.126074
-0.006537
0.103037
-0.067662
0.044618
-0.088254
-0.109134
-0.015236
0.040991
0.083286
0.048764
-0.002197
-0.016602
0.020141
-0.046262
0.027627
-0.046383
-0.029768
0.058308
0.065004
-0.051364
-0.040612
0.107168
0.029183
0.047355
-0.065165
0.050642
-0.053580
0.031326
-0.025770
-0.061715
-0.033732
0.031365
0.013099
-0.017144
0.066423
0.080630
0.012780
-0.011720
0.038794
-0.045766
0.079781
0.001492
0.067495
-0.020423
-0.070690
0.021347
-0.035905
0.122402
-0.045940
-0.037752
0.098005
0.065398
-0.014872
0.039687
-0.024922
0.082627
0.055982
0.147488
-0.022654
-0.086339
0.090997
-0.077249
-0.024796
0.034142
0.045789
0.053265
-0.070505
-0.016194
-0.029100
-0.012236
0.045358
-0.041982
0.016152
-0.002377
-0.037120
-0.005041
-0.008054
0.079476
0.100251
0.030554
0.049216
-0.064949
-0.012919
-0.017468
-0.022870
0.003571
-0.133067
0.297666
0.273864
-0.116583
0.189086
-0.167950
0.277304
-0.152643
0.026539
0.178760
-0.072461
0.155191
0.049898
-0.013103
0.082006
-0.029864
0.096610
-0.036692
-0.001066
0.077120
0.110896
-0.065410
-0.040038
0.006749
-0.024649
-0.032403
0.067725
0.014747
-0.023950
0.004327
0.005835
0.009659
0.071923
-0.036812
-0.000545
-0.045612
0.072482
0.113413
0.000214
0.078826
-0.010926
-0.061834
0.074663
0.016274
0.088938
0.073321
-0.040053
0.112269
0.064510
0.063317
-0.181130
0.112402
0.138672
-0.155298
0.190291
-0.081752
0.193257
-0.020117
-0.077781
0.185022
0.113460
-0.056460
-0.077684
0.095577
-0.046459
-0.006530
-0.087331
0.123995
-0.038300
-0.050966
0.110198
-0.044264
-0.025484
0.047063
0.006304
0.113437
-0.002247
-0.002835
-0.034757
0.054922
-0.016521
-0.022854
0.085077
0.105849
0.029645
0.033877
-0.019012
0.069328
0.042357
0.067514
-0.016958
-0.028745
0.050149
-0.013550
0.032700
0.073824
-0.036880
-0.011182
0.064672
-0.018831
-0.024809
0.156261
0.165794
-0.101560
0.167324
-0.060131
0.148421
-0.018118
0.052871
0.142295
0.003812
0.029228
-0.021614
0.065026
0.058307
0.095363
-0.057267
0.025906
0.074406
0.009486
0.086798
0.034939
-0.048149
0.114211
0.071635
0.035525
-0.014679
0.037286
-0.041330
-0.010028
-0.002320
0.098608
-0.047082
-0.036332
-0.005910
0.030519
0.036324
-0.012490
-0.039741
0.004591
-0.001522
0.004769
-0.067779
0.061175
-0.002992
0.027465
-0.070252
0.103148
-0.079490
0.028782
-0.003410
0.163867
0.093604
-0.080296
0.116382
0.000621
0.020042
0.018166
0.037172
0.028772
0.026922
0.037686
-0.058341
0.064206
-0.003033
0.033981
0.026001
-0.031710
0.063441
0.049961
0.121714
0.096140
0.048553
0.087550
-0.001376
0.063048
0.006775
-0.015989
-0.066567
0.001658
0.064952
0.044897
-0.020071
0.006535
-0.069906
0.049363
-0.097320
0.130309
-0.075199
-0.068395
0.078024
0.008707
0.005121
0.082835
0.078118
0.085315
0.045791
-0.029404
-0.018867
-0.049695
-0.016853
0.041987
-0.034605
0.048434
0.003103
0.125609
0.054701
0.008985
-0.035038
-0.088773
0.000238
0.000718
0.072962
-0.029807
-0.009433
0.000669
-0.045900
-0.042645
-0.022493
-0.029804
0.065142
0.110320
0.051305
0.069924
0.058967
0.036193
0.022741
0.098566
-0.007600
0.057472
0.046162
-0.023109
0.027006
0.049766
-0.026645
0.080707
-0.015274
-0.031248
0.009789
-0.025458
0.072925
-0.019187
-0.000565
-0.036953
0.021060
-0.012273
-0.036946
-0.012432
0.009470
0.065654
-0.038038
-0.048051
-0.057690
0.090428
0.076761
0.028189
0.079553
0.080861
0.047336
-0.044501
-0.078499
0.086180
-0.018989
-0.040642
0.014990
-0.094333
0.072012
-0.078981
-0.001634
0.084672
0.064344
-0.001085
0.006104
-0.049186
0.105427
-0.009840
0.036590
0.026230
0.016905
0.042138
0.073581
0.116224
0.014674
-0.043141
-0.024425
-0.073915
0.067366
0.020113
0.046364
0.050392
0.049764
0.046952
0.031744
-0.008184
-0.026849
-0.030368
0.071092
0.010083
0.029347
0.056609
0.105509
0.095963
0.090471
0.035180
0.102374
0.072109
0.064995
0.076083
-0.032442
0.013623
-0.001047
-0.044161
-0.021831
0.103277
-0.067016
0.041670
-0.048757
0.064184
0.056483
0.066127
0.035698
-0.004645
0.058863
0.002954
0.088636
-0.024965
0.108295
-0.066253
-0.029616
0.137305
-0.095811
0.012299
0.014316
-0.003452
0.054070
-0.055695
0.029493
-0.015003
0.047762
0.085122
0.025483
0.080620
0.071587
-0.058095
0.096551
0.008411
0.096722
-0.055757
-0.044635
0.070317
0.047981
0.107072
-0.056703
-0.025930
0.095523
0.034707
-0.024405
-0.000028
0.067569
0.083689
-0.062512
-0.027871
0.050399
0.021237
0.077111
-0.050597
-0.051350
0.094145
0.021441
-0.027444
0.005167
0.147293
0.015681
-0.021401
0.080528
-0.097077
-0.007228
0.008737
-0.067864
0.068149
0.022220
0.149592
0.106142
-0.137696
-0.004959
-0.024868
0.012454
0.012641
0.006232
0.034565
0.030739
0.096286
0.097137
0.013879
-0.007820
0.016175
0.049368
-0.084748
0.055359
0.035469
-0.071644
0.052362
0.010892
-0.086496
0.060934
0.009894
0.107435
0.062831
0.048896
0.015492
-0.040417
0.115914
0.029538
-0.102091
0.047639
-0.028634
0.042718
-0.086221
0.074778
0.022116
0.032319
0.081111
0.003605
-0.014062
0.056887
-0.041096
0.050786
0.043034
0.030814
0.109400
-0.106452
0.087951
0.106599
-0.079412
0.056423
-0.014616
-0.018358
-0.037204
0.066847
0.111924
-0.036483
0.110701
0.019261
-0.121479
-0.002102
0.018859
0.025914
-0.063582
-0.080254
0.155678
0.075818
0.036600
0.047237
-0.065789
0.048706
0.026048
0.115649
-0.055832
-0.011591
-0.017141
-0.005416
0.109878
0.112730
-0.039656
0.102047
-0.042911
0.090894
0.053308
-0.069030
-0.028473
-0.040049
-0.010699
0.136342
-0.057093
0.126144
-0.051941
0.100066
0.027093
0.067226
-0.032829
0.062919
0.139263
0.096298
0.042352
0.121315
-0.034376
0.140605
0.068349
0.003978
0.078137
0.036079
0.043102
-0.013086
0.083333
-0.036265
-0.060196
0.102483
-0.001779
-0.017952
0.127188
-0.047972
0.065118
0.113324
0.037401
0.047527
0.010944
0.125606
0.000905
-0.056167
0.074073
-0.035367
-0.045746
-0.049663
0.074365
-0.044667
0.039388
-0.014293
0.035577
-0.037862
-0.047639
-0.029893
0.054353
0.058631
-0.051969
0.020351
0.012256
0.033593
0.050140
0.073125
-0.039355
0.099301
-0.030714
-0.011303
-0.037095
0.060004
0.080278
-0.002445
0.113616
0.050662
0.026020
0.014433
-0.011566
-0.013848
-0.014261
-0.011060
0.085718
-0.029506
0.066085
-0.075678
0.036523
0.080213
0.132792
0.004283
0.056608
0.026548
-0.072699
0.093745
-0.062949
0.042637
0.037237
-0.006286
0.095152
-0.032984
0.020339
-0.013669
-0.021816
-0.025465
0.047700
0.017500
0.017413
0.057630
0.057066
0.078300
-0.044700
-0.007456
-0.021360
-0.033853
0.044682
-0.027983
0.097588
0.008126
0.086019
0.032883
-0.046320
-0.044668
0.061948
0.046140
0.081123
-0.035195
0.024123
-0.024478
0.102813
0.031278
-0.048007
0.066259
0.074132
0.000290
-0.037372
0.055221
0.029675
0.023834
0.034774
0.039731
-0.088989
0.003930
-0.066537
0.016487
0.063481
0.049377
0.066868
0.053207
0.057061
0.123194
-0.077371
0.031441
-0.025608
0.050461
-0.063499
0.041492
-0.001250
-0.089175
0.131887
0.059759
-0.011294
0.000706
0.052639
0.038338
0.021744
0.040274
0.111613
-0.096039
0.124916
0.011974
-0.041517
0.113795
0.043070
0.127895
-0.085099
0.057002
0.118538
-0.065792
0.079449
0.073519
-0.015399
0.131815
0.044924
-0.006528
0.062464
-0.015100
0.068597
-0.067167
0.190595
0.151203
-0.163586
0.163854
-0.033246
0.140357
-0.064893
0.030833
0.181388
-0.038568
0.049314
0.095993
-0.158743
0.066241
-0.105773
0.059038
0.005681
-0.025954
0.133081
0.069242
-0.010021
-0.018612
0.063717
0.088262
0.093183
0.011547
-0.051955
-0.051782
0.049782
0.094691
-0.114374
0.011747
0.036935
0.058443
-0.009504
-0.070661
0.039583
0.023750
0.036295
0.087603
0.036616
0.093893
-0.033417
0.042002
0.060390
0.008949
-0.050256
-0.063675
0.091499
-0.107556
0.188747
0.121916
-0.241719
0.149995
-0.202916
0.174504
-0.219346
0.077437
0.143448
-0.060573
0.016974
0.079370
-0.085416
-0.007555
-0.108001
0.020419
-0.049401
-0.045989
0.056876
0.037378
-0.087989
-0.098635
0.106972
-0.003582
0.023650
0.044224
0.002952
-0.036911
0.036968
0.134651
0.031244
-0.009380
-0.013005
-0.027352
0.067499
0.028673
0.100002
0.062419
-0.058839
0.138297
0.022972
-0.029343
0.135361
-0.095543
0.029235
0.011578
0.152540
-0.059995
-0.032413
0.104116
0.054818
0.034508
0.087291
-0.069790
-0.012435
-0.097650
0.132937
-0.046225
-0.108751
0.017434
0.028184
0.031515
0.089881
-0.011390
0.021851
0.078049
-0.006708
0.041994
0.003962
0.123045
-0.093410
0.001232
0.060758
-0.041295
0.076949
0.026848
0.084047
-0.027871
-0.055134
0.079339
-0.027200
-0.071168
0.141344
-0.021805
0.062726
0.035061
0.127191
0.064101
-0.087241
0.119134
-0.007241
0.021781
0.017711
0.045379
0.066916
0.059434
0.035974
-0.006197
-0.111984
-0.002607
-0.060803
-0.043465
-0.017860
0.055971
0.046354
-0.004786
0.125034
0.060757
0.030520
0.036098
0.045816
0.073303
-0.058948
-0.043890
0.072032
-0.009550
0.024666
0.069233
-0.092234
0.010435
0.013399
-0.067661
-0.056521
-0.058014
-0.042822
-0.036862
0.109222
0.032253
0.048865
0.066953
-0.002833
-0.027495
0.076453
-0.038712
-0.016901
0.056141
0.118316
-0.017548
-0.039933
0.117561
0.052344
-0.059942
0.002122
0.003304
0.019586
-0.015521
0.002680
0.054792
-0.020217
0.036144
-0.016429
0.019108
0.101323
-0.043308
0.047347
-0.066765
-0.008142
0.022903
0.011819
-0.004183
0.109147
0.069009
-0.032418
0.110774
-0.137052
0.088783
-0.038015
0.016106
0.053615
-0.025461
0.044627
0.043851
0.043557
0.029194
0.067464
-0.028671
0.096216
0.004056
0.087686
-0.056690
0.001140
0.018500
-0.016384
0.097858
0.018785
-0.015069
-0.009455
-0.032464
0.101529
-0.049215
0.090778
-0.033640
0.053141
0.088651
0.075946
0.093172
-0.065502
0.043882
-0.038912
0.049327
0.077679
-0.026594
-0.009499
0.049696
-0.022978
-0.031747
-0.015865
-0.035583
-0.040213
0.008401
-0.022972
0.066823
-0.010934
0.022660
0.047227
-0.001717
0.013376
-0.063983
0.007780
-0.085188
-0.010371
0.036655
-0.082106
0.036635
-0.057867
0.060491
0.057205
0.004961
0.125995
-0.040926
0.030058
0.066715
0.087702
0.012695
0.054730
-0.033097
0.003411
0.027734
0.106240
-0.053636
0.106277
-0.045514
-0.038655
-0.020144
0.012463
-0.019814
0.008220
0.028413
0.023210
-0.044739
0.096673
0.087223
-0.027240
0.070925
-0.065643
0.007344
-0.027997
0.064221
-0.027270
-0.048423
0.011390
-0.035402
-0.029973
0.083672
-0.063011
0.009057
-0.018493
-0.016399
0.080119
-0.042738
0.081015
0.010484
-0.083120
0.121747
0.012979
0.039117
0.036484
-0.062943
-0.015675
-0.082891
0.138832
0.020279
-0.129111
0.045149
-0.075969
0.113574
0.013134
-0.034414
0.072588
-0.038182
-0.056459
-0.039669
-0.052223
0.072966
0.074374
-0.003608
0.085364
-0.021924
0.118997
-0.020363
0.146631
0.063209
-0.034803
0.097037
-0.009091
0.066900
0.054807
-0.045497
0.017031
0.027662
0.113939
0.063940
-0.025794
-0.016269
0.011924
0.037904
0.003726
-0.008732
0.125421
0.042840
0.136597
0.124195
0.022918
0.003439
0.032169
0.030740
-0.050261
0.069408
0.035951
-0.092298
0.004193
0.002173
-0.101758
0.050327
0.024874
0.015678
-0.011431
-0.048857
0.097544
-0.073645
0.064370
0.049836
-0.039278
0.082986
-0.018979
-0.010528
-0.066400
-0.076510
0.107749
-0.003538
0.106446
0.085640
0.024862
0.044402
-0.039997
0.073306
0.044163
-0.048552
0.136266
-0.101080
0.026852
0.019323
0.006793
0.133584
-0.001159
0.092089
0.030187
0.000731
0.136922
-0.050448
0.009670
0.074134
-0.088810
0.070124
-0.103799
0.119301
-0.110239
0.035407
0.103678
0.041986
0.105526
0.000446
-0.036360
0.056201
-0.023247
0.123146
-0.111749
0.050661
0.049213
-0.050777
0.033905
0.051217
0.030883
0.166141
-0.093705
0.002958
-0.060863
0.066076
0.101545
0.073541
0.095015
-0.023298
0.026161
0.034411
-0.029854
0.015055
0.053026
-0.059597
0.082688
-0.016150
0.021301
-0.018527
-0.010821
0.085621
-0.058273
0.090671
0.069636
-0.075603
0.106572
0.038429
0.019098
-0.009260
0.055651
-0.025268
0.017721
0.117327
-0.045726
-0.005941
0.081016
0.068524
-0.004414
0.031515
0.018866
0.104047
0.068067
0.061188
-0.069358
0.032507
0.077252
-0.066859
0.056455
-0.033551
0.078088
0.107991
-0.059369
0.065492
0.062291
-0.078075
0.015096
0.010468
0.112363
0.058521
0.042891
-0.011460
0.059520
0.089759
-0.019122
-0.088438
-0.001910
0.023856
0.014790
0.002637
-0.006069
0.022968
-0.025962
0.100586
0.071747
-0.065966
0.078021
-0.043294
0.016265
-0.003423
-0.000412
0.131818
-0.022351
0.000103
0.022523
-0.003877
0.102247
0.001742
0.000834
-0.031733
0.057239
0.073037
0.004626
0.078742
0.033882
-0.006234
0.028379
-0.013149
0.114278
0.112844
-0.076125
0.039276
0.054010
0.085305
-0.074009
0.063844
0.043289
-0.027030
0.000307
0.035464
0.042090
0.028348
0.008908
0.062111
-0.004824
-0.005809
0.073822
-0.016000
-0.039857
-0.008213
0.041989
0.111150
0.014662
0.050378
-0.031811
0.002255
0.070298
0.019717
0.040564
-0.014798
0.069510
-0.022393
0.041420
0.028738
0.069995
-0.049169
0.090555
0.044955
0.010026
0.046179
0.029692
0.061545
-0.053581
0.039782
0.021785
0.062669
0.064071
0.049516
-0.001660
-0.028241
0.017654
0.057164
0.015599
0.041546
-0.075545
0.047653
0.095394
-0.089040
0.105182
0.095000
-0.080563
0.008679
-0.086497
0.029997
-0.035060
0.041668
0.047413
-0.055349
0.046788
-0.024550
-0.028053
0.039278
0.038984
-0.024941
-0.025159
0.076941
0.004394
-0.052350
0.092091
0.115698
-0.054205
-0.009629
0.034485
-0.042341
-0.059492
-0.056203
0.009870
-0.001849
-0.005998
-0.042803
0.022420
0.111869
0.040047
-0.053876
-0.012378
-0.086837
0.024715
-0.039209
0.016744
0.073153
-0.000612
-0.022609
-0.077271
-0.023364
0.041717
-0.077640
-0.032368
-0.089898
0.088341
0.000403
-0.074177
0.031355
-0.106145
0.073195
-0.062749
-0.060666
0.065207
-0.049389
0.060241
0.034396
-0.044264
0.061000
-0.048518
0.057450
-0.011169
0.032017
-0.021300
0.008154
0.097122
0.052579
-0.067385
-0.042771
-0.000773
0.106808
-0.042500
-0.038484
-0.047682
-0.026821
0.011060
0.018821
-0.048408
0.061061
0.019188
-0.005954
-0.019866
0.003351
0.100708
0.036553
-0.033361
-0.030975
-0.087495
0.088722
-0.096441
0.058462
-0.017328
-0.044803
0.047932
-0.036966
0.006209
0.140699
-0.006341
0.058505
0.049008
0.020521
-0.073754
-0.081832
0.035690
0.016794
0.108802
-0.030891
0.039688
0.115362
-0.044567
0.006866
-0.082162
0.055820
0.051547
0.057160
0.039569
0.063833
-0.059708
-0.018721
0.052179
-0.031340
-0.026315
-0.061497
0.003431
0.084259
-0.012199
-0.006188
0.093996
-0.000325
-0.007222
0.005119
0.040280
0.058744
-0.000009
-0.013510
0.042161
0.019477
-0.056542
0.089151
0.086279
-0.008817
-0.001660
-0.061524
0.092558
-0.064630
0.149211
0.136263
0.047622
0.016294
-0.059333
0.139877
-0.023885
0.040218
0.136697
-0.051823
0.044813
0.067642
0.008094
-0.036904
0.022193
0.080991
0.006522
0.041096
-0.008316
0.025008
0.029635
0.002744
0.018601
0.058167
0.000039
0.066877
0.038959
-0.031549
0.002758
0.074770
0.089395
0.044893
-0.083464
0.094997
-0.040126
-0.035835
0.020918
0.034408
0.054965
0.099983
0.048446
-0.054958
-0.009910
0.007165
0.085295
-0.044087
-0.010025
0.056428
0.042238
-0.019897
-0.004294
-0.019201
0.048845
0.015042
-0.098245
0.007304
-0.066372
-0.079256
0.124433
-0.040042
0.076121
0.061382
-0.033763
0.079478
-0.109692
0.137191
-0.085510
-0.066594
-0.000426
0.079067
0.063555
0.001692
0.022288
0.003012
0.016590
-0.019915
-0.047732
-0.021527
0.117071
-0.042927
0.077804
0.009159
0.052804
0.021538
0.006269
0.085642
0.010872
0.029228
0.164213
0.079083
0.087462
-0.036055
-0.069601
0.096824
0.056196
0.101206
-0.000813
-0.018108
0.021351
0.055675
0.108159
0.089245
-0.060516
0.013842
0.041825
0.138887
0.029604
-0.031739
0.074880
-0.097652
0.096629
0.120175
-0.111811
0.135014
-0.094831
0.130408
-0.030743
0.025758
0.161025
0.069684
0.022294
0.101198
0.023658
0.087442
-0.064628
0.029843
-0.037223
-0.002117
0.040176
-0.047832
0.047073
0.048407
0.038239
0.100957
0.002665
-0.039324
-0.044794
0.034648
-0.025531
0.049537
0.035985
0.115546
-0.087139
-0.018682
-0.009343
0.035684
-0.030924
0.074844
0.108097
-0.045451
-0.017330
0.105928
-0.090317
0.045050
0.021726
-0.002190
-0.051074
-0.014670
0.003093
0.057424
-0.013506
-0.028492
-0.004901
-0.033860
0.073035
-0.005189
-0.018981
-0.063186
-0.048722
-0.017745
0.062883
0.055935
0.034896
-0.025689
-0.029163
0.123141
0.075973
-0.045530
0.110652
-0.047258
0.086587
0.112985
-0.068348
-0.027591
-0.013274
0.115734
-0.048506
-0.067912
0.107137
-0.008054
0.072872
0.063321
-0.000299
0.011101
0.065580
-0.017753
-0.050798
-0.022412
0.009340
-0.007805
0.136760
0.072265
-0.024756
0.119900
-0.087783
0.087888
0.081590
-0.048675
0.129397
-0.007622
0.026593
0.105739
0.007054
0.051773
-0.030545
0.045954
0.036349
0.039748
0.058901
0.004436
0.065550
0.039284
-0.018174
0.061115
0.034068
0.118454
0.030603
-0.001585
-0.027606
0.000405
0.093003
0.097349
0.028798
-0.023450
-0.000679
0.083138
0.066137
0.028950
0.026341
-0.035920
0.032893
0.045099
-0.017740
-0.029782
0.037801
-0.001773
-0.008719
-0.056587
0.011957
-0.019665
-0.013135
-0.002980
-0.073435
0.080102
-0.034550
-0.020902
0.060019
-0.059705
0.052597
0.003006
0.057614
0.105616
0.058576
0.096125
-0.018190
0.042330
-0.015441
-0.019914
0.029585
0.024715
0.139304
-0.031097
-0.011008
0.093645
-0.016971
0.092149
0.039923
-0.016194
0.012427
0.088556
0.060118
0.031901
0.047741
0.067286
0.063679
-0.035340
0.072985
0.045543
0.059640
0.026762
0.070000
0.039389
-0.049926
0.055787
0.043242
0.004233
-0.041420
-0.057359
0.047418
0.072319
0.010420
0.030020
-0.052826
0.140689
-0.079084
0.003203
-0.046604
-0.021704
-0.023503
-0.026916
0.004324
0.042548
-0.024266
0.102302
0.032157
0.012247
-0.030374
0.040058
0.077743
-0.059047
0.052936
-0.000480
-0.048920
0.061629
-0.055320
0.103130
-0.038643
0.015679
0.109526
-0.018359
-0.012187
0.109904
0.012194
-0.001162
-0.048690
0.061037
0.019721
-0.029744
-0.043838
-0.030989
-0.017434
-0.036470
0.057582
-0.037576
-0.056680
0.050453
0.011162
0.006023
0.084507
